{"type":"LSTM","options":{"inputSize":36,"inputRange":36,"hiddenLayers":[20,20],"outputSize":36,"decayRate":0.999,"smoothEps":1e-8,"regc":0.000001,"clipval":5,"maxPredictionLength":100,"dataFormatter":{"values":["This is a scam.","fraud","100% real offer, not a scam","We just need your card details and mothers maiden name.","we are going to scam you","Tickets for sale, scalped tickets!","great product, great reviews","notfraud","we are an industry leader","we have great customer support","This product is well reviewed","Fantastic Product, are customers love it!"],"indexTable":{"0":14,"1":13,"T":0,"h":1,"i":2,"s":3," ":4,"a":5,"c":6,"m":7,".":8,"f":9,"r":10,"u":11,"d":12,"%":15,"e":16,"l":17,"o":18,",":19,"n":20,"t":21,"W":22,"j":23,"y":24,"w":25,"g":26,"k":27,"p":28,"!":29,"v":30,"F":31,"P":32,"stop-input":33,"start-output":34,"unrecognized":35},"characterTable":{"0":"T","1":"h","2":"i","3":"s","4":" ","5":"a","6":"c","7":"m","8":".","9":"f","10":"r","11":"u","12":"d","13":"1","14":"0","15":"%","16":"e","17":"l","18":"o","19":",","20":"n","21":"t","22":"W","23":"j","24":"y","25":"w","26":"g","27":"k","28":"p","29":"!","30":"v","31":"F","32":"P","33":null,"34":null,"35":null},"characters":["T","h","i","s"," ","a","c","m",".","f","r","u","d","1","0","%","e","l","o",",","n","t","W","j","y","w","g","k","p","!","v","F","P","stop-input","start-output","unrecognized"],"specialIndexes":[33,34,35]}},"input":{"rows":37,"columns":36,"weights":{"0":1.1692726612091064,"1":2.29439115524292,"2":-0.15070214867591858,"3":0.3559565544128418,"4":-1.0758206844329834,"5":0.8870593905448914,"6":-2.7314727306365967,"7":0.18803726136684418,"8":-0.4336687922477722,"9":-0.546435534954071,"10":-0.4861046373844147,"11":-0.21827200055122375,"12":0.1996348798274994,"13":0.8722906708717346,"14":-0.07167422771453857,"15":-3.666466236114502,"16":0.903407871723175,"17":0.57840895652771,"18":0.906890869140625,"19":-1.4530389308929443,"20":-1.560250997543335,"21":1.3323485851287842,"22":1.158907413482666,"23":1.0185526609420776,"24":-2.68534517288208,"25":-0.6299010515213013,"26":2.1175413131713867,"27":-1.6900591850280762,"28":-0.7513642907142639,"29":1.3356574773788452,"30":-2.1124157905578613,"31":0.9253838062286377,"32":2.8683085441589355,"33":0.5932590365409851,"34":0.8368504643440247,"35":-0.8072689771652222,"36":-2.1751513481140137,"37":6.759063720703125,"38":-2.229421377182007,"39":2.3715527057647705,"40":1.7294542789459229,"41":-4.566128730773926,"42":5.4353790283203125,"43":1.9701730012893677,"44":3.779344081878662,"45":-0.27891984581947327,"46":1.3924895524978638,"47":0.32829052209854126,"48":-0.9850041270256042,"49":-6.242109298706055,"50":-0.934240996837616,"51":-3.9495809078216553,"52":-6.2353434562683105,"53":-5.972513675689697,"54":-3.717059850692749,"55":-4.313356399536133,"56":-4.375567436218262,"57":6.7416276931762695,"58":-6.0992302894592285,"59":-0.7290763258934021,"60":-4.046518325805664,"61":3.636479139328003,"62":-1.0988521575927734,"63":-7.26832914352417,"64":-2.1608829498291016,"65":1.1501606702804565,"66":-0.7314532399177551,"67":-1.7401071786880493,"68":2.883262872695923,"69":-4.630608558654785,"70":-0.9394811987876892,"71":-4.943739891052246,"72":-0.8611025214195251,"73":-2.4844982624053955,"74":1.9445545673370361,"75":-0.24124346673488617,"76":-6.038091659545898,"77":0.3309490382671356,"78":-1.8872768878936768,"79":2.5449793338775635,"80":-5.342682838439941,"81":-8.053142547607422,"82":-3.586381196975708,"83":2.7323265075683594,"84":-1.7915288209915161,"85":9.790485382080078,"86":-1.3005790710449219,"87":-1.7591500282287598,"88":1.003173589706421,"89":-0.4376669228076935,"90":-1.7648316621780396,"91":-0.7890469431877136,"92":2.0789732933044434,"93":-4.549090385437012,"94":2.5986015796661377,"95":0.7086595296859741,"96":-7.405638217926025,"97":-3.3943464756011963,"98":2.2368688583374023,"99":0.5785036683082581,"100":6.246524810791016,"101":5.502626419067383,"102":-7.83272123336792,"103":-4.218986511230469,"104":-1.0537848472595215,"105":4.732080459594727,"106":2.6778430938720703,"107":-3.5472769737243652,"108":1.4988263845443726,"109":0.6013842225074768,"110":0.05492193624377251,"111":1.3263999223709106,"112":-1.1593353748321533,"113":0.13296569883823395,"114":-0.7184814810752869,"115":-1.9845651388168335,"116":-3.7668373584747314,"117":1.469099521636963,"118":-2.415290355682373,"119":-5.7470808029174805,"120":-3.0225672721862793,"121":1.4275436401367188,"122":-1.7213079929351807,"123":2.1522724628448486,"124":-3.1301791667938232,"125":0.11690764129161835,"126":-0.36191388964653015,"127":-2.5235936641693115,"128":0.8831762075424194,"129":-3.6939139366149902,"130":-0.06663107126951218,"131":0.011398917064070702,"132":2.0941052436828613,"133":3.3138933181762695,"134":-1.6519969701766968,"135":-1.3527278900146484,"136":0.6124922037124634,"137":-2.571467399597168,"138":-0.37837544083595276,"139":-2.0775904655456543,"140":-1.4275901317596436,"141":1.961554765701294,"142":0.49611279368400574,"143":-4.678732395172119,"144":-0.08980151265859604,"145":1.4468438625335693,"146":0.25366953015327454,"147":0.03904776647686958,"148":-1.8049206733703613,"149":-0.02954852022230625,"150":0.39525106549263,"151":-1.5790493488311768,"152":-0.2609792947769165,"153":0.18002361059188843,"154":0.0018612596904858947,"155":0.3627456724643707,"156":-0.04761822894215584,"157":0.6892260313034058,"158":-3.1440155506134033,"159":1.253214955329895,"160":-0.31386858224868774,"161":1.5108482837677002,"162":0.9311628937721252,"163":-1.0378518104553223,"164":-0.6743290424346924,"165":0.11246351152658463,"166":-1.1998755931854248,"167":-1.5072928667068481,"168":2.8502752780914307,"169":1.0430684089660645,"170":1.4680812358856201,"171":-1.064675211906433,"172":-2.1990139484405518,"173":-3.3439486026763916,"174":-1.5448181629180908,"175":-0.9079312086105347,"176":-2.2373106479644775,"177":0.6296998262405396,"178":1.0984126329421997,"179":0.12823720276355743,"180":0.91994708776474,"181":0.1953977346420288,"182":-2.6237809658050537,"183":-0.9749252200126648,"184":-1.6088438034057617,"185":2.639437675476074,"186":-2.6353588104248047,"187":-0.8005079030990601,"188":-0.291088342666626,"189":1.0313007831573486,"190":2.880852222442627,"191":1.8100943565368652,"192":-0.04041317477822304,"193":0.46350693702697754,"194":2.4318411350250244,"195":2.322387456893921,"196":0.07134070992469788,"197":0.5152621865272522,"198":-2.8688082695007324,"199":-1.2552490234375,"200":5.384637355804443,"201":2.8690757751464844,"202":2.9883320331573486,"203":-2.1236701011657715,"204":0.7824758887290955,"205":-2.1089091300964355,"206":-3.4732608795166016,"207":1.3443505764007568,"208":-1.2071202993392944,"209":-1.6667765378952026,"210":2.371474027633667,"211":-2.6097893714904785,"212":1.0415031909942627,"213":-2.0352957248687744,"214":-4.677638530731201,"215":1.3563833236694336,"216":-2.0324063301086426,"217":2.816610813140869,"218":-1.0282342433929443,"219":1.5858899354934692,"220":-1.493779182434082,"221":-2.351374864578247,"222":1.3726398944854736,"223":-1.0584352016448975,"224":2.9103827476501465,"225":3.2520318031311035,"226":-0.10556896030902863,"227":-2.5108370780944824,"228":-2.092463254928589,"229":-3.044999361038208,"230":-3.0987274646759033,"231":-0.6123025417327881,"232":-1.8193191289901733,"233":0.4878305494785309,"234":-0.7226876020431519,"235":-4.835123062133789,"236":-2.5564239025115967,"237":-1.342469334602356,"238":0.9112050533294678,"239":-3.2894158363342285,"240":-0.4474324882030487,"241":5.847240447998047,"242":-0.5554986596107483,"243":-0.898249626159668,"244":-2.6637163162231445,"245":-3.375977039337158,"246":-0.14716322720050812,"247":-3.025007724761963,"248":0.9726445078849792,"249":0.4331135153770447,"250":-0.6384492516517639,"251":-2.8270175457000732,"252":2.9274046421051025,"253":-1.9614206552505493,"254":0.288082093000412,"255":1.8999717235565186,"256":2.34234356880188,"257":3.6423451900482178,"258":2.2611658573150635,"259":1.0522829294204712,"260":0.5011370778083801,"261":-0.15330512821674347,"262":-1.7283852100372314,"263":-0.718963086605072,"264":-0.4542577564716339,"265":2.672339677810669,"266":3.2561259269714355,"267":4.649765968322754,"268":-3.651594400405884,"269":0.20241692662239075,"270":-0.6068457365036011,"271":3.198639154434204,"272":0.7285432815551758,"273":-2.0143954753875732,"274":0.1683591902256012,"275":-3.9224581718444824,"276":-1.5176283121109009,"277":0.6783023476600647,"278":-3.002711057662964,"279":2.7179782390594482,"280":2.8856287002563477,"281":0.6731815934181213,"282":-2.081961154937744,"283":-0.12603458762168884,"284":0.6230730414390564,"285":4.059546947479248,"286":-2.9754951000213623,"287":-1.7418299913406372,"288":1.1967097520828247,"289":-2.4636354446411133,"290":4.462364196777344,"291":-2.5459535121917725,"292":-5.780902862548828,"293":4.3902435302734375,"294":1.1652706861495972,"295":2.4233131408691406,"296":-1.5166579484939575,"297":-5.94008207321167,"298":4.863498687744141,"299":-1.97785484790802,"300":-2.597517967224121,"301":0.710214376449585,"302":0.9972060918807983,"303":-5.350354194641113,"304":-2.953833818435669,"305":0.7571396231651306,"306":2.166051149368286,"307":-4.678462505340576,"308":-1.0300787687301636,"309":-1.6657836437225342,"310":1.1069695949554443,"311":-2.634735107421875,"312":-3.40401029586792,"313":-6.011093616485596,"314":0.8345649838447571,"315":2.174028158187866,"316":-1.9996390342712402,"317":-1.497416377067566,"318":-1.8480689525604248,"319":-0.9809939861297607,"320":5.123821258544922,"321":-7.148357391357422,"322":-1.0592281818389893,"323":-3.9752554893493652,"324":2.043300151824951,"325":2.2134668827056885,"326":3.0826644897460938,"327":3.869577646255493,"328":3.698798894882202,"329":-0.8286271095275879,"330":0.026501469314098358,"331":8.698302268981934,"332":-1.474960446357727,"333":6.484038352966309,"334":-6.374369144439697,"335":-1.8959674835205078,"336":5.2590718269348145,"337":2.901308059692383,"338":5.049700736999512,"339":4.328063488006592,"340":-8.948640823364258,"341":10.208627700805664,"342":-0.8657779097557068,"343":0.8323031663894653,"344":0.7968258261680603,"345":5.279931545257568,"346":1.4631991386413574,"347":-9.89570426940918,"348":-2.6442244052886963,"349":4.449287414550781,"350":-5.7583231925964355,"351":1.8304743766784668,"352":2.9285428524017334,"353":-5.441682815551758,"354":1.1488841772079468,"355":5.329266548156738,"356":0.1152946725487709,"357":1.0710560083389282,"358":2.0823445320129395,"359":-8.858671188354492,"360":-3.4570600986480713,"361":-2.159086227416992,"362":-0.4719536006450653,"363":0.5539117455482483,"364":-1.2226077318191528,"365":-1.7952773571014404,"366":2.2165746688842773,"367":-4.850063800811768,"368":0.2909366190433502,"369":-4.046532154083252,"370":0.43717730045318604,"371":-1.5070141553878784,"372":-2.5399181842803955,"373":1.7527174949645996,"374":-1.6827579736709595,"375":2.0405023097991943,"376":-0.31608232855796814,"377":-1.6726090908050537,"378":3.3114092350006104,"379":4.247701168060303,"380":-0.8906984329223633,"381":-2.511244297027588,"382":1.1808816194534302,"383":-2.702620267868042,"384":1.8679883480072021,"385":-0.16630661487579346,"386":-0.04446442052721977,"387":2.419128656387329,"388":1.235082983970642,"389":-0.9434254765510559,"390":0.7498453855514526,"391":2.883234739303589,"392":-2.9842851161956787,"393":2.2258100509643555,"394":0.9059824347496033,"395":0.5424181222915649,"396":2.050717830657959,"397":-2.6730427742004395,"398":-4.859749794006348,"399":-0.31644386053085327,"400":-3.1210954189300537,"401":3.293729066848755,"402":0.4165317118167877,"403":-3.117539644241333,"404":-1.968227744102478,"405":-1.6832419633865356,"406":-0.5222014784812927,"407":1.2827836275100708,"408":-4.278197288513184,"409":2.809493064880371,"410":2.621582269668579,"411":5.9480767250061035,"412":-4.131383895874023,"413":2.953883171081543,"414":-2.466029405593872,"415":1.1643781661987305,"416":1.2716795206069946,"417":0.1663728803396225,"418":3.264563798904419,"419":-2.9933650493621826,"420":-1.1689107418060303,"421":-0.1626584827899933,"422":-2.3197414875030518,"423":0.96952885389328,"424":-0.10304772853851318,"425":-1.6073877811431885,"426":4.8693318367004395,"427":-4.35837984085083,"428":-0.0006657105404883623,"429":1.1001362800598145,"430":0.8742117285728455,"431":-2.3892245292663574,"432":-1.0357029438018799,"433":-0.7579491138458252,"434":0.6426461935043335,"435":-1.5050194263458252,"436":1.7669382095336914,"437":-3.301401138305664,"438":-1.3376973867416382,"439":-0.731734037399292,"440":0.9689211249351501,"441":1.6116164922714233,"442":1.9321264028549194,"443":-2.0944314002990723,"444":0.3860723674297333,"445":-0.6795207262039185,"446":0.3510288894176483,"447":-0.1272192746400833,"448":0.43758130073547363,"449":-0.46013471484184265,"450":0.04733305424451828,"451":-1.611350655555725,"452":-2.6561646461486816,"453":0.2282406985759735,"454":-1.1967750787734985,"455":-2.889726400375366,"456":1.0968689918518066,"457":2.3356540203094482,"458":-0.6918994784355164,"459":-3.439383029937744,"460":-0.06164654716849327,"461":-1.3310840129852295,"462":-3.0204391479492188,"463":-0.39791640639305115,"464":4.432398319244385,"465":3.57106876373291,"466":-1.6401586532592773,"467":-1.9798696041107178,"468":1.0574508905410767,"469":1.88860023021698,"470":1.8598755598068237,"471":-0.617369532585144,"472":-0.6746056079864502,"473":2.2353949546813965,"474":-0.9233471751213074,"475":3.637498617172241,"476":2.359435796737671,"477":2.074155330657959,"478":-1.2925941944122314,"479":2.890714168548584,"480":0.6803650856018066,"481":-2.422170400619507,"482":0.8080558180809021,"483":-0.6679694056510925,"484":1.661766529083252,"485":1.2472304105758667,"486":1.2122859954833984,"487":-1.7903203964233398,"488":5.95940637588501,"489":-0.20221476256847382,"490":0.8084738850593567,"491":-2.382207155227661,"492":2.8861677646636963,"493":0.7078984379768372,"494":-0.17613862454891205,"495":6.006897449493408,"496":-1.039642572402954,"497":-0.4983322322368622,"498":-1.4414435625076294,"499":1.1343482732772827,"500":0.22321096062660217,"501":0.1373554915189743,"502":-2.234281539916992,"503":0.3963944911956787,"504":-11.160609245300293,"505":-5.218949317932129,"506":0.3474792540073395,"507":1.955001711845398,"508":-8.674247741699219,"509":-13.510950088500977,"510":4.644632816314697,"511":6.130163192749023,"512":6.72107458114624,"513":6.731759071350098,"514":-10.381157875061035,"515":-1.6799029111862183,"516":-1.8035836219787598,"517":-2.1238651275634766,"518":2.0183348655700684,"519":24.726163864135742,"520":-3.8704285621643066,"521":-1.8588556051254272,"522":-8.397893905639648,"523":-6.0297770500183105,"524":4.734597682952881,"525":-1.8286381959915161,"526":3.7620110511779785,"527":-0.9806631803512573,"528":5.797661781311035,"529":-2.2363176345825195,"530":-7.244930267333984,"531":3.7210958003997803,"532":-6.33419132232666,"533":1.601832628250122,"534":13.17226505279541,"535":6.073415279388428,"536":-13.528620719909668,"537":-2.3599438667297363,"538":-6.575836658477783,"539":-8.920161247253418,"540":5.169017314910889,"541":0.9116222262382507,"542":-0.4390406906604767,"543":7.601779460906982,"544":-1.3891113996505737,"545":-3.895296096801758,"546":10.16138744354248,"547":12.22963809967041,"548":6.347513198852539,"549":5.469589710235596,"550":0.5877572298049927,"551":6.782445907592773,"552":0.6338784694671631,"553":-1.7633626461029053,"554":-9.943394660949707,"555":7.680539608001709,"556":-2.3431763648986816,"557":-1.8948519229888916,"558":8.365565299987793,"559":7.507782936096191,"560":4.10674524307251,"561":1.5157335996627808,"562":-2.5681519508361816,"563":4.775480270385742,"564":10.408578872680664,"565":-13.904996871948242,"566":-2.383993148803711,"567":-2.2909903526306152,"568":11.284000396728516,"569":1.7882541418075562,"570":-0.16854055225849152,"571":-3.556281328201294,"572":-13.58998966217041,"573":-14.9679594039917,"574":0.10017307847738266,"575":6.0614519119262695,"576":10.74029541015625,"577":0.9296475648880005,"578":11.793261528015137,"579":-8.827506065368652,"580":-18.104475021362305,"581":2.1194307804107666,"582":-17.45793914794922,"583":-3.7962656021118164,"584":10.88424015045166,"585":-4.033590793609619,"586":0.2838982343673706,"587":3.0072052478790283,"588":0.34538641571998596,"589":-14.144855499267578,"590":2.1494481563568115,"591":3.4734716415405273,"592":-2.23592472076416,"593":-6.665238380432129,"594":-4.2305378913879395,"595":-2.0972976684570312,"596":18.48320198059082,"597":7.168135166168213,"598":2.7502822875976562,"599":-6.644137382507324,"600":14.658695220947266,"601":-3.6008992195129395,"602":-0.4917679727077484,"603":8.86670970916748,"604":0.9825119972229004,"605":1.6462931632995605,"606":-3.4959516525268555,"607":12.016883850097656,"608":9.69371509552002,"609":-8.316458702087402,"610":-5.6596503257751465,"611":10.563016891479492,"612":-0.4302956163883209,"613":-0.42835330963134766,"614":-1.1243270635604858,"615":-0.5972601771354675,"616":0.4840743839740753,"617":3.997471332550049,"618":1.7749401330947876,"619":0.5194312334060669,"620":-4.39418363571167,"621":-0.32147079706192017,"622":-2.7477684020996094,"623":1.6974178552627563,"624":-1.294824242591858,"625":6.008286476135254,"626":0.3686777949333191,"627":5.61922550201416,"628":0.1138237714767456,"629":1.198404312133789,"630":-1.2944262027740479,"631":3.0126864910125732,"632":1.3566229343414307,"633":0.04641057923436165,"634":2.621079921722412,"635":1.6607565879821777,"636":-0.07183743268251419,"637":-4.864084720611572,"638":2.521296501159668,"639":1.4467182159423828,"640":0.03133121505379677,"641":0.44745880365371704,"642":1.6796499490737915,"643":0.28683337569236755,"644":-3.197892427444458,"645":1.3226380348205566,"646":2.1483120918273926,"647":1.5311737060546875,"648":1.0822875499725342,"649":-2.4483518600463867,"650":-0.50886470079422,"651":-0.2639773488044739,"652":2.0676634311676025,"653":-0.4527837038040161,"654":1.6040698289871216,"655":-2.9874913692474365,"656":6.18867301940918,"657":0.8343905806541443,"658":2.5219228267669678,"659":-1.5706301927566528,"660":1.5897743701934814,"661":-3.7343592643737793,"662":-2.49733304977417,"663":-4.331658840179443,"664":-1.9306973218917847,"665":1.9922393560409546,"666":0.6455858945846558,"667":1.086398720741272,"668":-1.1253023147583008,"669":-1.4262869358062744,"670":-1.4900625944137573,"671":-4.637500286102295,"672":-1.4101535081863403,"673":0.03621109575033188,"674":-3.1276609897613525,"675":-3.4301211833953857,"676":0.19567914307117462,"677":-2.6577389240264893,"678":2.562246084213257,"679":-0.5544792413711548,"680":5.399447917938232,"681":-2.165112257003784,"682":-4.072413444519043,"683":1.3474007844924927,"684":-2.129599094390869,"685":-1.179411768913269,"686":-0.6500809192657471,"687":-3.9537110328674316,"688":5.725253582000732,"689":-2.5096635818481445,"690":3.707118511199951,"691":2.5624513626098633,"692":-2.7240545749664307,"693":3.0164337158203125,"694":6.097998142242432,"695":-0.9900749921798706,"696":-0.8835260272026062,"697":-0.8555161952972412,"698":-5.687616348266602,"699":5.445684432983398,"700":-5.25574254989624,"701":-1.9216183423995972,"702":-1.1129329204559326,"703":2.601302146911621,"704":1.9276034832000732,"705":4.978717803955078,"706":-3.3866076469421387,"707":-3.5652151107788086,"708":0.3483792245388031,"709":-0.0032488370779901743,"710":-3.816357135772705,"711":-4.954446315765381,"712":-0.9983596205711365,"713":-3.7392168045043945,"714":1.3460352420806885,"715":1.5319936275482178,"716":-1.9881480932235718,"717":-4.109902858734131,"718":-0.3308558762073517,"719":5.451265335083008,"720":-2.3723185062408447,"721":-6.8159260749816895,"722":-2.663403034210205,"723":1.2736222743988037,"724":1.1268292665481567,"725":-4.639636516571045,"726":-1.4656763076782227,"727":-4.22351598739624,"728":0.6896000504493713,"729":-1.077676773071289,"730":3.028817653656006,"731":-0.7924222946166992,"732":-6.7066473960876465,"733":4.1500020027160645,"734":-1.6965386867523193,"735":0.1956486701965332,"736":-4.22316312789917,"737":3.5025055408477783,"738":9.406715393066406,"739":1.5986604690551758,"740":-0.6897557377815247,"741":-4.672408103942871,"742":-2.1271352767944336,"743":-3.4938976764678955,"744":2.4078686237335205,"745":5.238353729248047,"746":-3.5355403423309326,"747":-4.058721542358398,"748":5.49277400970459,"749":-2.568612575531006,"750":-1.3593814373016357,"751":-5.509580135345459,"752":-3.1799426078796387,"753":-12.377403259277344,"754":-2.8388946056365967,"755":-2.078016996383667,"756":3.3786025047302246,"757":0.21655595302581787,"758":-2.8948490619659424,"759":4.71714973449707,"760":7.044226169586182,"761":-2.9522316455841064,"762":0.9561125040054321,"763":2.2712314128875732,"764":3.902453660964966,"765":1.7367318868637085,"766":-3.654085636138916,"767":-2.1974434852600098,"768":2.018433094024658,"769":-2.730984687805176,"770":0.004217058420181274,"771":-4.067427158355713,"772":-1.594434142112732,"773":1.316906213760376,"774":2.534585952758789,"775":5.572837829589844,"776":-0.9525860548019409,"777":-0.36756718158721924,"778":3.1387996673583984,"779":2.1452531814575195,"780":-3.3945982456207275,"781":-3.2614309787750244,"782":1.96923828125,"783":0.007692321203649044,"784":-2.605502128601074,"785":0.7939083576202393,"786":1.798095464706421,"787":-2.3245480060577393,"788":-3.0853235721588135,"789":-3.916839122772217,"790":-1.5058870315551758,"791":3.699436664581299,"792":-1.3320298194885254,"793":2.1458261013031006,"794":-3.2035486698150635,"795":2.6676907539367676,"796":2.604135751724243,"797":-4.249392032623291,"798":6.533198833465576,"799":-2.195843458175659,"800":0.5270575284957886,"801":-2.7455086708068848,"802":-0.7896295189857483,"803":-0.46407729387283325,"804":0.6645097136497498,"805":-1.515189290046692,"806":-0.3966123163700104,"807":0.7760518789291382,"808":-4.858830451965332,"809":5.116283893585205,"810":-0.05006570741534233,"811":1.2743254899978638,"812":1.3560786247253418,"813":5.045851230621338,"814":-4.2609076499938965,"815":-2.804948568344116,"816":-0.6018733978271484,"817":0.3518260717391968,"818":-2.100959539413452,"819":0.4930177927017212,"820":1.448731780052185,"821":-3.5428051948547363,"822":0.7196510434150696,"823":-5.427880764007568,"824":-0.7759605646133423,"825":5.074127197265625,"826":-0.8164756894111633,"827":0.7341336607933044,"828":-0.914991557598114,"829":-11.128557205200195,"830":-12.174139022827148,"831":-0.7518635392189026,"832":-3.270326852798462,"833":-1.3256341218948364,"834":1.7191476821899414,"835":-13.731855392456055,"836":8.302924156188965,"837":-16.257762908935547,"838":-3.364492416381836,"839":9.763626098632812,"840":4.667768955230713,"841":-5.9118266105651855,"842":0.13612796366214752,"843":23.852176666259766,"844":3.356206178665161,"845":-5.421979904174805,"846":-6.616148948669434,"847":-10.088446617126465,"848":5.450303554534912,"849":-1.1983225345611572,"850":-0.468511700630188,"851":1.4765408039093018,"852":6.017988204956055,"853":-6.248620510101318,"854":-8.492900848388672,"855":8.67778205871582,"856":2.649503707885742,"857":-9.771007537841797,"858":-0.8906941413879395,"859":-9.79313850402832,"860":6.247824668884277,"861":6.418773174285889,"862":-4.550293445587158,"863":-0.8722689151763916,"864":8.317541122436523,"865":6.3625664710998535,"866":-11.611851692199707,"867":-3.472626209259033,"868":0.15957120060920715,"869":-1.7508196830749512,"870":-6.427951335906982,"871":8.266857147216797,"872":-17.916353225708008,"873":12.892426490783691,"874":4.569314956665039,"875":-8.63784408569336,"876":-13.274553298950195,"877":8.207880020141602,"878":0.9715872406959534,"879":-4.339597225189209,"880":-8.91620922088623,"881":10.887537002563477,"882":-4.8622589111328125,"883":5.105010986328125,"884":7.2888312339782715,"885":-6.476846694946289,"886":0.09768357872962952,"887":-3.0314040184020996,"888":-11.052484512329102,"889":-3.4293341636657715,"890":-0.0328039824962616,"891":-0.15064696967601776,"892":5.347526550292969,"893":-2.1886963844299316,"894":6.091612815856934,"895":2.788778781890869,"896":-8.660780906677246,"897":-10.922286033630371,"898":13.160760879516602,"899":-2.8808939456939697,"900":1.0022196769714355,"901":-0.6032447218894958,"902":9.031787872314453,"903":0.8755818009376526,"904":16.460542678833008,"905":1.6914864778518677,"906":1.2649368047714233,"907":-0.2948412299156189,"908":-3.6624064445495605,"909":-3.7473251819610596,"910":-5.813802719116211,"911":1.6494739055633545,"912":3.9839725494384766,"913":1.379732370376587,"914":-7.65576171875,"915":-0.471018522977829,"916":-3.267159938812256,"917":1.2520246505737305,"918":1.118055820465088,"919":8.388152122497559,"920":10.689476013183594,"921":-0.7530249953269958,"922":2.2367866039276123,"923":-1.9427433013916016,"924":7.902003765106201,"925":-0.3078683018684387,"926":-4.0862040519714355,"927":-1.3302499055862427,"928":-2.5774707794189453,"929":-7.804611682891846,"930":-5.825023651123047,"931":5.878261089324951,"932":-2.5486738681793213,"933":-3.055527925491333,"934":0.7063018083572388,"935":3.843703269958496,"936":-7.274505615234375,"937":2.097578763961792,"938":-9.706289291381836,"939":-0.4274199903011322,"940":0.968104362487793,"941":3.1046254634857178,"942":7.721085548400879,"943":3.601264238357544,"944":-7.262659072875977,"945":-4.056025505065918,"946":-3.977372407913208,"947":0.7599442005157471,"948":-3.6711037158966064,"949":5.31268835067749,"950":-5.872057914733887,"951":3.7957565784454346,"952":-1.9147716760635376,"953":3.883941650390625,"954":-0.5576270818710327,"955":2.1629185676574707,"956":-1.1449196338653564,"957":-0.9424249529838562,"958":-3.062373399734497,"959":5.727236747741699,"960":1.6672507524490356,"961":-0.4631754457950592,"962":9.10716438293457,"963":-6.331587791442871,"964":0.2729884684085846,"965":3.250706195831299,"966":-1.321847915649414,"967":-3.5371041297912598,"968":-10.570013046264648,"969":1.9342767000198364,"970":4.324605941772461,"971":-5.405912399291992,"972":-1.7695136070251465,"973":-2.0646493434906006,"974":1.1406394243240356,"975":3.5156826972961426,"976":4.037327766418457,"977":-1.6796916723251343,"978":3.4904866218566895,"979":-0.4164015054702759,"980":6.957435131072998,"981":-1.3879610300064087,"982":-5.708980560302734,"983":-3.817296028137207,"984":4.097838401794434,"985":-5.340969085693359,"986":-1.9839140176773071,"987":2.939972400665283,"988":3.7466084957122803,"989":1.3837302923202515,"990":-2.130885362625122,"991":-4.427275657653809,"992":1.3219586610794067,"993":-0.8431710004806519,"994":-0.35225945711135864,"995":-2.9387617111206055,"996":5.857802867889404,"997":1.8613791465759277,"998":4.028177261352539,"999":2.4610941410064697,"1000":-4.816914081573486,"1001":-3.945983648300171,"1002":-3.437960386276245,"1003":6.9042181968688965,"1004":0.12656091153621674,"1005":1.5514264106750488,"1006":-6.929805278778076,"1007":0.6758127212524414,"1008":7.823927402496338,"1009":5.72710657119751,"1010":-6.073291778564453,"1011":8.400437355041504,"1012":0.7492845058441162,"1013":-12.110644340515137,"1014":1.2054712772369385,"1015":-4.659543514251709,"1016":-5.0181050300598145,"1017":6.470982551574707,"1018":-8.386324882507324,"1019":-9.485136032104492,"1020":3.983330249786377,"1021":8.097638130187988,"1022":17.032758712768555,"1023":8.595003128051758,"1024":1.2834984064102173,"1025":-7.310773849487305,"1026":-20.32223129272461,"1027":-5.512166500091553,"1028":17.979101181030273,"1029":6.444891452789307,"1030":8.905433654785156,"1031":-11.075075149536133,"1032":-15.73496150970459,"1033":7.110097408294678,"1034":-7.56657600402832,"1035":-1.2202835083007812,"1036":0.8646000027656555,"1037":-9.411613464355469,"1038":-0.7261823415756226,"1039":13.80018138885498,"1040":1.595829725265503,"1041":6.637579441070557,"1042":3.189608097076416,"1043":-6.245142936706543,"1044":-1.5001481771469116,"1045":6.5220136642456055,"1046":-4.145529270172119,"1047":-1.48653244972229,"1048":-4.912613391876221,"1049":-0.012866943143308163,"1050":2.1068272590637207,"1051":2.151493787765503,"1052":-6.112098693847656,"1053":-1.0764601230621338,"1054":4.554263591766357,"1055":6.416388988494873,"1056":-2.6545767784118652,"1057":-1.8277404308319092,"1058":-4.021421432495117,"1059":2.62701153755188,"1060":0.9758979082107544,"1061":5.346978664398193,"1062":-1.3692198991775513,"1063":1.3532710075378418,"1064":6.804425239562988,"1065":6.933445930480957,"1066":-2.756924867630005,"1067":4.80175256729126,"1068":4.52242374420166,"1069":-5.78584623336792,"1070":-0.53793865442276,"1071":-1.9139879941940308,"1072":3.0397415161132812,"1073":-1.362729787826538,"1074":-3.2662250995635986,"1075":-4.940001010894775,"1076":-6.085128307342529,"1077":-10.539172172546387,"1078":2.782737970352173,"1079":3.2164387702941895,"1080":-6.891348361968994,"1081":2.5493052005767822,"1082":-7.962526798248291,"1083":3.7004590034484863,"1084":2.8833675384521484,"1085":-3.5862085819244385,"1086":-2.670846462249756,"1087":-2.715752363204956,"1088":-10.026080131530762,"1089":11.100398063659668,"1090":1.096518635749817,"1091":-13.274568557739258,"1092":-6.796804904937744,"1093":7.657306671142578,"1094":-1.1566298007965088,"1095":-0.5996930003166199,"1096":-1.9862568378448486,"1097":-1.5643593072891235,"1098":-0.9142189621925354,"1099":5.088129997253418,"1100":4.204207897186279,"1101":-4.773723125457764,"1102":4.292992115020752,"1103":5.521876335144043,"1104":6.721261501312256,"1105":-0.8776510953903198,"1106":1.7609001398086548,"1107":-6.60339879989624,"1108":2.8655006885528564,"1109":0.7642814517021179,"1110":-6.955140113830566,"1111":2.9166059494018555,"1112":-10.64777946472168,"1113":2.694870948791504,"1114":5.890968322753906,"1115":-9.994155883789062,"1116":-0.5789651274681091,"1117":-2.483215808868408,"1118":-1.932740569114685,"1119":-7.409717082977295,"1120":4.796779155731201,"1121":4.703574180603027,"1122":-1.1012152433395386,"1123":1.418273687362671,"1124":-0.8523876070976257,"1125":0.8200007677078247,"1126":7.467305660247803,"1127":6.479493618011475,"1128":-2.2394118309020996,"1129":-1.9264920949935913,"1130":-2.2924671173095703,"1131":4.283936023712158,"1132":0.1729273945093155,"1133":5.061343193054199,"1134":-4.968834400177002,"1135":-6.715931415557861,"1136":6.709994792938232,"1137":3.1320533752441406,"1138":1.6349774599075317,"1139":-1.6388328075408936,"1140":3.2121949195861816,"1141":-0.932856559753418,"1142":-2.9377989768981934,"1143":5.881601333618164,"1144":-2.148685932159424,"1145":-7.355776309967041,"1146":3.178180694580078,"1147":-3.169309616088867,"1148":-0.5749544501304626,"1149":-3.2405221462249756,"1150":-3.7329843044281006,"1151":5.348910331726074,"1152":-12.18186092376709,"1153":5.147132873535156,"1154":-3.6335461139678955,"1155":-6.06099271774292,"1156":1.9843275547027588,"1157":-3.0246384143829346,"1158":1.45143723487854,"1159":-5.5008931159973145,"1160":-1.9462658166885376,"1161":6.132352828979492,"1162":8.284833908081055,"1163":0.4061354994773865,"1164":-7.988419055938721,"1165":3.479604959487915,"1166":-8.421404838562012,"1167":-0.050299182534217834,"1168":-6.374009609222412,"1169":-2.864081859588623,"1170":-6.513052463531494,"1171":5.687894821166992,"1172":2.9994072914123535,"1173":-1.9013923406600952,"1174":-4.720473766326904,"1175":-16.28887176513672,"1176":8.889521598815918,"1177":-9.702272415161133,"1178":-3.2551074028015137,"1179":-10.184493064880371,"1180":1.4836362600326538,"1181":-10.913463592529297,"1182":-4.803607940673828,"1183":-10.05954647064209,"1184":-21.203771591186523,"1185":-11.158476829528809,"1186":5.098045349121094,"1187":-7.162242889404297,"1188":-5.417241096496582,"1189":7.3231329917907715,"1190":15.895785331726074,"1191":-1.3617757558822632,"1192":2.1449368000030518,"1193":5.965686798095703,"1194":-3.017266273498535,"1195":7.276484489440918,"1196":-6.42264461517334,"1197":-6.902932643890381,"1198":3.8616957664489746,"1199":-4.516091823577881,"1200":0.08392496407032013,"1201":-1.1396303176879883,"1202":-2.8678767681121826,"1203":-1.4487502574920654,"1204":9.017443656921387,"1205":-1.4319674968719482,"1206":10.485634803771973,"1207":6.739415168762207,"1208":-6.593528747558594,"1209":5.073015213012695,"1210":3.5644140243530273,"1211":15.87160587310791,"1212":-3.849900245666504,"1213":-10.403641700744629,"1214":2.540391683578491,"1215":-7.797992706298828,"1216":10.269028663635254,"1217":15.738600730895996,"1218":-5.343635082244873,"1219":9.795915603637695,"1220":0.6813497543334961,"1221":-3.66544771194458,"1222":1.696355938911438,"1223":3.919495105743408,"1224":-5.292736530303955,"1225":4.149386882781982,"1226":-4.0237603187561035,"1227":5.5363335609436035,"1228":1.4524849653244019,"1229":-7.459239482879639,"1230":-1.462376594543457,"1231":2.768109083175659,"1232":3.1541476249694824,"1233":0.8586868643760681,"1234":-2.5661585330963135,"1235":-2.0365591049194336,"1236":4.532623767852783,"1237":-3.451824903488159,"1238":-1.5738799571990967,"1239":-1.5135349035263062,"1240":0.7078356146812439,"1241":1.1208423376083374,"1242":-1.2329845428466797,"1243":1.2195807695388794,"1244":-3.90498423576355,"1245":1.5181467533111572,"1246":-1.4402263164520264,"1247":-2.4941816329956055,"1248":-0.4882259964942932,"1249":1.4813417196273804,"1250":0.8296724557876587,"1251":-3.52213978767395,"1252":3.8225948810577393,"1253":-1.501703143119812,"1254":-0.11514048278331757,"1255":-2.2710297107696533,"1256":-0.7386147379875183,"1257":2.3707492351531982,"1258":-1.6201772689819336,"1259":3.639113187789917,"1260":-1.336429476737976,"1261":1.1705371141433716,"1262":5.0273332595825195,"1263":-3.796457529067993,"1264":1.1740546226501465,"1265":0.7018088698387146,"1266":2.3522584438323975,"1267":1.9871622323989868,"1268":0.20701037347316742,"1269":2.9145915508270264,"1270":2.9318127632141113,"1271":-2.8671867847442627,"1272":-0.4687579274177551,"1273":-0.15618683397769928,"1274":0.06353500485420227,"1275":-1.4276282787322998,"1276":-2.70317006111145,"1277":2.9162065982818604,"1278":3.699681282043457,"1279":-0.05479159578680992,"1280":-1.062842845916748,"1281":0.029382426291704178,"1282":-0.6763309836387634,"1283":-2.986279010772705,"1284":-3.088266134262085,"1285":1.213624358177185,"1286":2.445723533630371,"1287":2.236537218093872,"1288":-3.2058775424957275,"1289":-0.8601166605949402,"1290":1.3956687450408936,"1291":1.9885929822921753,"1292":0.9347450733184814,"1293":-5.299209117889404,"1294":0.4973244071006775,"1295":2.750976085662842,"1296":-0.054548535495996475,"1297":0.044707681983709335,"1298":0.0182509608566761,"1299":0.05384686216711998,"1300":-0.042365092784166336,"1301":0.008412090130150318,"1302":0.011779095977544785,"1303":-0.0022437116131186485,"1304":-0.03841225430369377,"1305":0.00875183381140232,"1306":0.03849362954497337,"1307":-0.04583585262298584,"1308":0.04284987226128578,"1309":0.006740345619618893,"1310":-0.05456865206360817,"1311":0.008437085896730423,"1312":-0.03775223344564438,"1313":-0.053763192147016525,"1314":-0.02942875772714615,"1315":-0.026578431949019432,"1316":-0.032096754759550095,"1317":-0.008617698214948177,"1318":-0.007000244688242674,"1319":-0.006346957292407751,"1320":-0.047586649656295776,"1321":-0.01793660782277584,"1322":-0.05725589022040367,"1323":-0.046713028103113174,"1324":-0.04795943573117256,"1325":-0.007313242182135582,"1326":0.05481120944023132,"1327":0.06450022011995316,"1328":-0.005654635839164257,"1329":-0.0461714006960392,"1330":-0.05396759882569313,"1331":0.038106292486190796}},"hiddenLayers":[{"inputMatrix":{"rows":20,"columns":36,"weights":{"0":4.381845474243164,"1":-0.6248465776443481,"2":-0.8510085940361023,"3":-0.6470164060592651,"4":1.3456947803497314,"5":1.9870357513427734,"6":3.445505142211914,"7":1.1963942050933838,"8":-0.0739462748169899,"9":0.9404681921005249,"10":-0.7039305567741394,"11":1.9249544143676758,"12":1.0849666595458984,"13":0.8469889760017395,"14":1.7603381872177124,"15":0.9799333810806274,"16":-3.876487970352173,"17":1.8216243982315063,"18":1.5356570482254028,"19":3.027289867401123,"20":2.112913131713867,"21":0.19695629179477692,"22":1.0056041479110718,"23":-3.1698880195617676,"24":-1.9227460622787476,"25":-4.096229076385498,"26":-4.3250041007995605,"27":3.0281851291656494,"28":-0.5664899349212646,"29":1.1477755308151245,"30":1.2129096984863281,"31":0.6110681295394897,"32":1.278565526008606,"33":-3.115086793899536,"34":-1.0594148635864258,"35":-0.27760013937950134,"36":3.1991970539093018,"37":-3.020003080368042,"38":0.06281661242246628,"39":-1.8605483770370483,"40":3.5288612842559814,"41":0.7708777189254761,"42":1.6792840957641602,"43":1.5001730918884277,"44":2.4915876388549805,"45":2.8430633544921875,"46":-1.4113938808441162,"47":0.20725460350513458,"48":0.8158746361732483,"49":-0.9087175130844116,"50":1.4452482461929321,"51":1.9191197156906128,"52":-0.8293228149414062,"53":-0.9718005061149597,"54":-2.8683993816375732,"55":0.18055102229118347,"56":2.301632881164551,"57":-0.8316546678543091,"58":2.4281504154205322,"59":-0.1993643045425415,"60":0.33852091431617737,"61":-2.18837571144104,"62":-0.17438462376594543,"63":3.6213536262512207,"64":-4.554646968841553,"65":0.4249686896800995,"66":4.670068740844727,"67":1.8260194063186646,"68":1.8421434164047241,"69":-1.6188002824783325,"70":-1.2766398191452026,"71":2.162189483642578,"72":0.8704186081886292,"73":-0.8519032001495361,"74":-2.7426369190216064,"75":0.8476049900054932,"76":1.0544368028640747,"77":-1.1233278512954712,"78":-2.8354156017303467,"79":1.0181258916854858,"80":-1.2143676280975342,"81":3.0343880653381348,"82":2.9557199478149414,"83":-1.4212801456451416,"84":0.20800712704658508,"85":1.514643669128418,"86":2.0155081748962402,"87":-1.3887748718261719,"88":-0.2989153265953064,"89":-0.4289860427379608,"90":-1.6259233951568604,"91":-0.06453946232795715,"92":-1.8838826417922974,"93":1.3865985870361328,"94":-0.11928439885377884,"95":-1.075049638748169,"96":-0.4760570824146271,"97":0.35734817385673523,"98":-1.428296685218811,"99":-3.255052089691162,"100":0.30055686831474304,"101":-1.1255958080291748,"102":2.874343156814575,"103":-3.1548144817352295,"104":0.1332634836435318,"105":-5.433229923248291,"106":-0.12859375774860382,"107":-1.0085816383361816,"108":-0.1375470757484436,"109":0.2459622621536255,"110":-1.2547290325164795,"111":1.206815481185913,"112":-1.1402391195297241,"113":-0.24843616783618927,"114":0.558879017829895,"115":-0.8363152742385864,"116":2.6526224613189697,"117":1.3285304307937622,"118":-0.5101019740104675,"119":-0.2981385290622711,"120":2.3692891597747803,"121":-3.558706521987915,"122":2.036249876022339,"123":1.7169294357299805,"124":-1.1384167671203613,"125":1.0632219314575195,"126":-3.7797372341156006,"127":-1.734182357788086,"128":2.29158616065979,"129":0.9772489666938782,"130":1.0195941925048828,"131":-0.3245462477207184,"132":-1.4702115058898926,"133":3.1377205848693848,"134":-1.5948039293289185,"135":0.9553924798965454,"136":-0.08885518461465836,"137":0.7171539068222046,"138":0.04404471069574356,"139":0.2657761871814728,"140":1.261187195777893,"141":1.7285115718841553,"142":-2.7906081676483154,"143":-2.6817493438720703,"144":-1.6282789707183838,"145":0.01009367872029543,"146":-1.7713805437088013,"147":-0.31428763270378113,"148":-0.9360063672065735,"149":0.49533307552337646,"150":-1.136444091796875,"151":-1.2998309135437012,"152":-3.047070026397705,"153":1.9347261190414429,"154":1.9543997049331665,"155":1.158200979232788,"156":-1.5920807123184204,"157":0.9646685123443604,"158":-2.2182860374450684,"159":0.6971856951713562,"160":1.5962337255477905,"161":-2.0473196506500244,"162":-1.1152429580688477,"163":-1.0000922679901123,"164":1.4084240198135376,"165":-0.8888437747955322,"166":0.48084938526153564,"167":1.4881060123443604,"168":3.446779727935791,"169":0.9709361791610718,"170":1.7210954427719116,"171":-0.04264076426625252,"172":-0.07068802416324615,"173":0.2864138185977936,"174":0.12650342285633087,"175":-1.1429930925369263,"176":-3.310379981994629,"177":-1.0633306503295898,"178":1.1965516805648804,"179":-0.38150113821029663,"180":-1.6122268438339233,"181":-1.3906564712524414,"182":0.4577997028827667,"183":-0.04040403664112091,"184":0.48801952600479126,"185":-2.046333074569702,"186":0.5434073209762573,"187":-2.2424750328063965,"188":4.0233259201049805,"189":-1.2070116996765137,"190":1.5928864479064941,"191":-4.42839241027832,"192":0.04926815256476402,"193":-1.4558981657028198,"194":0.3617611825466156,"195":-4.972999095916748,"196":1.1479284763336182,"197":-0.7420545220375061,"198":1.9995900392532349,"199":0.7155198454856873,"200":-3.0318987369537354,"201":-1.6093930006027222,"202":0.6251055002212524,"203":2.5211381912231445,"204":-2.023386001586914,"205":1.8088088035583496,"206":2.8960869312286377,"207":-0.8954731822013855,"208":0.009828325361013412,"209":0.18658415973186493,"210":-0.2193298488855362,"211":0.9671381115913391,"212":4.51951789855957,"213":-2.597559928894043,"214":0.10294903069734573,"215":2.744699239730835,"216":0.6181355714797974,"217":-3.4654717445373535,"218":1.2928755283355713,"219":3.253633737564087,"220":-0.5092634558677673,"221":-2.525200366973877,"222":2.1396563053131104,"223":1.222996711730957,"224":3.023350715637207,"225":-1.5823519229888916,"226":-1.9075666666030884,"227":-2.0206713676452637,"228":-0.3621523976325989,"229":0.5888780355453491,"230":1.0121300220489502,"231":-0.45320743322372437,"232":-2.821197986602783,"233":0.4013778865337372,"234":-0.26305463910102844,"235":1.6964280605316162,"236":-0.5468316078186035,"237":-2.9841203689575195,"238":-0.7047520279884338,"239":-0.9702265858650208,"240":-4.467226028442383,"241":1.3887672424316406,"242":-1.54177987575531,"243":1.129845380783081,"244":0.9966983795166016,"245":-1.8622267246246338,"246":0.6872785687446594,"247":-1.9143540859222412,"248":-0.25276970863342285,"249":-2.0698583126068115,"250":-0.897783100605011,"251":-0.953218400478363,"252":0.5917344093322754,"253":2.1400949954986572,"254":1.4030488729476929,"255":1.7312374114990234,"256":0.00910106673836708,"257":-2.93206524848938,"258":0.24695929884910583,"259":0.38283976912498474,"260":3.0178403854370117,"261":1.8013299703598022,"262":-1.2079330682754517,"263":0.11003842204809189,"264":1.5841054916381836,"265":-1.800163984298706,"266":0.872877299785614,"267":-2.3136518001556396,"268":-0.1398916393518448,"269":1.2275220155715942,"270":0.2321845144033432,"271":-1.0660350322723389,"272":-0.9486016035079956,"273":0.15086135268211365,"274":0.20846667885780334,"275":1.3278108835220337,"276":-1.1035362482070923,"277":3.2868635654449463,"278":-0.02068679966032505,"279":-0.9393312335014343,"280":-3.4170784950256348,"281":3.280421018600464,"282":1.4717923402786255,"283":3.226989269256592,"284":2.70080828666687,"285":-1.4372283220291138,"286":0.5710148215293884,"287":-1.1232786178588867,"288":-0.6239907741546631,"289":2.1839349269866943,"290":-0.9771351218223572,"291":-1.8743242025375366,"292":3.298736333847046,"293":-1.1203211545944214,"294":1.436173439025879,"295":1.2351722717285156,"296":0.6470820903778076,"297":3.2937471866607666,"298":1.8248673677444458,"299":-2.705658197402954,"300":1.107301950454712,"301":-2.146494150161743,"302":-0.1224314421415329,"303":-0.5841400623321533,"304":-1.6520949602127075,"305":-1.7126615047454834,"306":-2.4726743698120117,"307":2.2890100479125977,"308":-0.1754336953163147,"309":1.896113634109497,"310":-1.6430381536483765,"311":0.6772938370704651,"312":-1.011460304260254,"313":1.5678894519805908,"314":-2.010542631149292,"315":-1.5128899812698364,"316":1.1632736921310425,"317":-1.5630218982696533,"318":2.213149309158325,"319":-0.7628511786460876,"320":0.8013051748275757,"321":-2.412083148956299,"322":-1.987562656402588,"323":2.251920461654663,"324":-0.6797670125961304,"325":0.20074361562728882,"326":-0.34568366408348083,"327":1.2797635793685913,"328":-2.506183385848999,"329":0.5475529432296753,"330":1.3437384366989136,"331":-3.106912851333618,"332":-2.9811151027679443,"333":-0.080070361495018,"334":2.1434214115142822,"335":2.1405959129333496,"336":-0.4311753809452057,"337":3.1527819633483887,"338":1.0908801555633545,"339":1.4166122674942017,"340":2.009486436843872,"341":0.044474560767412186,"342":1.3156614303588867,"343":2.0317461490631104,"344":-2.0942208766937256,"345":-0.723275899887085,"346":0.33681297302246094,"347":2.0653820037841797,"348":3.118898391723633,"349":-0.859455943107605,"350":2.1030633449554443,"351":-0.8289387822151184,"352":4.474318027496338,"353":1.2871639728546143,"354":-3.0953235626220703,"355":-1.7191879749298096,"356":-2.0880613327026367,"357":-0.13135214149951935,"358":3.5236103534698486,"359":0.6464989185333252,"360":-3.5274524688720703,"361":3.8067336082458496,"362":1.193286418914795,"363":1.033821702003479,"364":-1.637694001197815,"365":0.735112190246582,"366":0.2522917091846466,"367":1.9421836137771606,"368":1.0587598085403442,"369":-0.3438902795314789,"370":2.7029900550842285,"371":0.22157205641269684,"372":-2.571450710296631,"373":-0.9053887724876404,"374":1.1606905460357666,"375":1.271851897239685,"376":-1.856126070022583,"377":1.1937593221664429,"378":-2.0632312297821045,"379":-1.340334415435791,"380":2.1135313510894775,"381":0.5369070172309875,"382":-1.5754750967025757,"383":-3.5119025707244873,"384":3.7609305381774902,"385":2.236661195755005,"386":0.09577978402376175,"387":2.603987455368042,"388":2.089489459991455,"389":-3.508312940597534,"390":-1.9263793230056763,"391":-1.7027649879455566,"392":0.9786287546157837,"393":-1.2784051895141602,"394":-2.3231544494628906,"395":-1.9741590023040771,"396":-1.6160202026367188,"397":2.065467357635498,"398":-2.0196516513824463,"399":-2.541142463684082,"400":-0.2737007737159729,"401":2.240297317504883,"402":2.627253532409668,"403":2.0545480251312256,"404":0.8476895689964294,"405":3.000912666320801,"406":1.5939881801605225,"407":2.118741512298584,"408":1.3262465000152588,"409":-1.397647500038147,"410":0.5702208280563354,"411":1.4733977317810059,"412":0.33130839467048645,"413":2.054264783859253,"414":-2.476759672164917,"415":-1.6680577993392944,"416":-2.4048449993133545,"417":3.5038931369781494,"418":-1.543454885482788,"419":-2.178051233291626,"420":1.9854508638381958,"421":0.44353941082954407,"422":1.3573721647262573,"423":-1.1766911745071411,"424":-1.9973509311676025,"425":-1.2861353158950806,"426":2.0787689685821533,"427":-2.2246756553649902,"428":0.2328525334596634,"429":0.655377984046936,"430":-0.8917328715324402,"431":2.2070276737213135,"432":-3.0838623046875,"433":1.905709981918335,"434":-2.415172576904297,"435":2.508373975753784,"436":-1.414790153503418,"437":-0.6779263019561768,"438":-1.9891737699508667,"439":-0.4706157147884369,"440":-1.4883670806884766,"441":-0.7983003258705139,"442":-0.5610035061836243,"443":1.3407788276672363,"444":-3.5113866329193115,"445":1.1794981956481934,"446":-1.909727931022644,"447":2.503201723098755,"448":-2.4052047729492188,"449":0.234188050031662,"450":-2.0293447971343994,"451":-2.3001081943511963,"452":1.328465461730957,"453":2.2482588291168213,"454":-2.1532504558563232,"455":0.047627873718738556,"456":3.289487361907959,"457":0.6921055912971497,"458":-0.36398643255233765,"459":-3.9065773487091064,"460":-0.6593509912490845,"461":-3.619626760482788,"462":0.5090216398239136,"463":-2.062863349914551,"464":-1.7790653705596924,"465":0.09801694005727768,"466":1.727527141571045,"467":-1.219969630241394,"468":-1.1573665142059326,"469":2.703810930252075,"470":-0.676780104637146,"471":-1.3086159229278564,"472":2.4343743324279785,"473":5.373898506164551,"474":-0.8155285716056824,"475":3.086637258529663,"476":-2.477229356765747,"477":7.1076436042785645,"478":1.6864573955535889,"479":0.9837877154350281,"480":1.6555366516113281,"481":0.5220019221305847,"482":-1.8983694314956665,"483":-1.5212701559066772,"484":0.31179407238960266,"485":0.5326576828956604,"486":-2.658066511154175,"487":1.5203872919082642,"488":-0.4050389528274536,"489":2.7498984336853027,"490":1.010122299194336,"491":-0.5687107443809509,"492":1.7866662740707397,"493":-1.1694262027740479,"494":2.3994393348693848,"495":1.7380688190460205,"496":-0.9208735227584839,"497":-2.980687141418457,"498":-1.4449337720870972,"499":0.07901500910520554,"500":-2.252782106399536,"501":-3.3419177532196045,"502":2.3311262130737305,"503":2.7858693599700928,"504":1.947232723236084,"505":-0.5600811839103699,"506":1.469591498374939,"507":-0.7853970527648926,"508":0.28860238194465637,"509":-0.957180380821228,"510":-3.738292932510376,"511":-3.830127716064453,"512":0.18406979739665985,"513":0.5858399271965027,"514":1.0120902061462402,"515":-2.705439567565918,"516":-0.7494004964828491,"517":-2.45139479637146,"518":1.0655405521392822,"519":-0.35876473784446716,"520":1.7622268199920654,"521":-0.6718953251838684,"522":0.501823902130127,"523":-1.201473355293274,"524":0.6689248085021973,"525":-1.2610292434692383,"526":0.24383488297462463,"527":3.609609365463257,"528":0.7724969387054443,"529":2.465777635574341,"530":0.2873363792896271,"531":-2.6688740253448486,"532":5.051846027374268,"533":0.7534154653549194,"534":-0.6098476052284241,"535":1.405320167541504,"536":2.56516170501709,"537":-1.8169525861740112,"538":1.5958269834518433,"539":-1.1307727098464966,"540":-0.7232861518859863,"541":-1.4071784019470215,"542":0.5102741718292236,"543":0.4787125289440155,"544":2.4193191528320312,"545":-0.5319518446922302,"546":3.1224706172943115,"547":-0.16255733370780945,"548":-0.525012731552124,"549":0.6243932247161865,"550":-0.3619525730609894,"551":-1.233056902885437,"552":-0.15430398285388947,"553":0.9066967964172363,"554":0.3832313120365143,"555":1.1744641065597534,"556":-2.8427255153656006,"557":0.6260802745819092,"558":0.40535032749176025,"559":4.042503356933594,"560":5.654301643371582,"561":0.4211505055427551,"562":3.357396125793457,"563":4.411913871765137,"564":1.1376585960388184,"565":-3.634697675704956,"566":0.8364769816398621,"567":4.620773792266846,"568":1.5240697860717773,"569":1.7904607057571411,"570":4.791565418243408,"571":1.2379504442214966,"572":-2.947279453277588,"573":-0.6801058053970337,"574":-1.558829426765442,"575":2.5536487102508545,"576":0.44825291633605957,"577":-1.6138945817947388,"578":1.3704109191894531,"579":-1.0961719751358032,"580":3.464561700820923,"581":-1.0714877843856812,"582":-1.3157060146331787,"583":0.011170750483870506,"584":1.8419537544250488,"585":0.5045435428619385,"586":0.46030354499816895,"587":0.09173662960529327,"588":4.9516072273254395,"589":-2.3612582683563232,"590":0.49811092019081116,"591":0.6140616536140442,"592":2.433037042617798,"593":0.5306104421615601,"594":-0.6440327167510986,"595":1.026383399963379,"596":0.8442829251289368,"597":0.5938650965690613,"598":1.3187463283538818,"599":-0.6965180039405823,"600":1.5016733407974243,"601":-0.3639826774597168,"602":-3.0347836017608643,"603":0.4628283381462097,"604":1.0204132795333862,"605":-0.7584639191627502,"606":0.8989917039871216,"607":2.1544599533081055,"608":1.7836096286773682,"609":0.6596025228500366,"610":-3.5690500736236572,"611":2.294088363647461,"612":1.494401216506958,"613":-1.5638586282730103,"614":2.7209386825561523,"615":-1.2023048400878906,"616":3.1868293285369873,"617":0.9051596522331238,"618":-1.1083077192306519,"619":0.4959251880645752,"620":1.5507078170776367,"621":0.9383293390274048,"622":2.2212750911712646,"623":-1.4132966995239258,"624":1.1192736625671387,"625":-4.9173760414123535,"626":0.9837656617164612,"627":-1.3468834161758423,"628":-0.018320851027965546,"629":-0.9022514820098877,"630":0.5228347182273865,"631":-0.8750932812690735,"632":0.46265584230422974,"633":1.7129409313201904,"634":3.459714651107788,"635":-1.0693151950836182,"636":-0.635479748249054,"637":1.8830485343933105,"638":-1.5308784246444702,"639":-0.5584426522254944,"640":-3.691467523574829,"641":1.89887535572052,"642":0.5450273752212524,"643":0.8698683977127075,"644":3.1217150688171387,"645":-1.8326382637023926,"646":-3.8690671920776367,"647":0.2962771952152252,"648":-1.8570400476455688,"649":0.43269723653793335,"650":0.6153067350387573,"651":1.0589478015899658,"652":-0.424315482378006,"653":-0.4673275649547577,"654":4.5287041664123535,"655":-1.7202175855636597,"656":5.695363998413086,"657":-2.5921287536621094,"658":-1.9805692434310913,"659":-1.0939496755599976,"660":0.7154688239097595,"661":-4.7013840675354,"662":-0.2775903344154358,"663":-0.4787564277648926,"664":2.0262701511383057,"665":-3.4904441833496094,"666":-0.9948482513427734,"667":-0.09696675837039948,"668":-1.9941370487213135,"669":-2.228701114654541,"670":-2.3571112155914307,"671":-1.6688745021820068,"672":0.287841260433197,"673":0.5287618637084961,"674":-4.141479969024658,"675":0.6328862905502319,"676":0.5479152202606201,"677":-0.1771269142627716,"678":0.5476763248443604,"679":0.5086647868156433,"680":3.247896671295166,"681":1.5791391134262085,"682":-2.248197317123413,"683":0.025470638647675514,"684":-2.535055160522461,"685":-4.959391117095947,"686":2.661360025405884,"687":0.7056360840797424,"688":0.8158761262893677,"689":-3.4562876224517822,"690":-0.8546515703201294,"691":1.864998698234558,"692":2.751598834991455,"693":0.5995332598686218,"694":-0.24455532431602478,"695":-1.017503023147583,"696":3.88004469871521,"697":-3.5622212886810303,"698":1.1282589435577393,"699":0.11691680550575256,"700":-1.5673085451126099,"701":0.6024845242500305,"702":0.6556930541992188,"703":2.974341869354248,"704":2.9366402626037598,"705":-1.5177825689315796,"706":1.044046401977539,"707":-2.955697774887085,"708":-0.06908202171325684,"709":0.2808822691440582,"710":-3.1675121784210205,"711":0.7939643859863281,"712":2.134168863296509,"713":-1.1289440393447876,"714":1.43045973777771,"715":3.783416271209717,"716":0.8982650637626648,"717":0.6467687487602234,"718":-3.2744786739349365,"719":3.3038156032562256}},"inputHidden":{"rows":20,"columns":20,"weights":{"0":1.0296738147735596,"1":0.6173144578933716,"2":-1.5635396242141724,"3":0.12142977118492126,"4":-3.481236457824707,"5":0.15665797889232635,"6":-2.8975226879119873,"7":0.3013198971748352,"8":-0.8328531980514526,"9":6.176411151885986,"10":-0.9036589860916138,"11":1.6141284704208374,"12":-2.3461718559265137,"13":-2.0340027809143066,"14":4.292516231536865,"15":1.5283558368682861,"16":1.905957579612732,"17":-0.7677049040794373,"18":-1.780019760131836,"19":3.3038413524627686,"20":-4.505521297454834,"21":0.1885118931531906,"22":1.7131133079528809,"23":-8.488676071166992,"24":-4.349490165710449,"25":6.6185431480407715,"26":-0.054226405918598175,"27":-1.0788657665252686,"28":0.4388832449913025,"29":0.5061238408088684,"30":-6.031161785125732,"31":-5.838331699371338,"32":0.47410714626312256,"33":3.480790615081787,"34":2.6532270908355713,"35":2.009925127029419,"36":1.4100492000579834,"37":-1.825689435005188,"38":-5.648801803588867,"39":0.04343711957335472,"40":-1.1215051412582397,"41":-6.0149359703063965,"42":-0.8135056495666504,"43":2.49021577835083,"44":-0.7745867371559143,"45":1.227359414100647,"46":-1.0049495697021484,"47":-2.888911485671997,"48":-3.80610990524292,"49":0.7441534996032715,"50":-0.8639165163040161,"51":1.7458593845367432,"52":-0.6628348231315613,"53":-3.5442874431610107,"54":-2.068646192550659,"55":-0.7814816236495972,"56":-0.31264257431030273,"57":0.6436013579368591,"58":-2.1584291458129883,"59":1.9650681018829346,"60":2.4463493824005127,"61":1.5966646671295166,"62":-3.094558000564575,"63":-8.413229942321777,"64":-0.23778308928012848,"65":-6.5307393074035645,"66":1.1314053535461426,"67":-3.5515503883361816,"68":-1.2965426445007324,"69":-1.386736512184143,"70":-3.2042553424835205,"71":-0.09273649007081985,"72":-1.7021945714950562,"73":6.783360004425049,"74":0.9845894575119019,"75":4.974804401397705,"76":2.2856876850128174,"77":-3.804352045059204,"78":-0.6822074055671692,"79":1.5640023946762085,"80":-0.7298180460929871,"81":-3.3336000442504883,"82":0.11781924217939377,"83":0.9327352046966553,"84":3.306689739227295,"85":-0.07640774548053741,"86":1.779773235321045,"87":-1.1334065198898315,"88":-2.967148780822754,"89":4.0469160079956055,"90":-0.24006147682666779,"91":0.90275639295578,"92":-4.026647090911865,"93":2.0965662002563477,"94":1.7396413087844849,"95":-2.6491408348083496,"96":-1.7767966985702515,"97":0.8323785662651062,"98":-1.4800976514816284,"99":2.935723304748535,"100":-1.4438860416412354,"101":-0.5088680982589722,"102":-0.45062294602394104,"103":2.7343227863311768,"104":0.7737589478492737,"105":-1.3965851068496704,"106":5.660520553588867,"107":-0.10137870162725449,"108":-1.8208303451538086,"109":1.364189863204956,"110":1.8548777103424072,"111":2.842078924179077,"112":-2.7028143405914307,"113":-1.4603005647659302,"114":-2.893319845199585,"115":-3.7182884216308594,"116":-1.0921359062194824,"117":6.074433326721191,"118":2.799837350845337,"119":-0.011771383695304394,"120":-0.9374467730522156,"121":2.851801872253418,"122":7.3058180809021,"123":0.9187478423118591,"124":5.14032506942749,"125":-2.9505109786987305,"126":2.750026226043701,"127":1.9084690809249878,"128":0.14796385169029236,"129":0.5190236568450928,"130":-1.3467590808868408,"131":-1.6033841371536255,"132":1.9655983448028564,"133":2.5110301971435547,"134":-2.6816508769989014,"135":-2.4987010955810547,"136":-0.7196760177612305,"137":-1.4811794757843018,"138":1.5553356409072876,"139":-5.0849761962890625,"140":-1.1972657442092896,"141":2.580460786819458,"142":1.78592848777771,"143":2.3953967094421387,"144":-7.88550329208374,"145":-0.4023911654949188,"146":-2.140770196914673,"147":-1.5544596910476685,"148":3.557086944580078,"149":2.9139578342437744,"150":0.5240068435668945,"151":1.0271538496017456,"152":-5.168014049530029,"153":-1.8062835931777954,"154":5.977535724639893,"155":-3.4714629650115967,"156":0.6735056042671204,"157":-5.396189212799072,"158":-0.43058666586875916,"159":-5.109210014343262,"160":-2.0902762413024902,"161":-0.28428012132644653,"162":-4.857507228851318,"163":-2.126771926879883,"164":0.4178609549999237,"165":-0.9060381054878235,"166":1.6107566356658936,"167":1.8782793283462524,"168":-4.193597793579102,"169":-7.162533760070801,"170":-3.2560298442840576,"171":-1.1969032287597656,"172":-1.4367172718048096,"173":-2.2849128246307373,"174":-0.516783595085144,"175":1.8988502025604248,"176":-1.6699790954589844,"177":5.777378082275391,"178":-1.1862152814865112,"179":-0.5926997661590576,"180":-0.5309630036354065,"181":0.40873730182647705,"182":-1.647343397140503,"183":3.570408821105957,"184":-1.5655580759048462,"185":0.4527844488620758,"186":-2.517209053039551,"187":-0.07297185063362122,"188":0.2650844156742096,"189":1.4438157081604004,"190":0.5677829384803772,"191":0.2879778742790222,"192":0.5553240776062012,"193":1.7397959232330322,"194":-0.10895996540784836,"195":-0.7990191578865051,"196":-0.48132532835006714,"197":0.8428570628166199,"198":-0.5335283279418945,"199":-0.38859128952026367,"200":0.06973274052143097,"201":-6.023486137390137,"202":3.8891119956970215,"203":3.3114728927612305,"204":-4.972262859344482,"205":-5.007299900054932,"206":-0.6429042816162109,"207":-4.15215539932251,"208":-3.4687585830688477,"209":2.1275126934051514,"210":-3.7100141048431396,"211":0.6865677833557129,"212":2.446021318435669,"213":-1.5618832111358643,"214":-4.54644775390625,"215":4.5784759521484375,"216":-0.5214304327964783,"217":-0.46501466631889343,"218":-3.829437494277954,"219":4.875036239624023,"220":0.09487807750701904,"221":-1.3828589916229248,"222":2.5167665481567383,"223":3.3453075885772705,"224":-0.5247315764427185,"225":0.16870395839214325,"226":-0.1057715117931366,"227":0.5717970728874207,"228":-0.7263748049736023,"229":5.262339115142822,"230":0.3421875536441803,"231":0.27979862689971924,"232":2.6271555423736572,"233":2.804136276245117,"234":1.3787846565246582,"235":-0.7050794363021851,"236":-4.6043009757995605,"237":-1.1311107873916626,"238":0.5489853024482727,"239":2.697211742401123,"240":-1.7862436771392822,"241":2.057297945022583,"242":4.352084636688232,"243":-2.0936925411224365,"244":3.29687237739563,"245":0.1884257048368454,"246":3.6842525005340576,"247":-1.6819877624511719,"248":3.505230188369751,"249":-5.194552421569824,"250":2.1900851726531982,"251":-2.692227363586426,"252":4.578283786773682,"253":9.860727310180664,"254":-4.072021007537842,"255":-1.599021077156067,"256":0.24961431324481964,"257":-3.9055073261260986,"258":-3.72349214553833,"259":-6.51634407043457,"260":-1.1547174453735352,"261":0.12056245654821396,"262":-4.206520080566406,"263":3.5756936073303223,"264":2.547569513320923,"265":-3.82051420211792,"266":-6.351017475128174,"267":-7.756610870361328,"268":-5.055595397949219,"269":1.2711702585220337,"270":-5.688521862030029,"271":-1.5804451704025269,"272":2.8136255741119385,"273":1.8190603256225586,"274":-1.8845919370651245,"275":-0.540861964225769,"276":-5.9181976318359375,"277":1.5256119966506958,"278":-0.1192629262804985,"279":2.9089291095733643,"280":0.8826499581336975,"281":5.549638271331787,"282":1.6795141696929932,"283":2.207536458969116,"284":-6.015905857086182,"285":1.7164748907089233,"286":2.1133878231048584,"287":0.5500473976135254,"288":1.9654960632324219,"289":5.27789306640625,"290":1.4700065851211548,"291":3.467021942138672,"292":-1.4027957916259766,"293":3.323970317840576,"294":4.610161304473877,"295":-1.5394868850708008,"296":0.41121697425842285,"297":-1.9153941869735718,"298":4.837790012359619,"299":-0.3186754286289215,"300":-2.312924385070801,"301":-0.25205978751182556,"302":-0.20345862209796906,"303":-0.3664223849773407,"304":1.2724087238311768,"305":0.2673872411251068,"306":-3.908750295639038,"307":1.1944245100021362,"308":2.532024383544922,"309":-1.531193733215332,"310":-1.5180143117904663,"311":3.038189172744751,"312":-3.9074504375457764,"313":0.5440680980682373,"314":-0.029353782534599304,"315":2.1130740642547607,"316":0.9378920197486877,"317":-0.44554224610328674,"318":-2.9938318729400635,"319":3.799415111541748,"320":-0.17610032856464386,"321":-2.6269938945770264,"322":1.9508116245269775,"323":2.2384254932403564,"324":-0.7204152345657349,"325":7.08920431137085,"326":-0.2493416965007782,"327":6.621450424194336,"328":3.093609094619751,"329":0.9079490900039673,"330":-1.3629088401794434,"331":0.8574542999267578,"332":-0.8033635020256042,"333":-0.5506260395050049,"334":0.7575502395629883,"335":-3.479797840118408,"336":-3.023514747619629,"337":1.9555667638778687,"338":2.137141466140747,"339":2.0930821895599365,"340":-2.0255274772644043,"341":-1.6438218355178833,"342":-0.3114897310733795,"343":0.03654467314481735,"344":-2.9424796104431152,"345":1.588021159172058,"346":0.752918541431427,"347":-2.0446135997772217,"348":-4.989469528198242,"349":4.115825176239014,"350":-2.486769199371338,"351":-1.09736168384552,"352":1.953298568725586,"353":-0.8971017599105835,"354":4.880038738250732,"355":-2.9104645252227783,"356":-0.8030416965484619,"357":-1.5658060312271118,"358":-0.2969628572463989,"359":1.8493272066116333,"360":0.913867175579071,"361":2.999237298965454,"362":4.952457427978516,"363":0.35716623067855835,"364":0.32529428601264954,"365":-0.3616907596588135,"366":-2.8715803623199463,"367":2.800859212875366,"368":2.737459421157837,"369":5.032599449157715,"370":1.7503496408462524,"371":1.4698952436447144,"372":-3.4015209674835205,"373":1.9714646339416504,"374":3.902841567993164,"375":-0.560329258441925,"376":2.7636356353759766,"377":-3.2768726348876953,"378":-1.382247805595398,"379":-3.986635684967041,"380":-0.9505062103271484,"381":-2.554389238357544,"382":-4.775066375732422,"383":-0.8849729299545288,"384":-3.1778337955474854,"385":1.8376414775848389,"386":-2.5319066047668457,"387":-0.7088485956192017,"388":-0.7137819528579712,"389":1.6894042491912842,"390":1.4680582284927368,"391":-2.172323226928711,"392":1.4426003694534302,"393":-5.001375198364258,"394":-1.0251413583755493,"395":1.4067391157150269,"396":-2.0770087242126465,"397":2.330770969390869,"398":-0.24715584516525269,"399":3.800492763519287}},"inputBias":{"rows":20,"columns":1,"weights":{"0":-1.300708293914795,"1":-0.49773740768432617,"2":-0.6056478023529053,"3":-0.5625689625740051,"4":-0.919808566570282,"5":0.977898120880127,"6":-0.5846309065818787,"7":-0.7922900915145874,"8":-0.2661392092704773,"9":-2.1560192108154297,"10":-0.9662686586380005,"11":-0.8547348380088806,"12":-0.48163068294525146,"13":-0.081927090883255,"14":0.20021586120128632,"15":-1.3069257736206055,"16":-1.1237455606460571,"17":-0.06870757788419724,"18":-0.4805517792701721,"19":-0.8113067746162415}},"forgetMatrix":{"rows":20,"columns":36,"weights":{"0":0.5787944197654724,"1":-1.5091732740402222,"2":-0.039647456258535385,"3":1.2072690725326538,"4":-1.2189046144485474,"5":3.288344383239746,"6":0.34290462732315063,"7":-3.159688949584961,"8":-0.6618249416351318,"9":-3.5900332927703857,"10":-2.559861421585083,"11":1.3491097688674927,"12":-2.5695033073425293,"13":3.96850323677063,"14":0.7430222034454346,"15":-2.2913804054260254,"16":-1.375669240951538,"17":-3.2228500843048096,"18":0.1814170777797699,"19":-1.64534330368042,"20":-0.36768463253974915,"21":-2.1797590255737305,"22":-0.6755903959274292,"23":1.702587604522705,"24":-0.8203299045562744,"25":0.0747600719332695,"26":-1.5379027128219604,"27":0.10513333976268768,"28":0.908915102481842,"29":2.86167311668396,"30":1.8157187700271606,"31":-0.16174346208572388,"32":0.6715405583381653,"33":1.5072609186172485,"34":0.023756319656968117,"35":-0.5929047465324402,"36":0.5298677086830139,"37":-2.050196647644043,"38":-3.8462274074554443,"39":-4.915541648864746,"40":-2.7420997619628906,"41":4.620633125305176,"42":-1.815094232559204,"43":-0.2207087278366089,"44":-1.988457441329956,"45":0.27266451716423035,"46":1.1258091926574707,"47":1.1703821420669556,"48":-0.6106600165367126,"49":2.227954149246216,"50":2.60796856880188,"51":1.5010180473327637,"52":1.3463078737258911,"53":-2.973482370376587,"54":-3.422661781311035,"55":-0.4680744409561157,"56":1.1536674499511719,"57":0.047893278300762177,"58":1.0686304569244385,"59":-0.6738020181655884,"60":1.7186599969863892,"61":-0.8614742159843445,"62":-0.1974656730890274,"63":3.4465482234954834,"64":2.3246850967407227,"65":-0.5430615544319153,"66":-2.575010061264038,"67":-1.124010443687439,"68":-1.9056791067123413,"69":2.41786789894104,"70":0.625028669834137,"71":-2.3328194618225098,"72":0.3719022274017334,"73":1.1677027940750122,"74":-1.9573427438735962,"75":1.2441421747207642,"76":-2.109166145324707,"77":-0.41034477949142456,"78":0.848875105381012,"79":-2.510316848754883,"80":6.728132724761963,"81":2.036355972290039,"82":0.8231899738311768,"83":2.5577900409698486,"84":2.376399040222168,"85":-2.5150086879730225,"86":-0.8412647843360901,"87":-2.03202223777771,"88":1.6986163854599,"89":2.0860114097595215,"90":1.138709306716919,"91":-2.570382833480835,"92":0.271978497505188,"93":0.3496675491333008,"94":-2.140411615371704,"95":0.11570298671722412,"96":2.544536590576172,"97":1.7695618867874146,"98":0.6078000068664551,"99":-0.23106911778450012,"100":2.174968719482422,"101":0.6860021352767944,"102":-0.05743294209241867,"103":-3.137583017349243,"104":1.509583592414856,"105":-1.3013837337493896,"106":-2.573826313018799,"107":1.161133050918579,"108":-2.829753875732422,"109":1.6063847541809082,"110":-1.776968002319336,"111":2.3713204860687256,"112":2.790356159210205,"113":-1.66257905960083,"114":-2.673163652420044,"115":1.94855535030365,"116":0.3119390904903412,"117":-0.40655797719955444,"118":0.28427454829216003,"119":0.7047774195671082,"120":1.746333360671997,"121":1.0229893922805786,"122":1.288364052772522,"123":-2.0824382305145264,"124":1.1886008977890015,"125":1.1027415990829468,"126":0.8334525227546692,"127":1.7094314098358154,"128":-0.8656526803970337,"129":3.009093761444092,"130":-0.7535170316696167,"131":1.6961091756820679,"132":-1.4957517385482788,"133":-3.552142858505249,"134":1.6472687721252441,"135":-0.696287214756012,"136":1.752943992614746,"137":0.7946351170539856,"138":0.47506457567214966,"139":-1.2898353338241577,"140":-0.9278879761695862,"141":1.9604175090789795,"142":2.434058666229248,"143":-1.6972428560256958,"144":-1.3649611473083496,"145":-3.0569090843200684,"146":-1.3381112813949585,"147":2.0822179317474365,"148":0.8752283453941345,"149":-2.772932767868042,"150":1.3157020807266235,"151":2.8672637939453125,"152":-0.6562844514846802,"153":0.7465991973876953,"154":0.3618672490119934,"155":0.48146650195121765,"156":-2.099809169769287,"157":-0.18499349057674408,"158":-1.2783288955688477,"159":2.98425030708313,"160":2.8909244537353516,"161":-2.202960252761841,"162":-1.1935999393463135,"163":3.6421327590942383,"164":-0.6156747341156006,"165":-2.233668088912964,"166":2.5180113315582275,"167":2.6386356353759766,"168":-0.5186538100242615,"169":-1.5883020162582397,"170":3.3947858810424805,"171":-2.5727739334106445,"172":2.4330718517303467,"173":0.23975662887096405,"174":0.8505455851554871,"175":-0.4707130789756775,"176":-4.145793437957764,"177":0.6627381443977356,"178":1.69588303565979,"179":-2.206169605255127,"180":-0.5215494632720947,"181":-0.9667807221412659,"182":-1.3764523267745972,"183":-1.4040354490280151,"184":-1.2054722309112549,"185":0.6860487461090088,"186":-0.06026666983962059,"187":-0.08977477997541428,"188":-4.0405731201171875,"189":3.80547833442688,"190":2.8504936695098877,"191":-0.754076361656189,"192":-5.6405863761901855,"193":3.265345573425293,"194":1.79063880443573,"195":2.174267530441284,"196":-0.3688511550426483,"197":-0.4476436674594879,"198":-3.539236307144165,"199":-1.9515113830566406,"200":-0.6034954190254211,"201":-1.5927709341049194,"202":-1.825404405593872,"203":1.1415654420852661,"204":0.4815748929977417,"205":2.3108534812927246,"206":-0.21118822693824768,"207":-1.5472224950790405,"208":2.8611326217651367,"209":-1.219735860824585,"210":-0.4042232930660248,"211":-1.4072037935256958,"212":0.15685807168483734,"213":-1.2027413845062256,"214":2.6788086891174316,"215":-4.395405292510986,"216":-1.2544796466827393,"217":-0.13783268630504608,"218":-1.4611091613769531,"219":-1.4966399669647217,"220":0.6984595060348511,"221":-0.757732093334198,"222":2.7346630096435547,"223":1.343131422996521,"224":-1.0421873331069946,"225":0.6740922927856445,"226":1.839821696281433,"227":-1.5107299089431763,"228":-1.2836759090423584,"229":-1.2635319232940674,"230":-2.4178857803344727,"231":-0.05127501115202904,"232":1.0316219329833984,"233":1.3703258037567139,"234":1.1796413660049438,"235":1.9650728702545166,"236":-4.324362277984619,"237":0.5992750525474548,"238":2.567181348800659,"239":2.9424002170562744,"240":-0.6611329317092896,"241":-4.759282112121582,"242":3.503289222717285,"243":-0.583293080329895,"244":-0.9782489538192749,"245":2.03300404548645,"246":-2.1446115970611572,"247":-1.1268916130065918,"248":-1.1096692085266113,"249":0.5510044097900391,"250":2.865027904510498,"251":0.7094277143478394,"252":4.079113006591797,"253":0.3260485827922821,"254":1.62949800491333,"255":2.3598499298095703,"256":-1.357059121131897,"257":0.7258120179176331,"258":2.756216526031494,"259":0.007658505812287331,"260":2.3881726264953613,"261":-1.975409746170044,"262":-1.5629194974899292,"263":0.8746876120567322,"264":-0.7655696272850037,"265":-1.2919461727142334,"266":-0.7174344658851624,"267":0.4979816675186157,"268":-2.5406861305236816,"269":3.1756186485290527,"270":0.3031846880912781,"271":1.3482412099838257,"272":1.439069151878357,"273":-1.0192234516143799,"274":2.4364705085754395,"275":-0.40305209159851074,"276":-1.3032749891281128,"277":-3.266232490539551,"278":-2.5218353271484375,"279":4.5823163986206055,"280":-3.4021427631378174,"281":0.707145631313324,"282":3.639159917831421,"283":4.054197311401367,"284":0.694604218006134,"285":0.9409472942352295,"286":-2.755709171295166,"287":3.6134519577026367,"288":-0.7715270519256592,"289":1.5897417068481445,"290":-1.1203442811965942,"291":0.7589691877365112,"292":-2.3135428428649902,"293":-1.653608798980713,"294":-1.6386040449142456,"295":-2.152653932571411,"296":4.639083385467529,"297":-0.5417574048042297,"298":0.26349759101867676,"299":-1.3827579021453857,"300":0.13212987780570984,"301":-1.6353615522384644,"302":1.2649402618408203,"303":-0.7750615477561951,"304":4.553097724914551,"305":-4.968745231628418,"306":-0.9455907344818115,"307":-4.3871564865112305,"308":-1.1788996458053589,"309":-1.4501045942306519,"310":1.464099645614624,"311":-2.393683671951294,"312":2.1823418140411377,"313":3.962379217147827,"314":0.9627529382705688,"315":-0.36214739084243774,"316":0.17983347177505493,"317":0.28745853900909424,"318":-6.362815856933594,"319":0.5460928082466125,"320":0.7505499124526978,"321":1.9041457176208496,"322":1.3933912515640259,"323":-0.8889115452766418,"324":1.4116237163543701,"325":1.7009011507034302,"326":1.8338713645935059,"327":-0.4384593963623047,"328":-1.5625121593475342,"329":2.4324607849121094,"330":-1.369984745979309,"331":2.194268226623535,"332":-2.4295663833618164,"333":2.9593677520751953,"334":-0.749488115310669,"335":0.32964250445365906,"336":-1.4604414701461792,"337":2.6415162086486816,"338":0.17419829964637756,"339":-1.5068801641464233,"340":-0.1817263513803482,"341":0.3702279031276703,"342":0.9833076596260071,"343":-0.885627269744873,"344":0.6938087940216064,"345":-1.832987666130066,"346":1.5004982948303223,"347":0.21844401955604553,"348":-0.6304551362991333,"349":2.961455821990967,"350":2.120753765106201,"351":-0.12086029350757599,"352":0.16644437611103058,"353":0.3239172101020813,"354":-3.5631558895111084,"355":0.09543199837207794,"356":-1.5919654369354248,"357":2.701805830001831,"358":1.8809248208999634,"359":-3.7549986839294434,"360":-1.8061625957489014,"361":-1.5010261535644531,"362":-1.8374879360198975,"363":2.7687807083129883,"364":5.118078231811523,"365":-2.548637628555298,"366":-2.520648717880249,"367":-0.03875590115785599,"368":0.14781832695007324,"369":0.9052734375,"370":-1.3404979705810547,"371":-0.32196876406669617,"372":4.176780700683594,"373":0.3345920145511627,"374":2.0729637145996094,"375":-2.1846349239349365,"376":1.2030272483825684,"377":-0.39976876974105835,"378":-0.8276665806770325,"379":1.9183025360107422,"380":-1.9139560461044312,"381":1.5202134847640991,"382":-2.1668732166290283,"383":1.769437313079834,"384":-4.894877910614014,"385":-1.2211551666259766,"386":2.046515464782715,"387":-1.7445852756500244,"388":1.753575325012207,"389":1.6284422874450684,"390":3.1581943035125732,"391":-3.1446685791015625,"392":1.3525460958480835,"393":3.187183141708374,"394":1.612998127937317,"395":2.461104154586792,"396":-1.4509432315826416,"397":-2.5150866508483887,"398":-0.19823284447193146,"399":-2.5562751293182373,"400":1.0415148735046387,"401":-0.5385622978210449,"402":0.06043660640716553,"403":-1.1008762121200562,"404":-1.0078521966934204,"405":0.6475555300712585,"406":1.5988155603408813,"407":-2.842930555343628,"408":-2.1555089950561523,"409":1.475670576095581,"410":-0.17508263885974884,"411":1.1274433135986328,"412":-2.0883591175079346,"413":1.0489671230316162,"414":-1.3055670261383057,"415":-0.5696128010749817,"416":0.1336737722158432,"417":-0.7354263067245483,"418":-0.38183385133743286,"419":-0.6061545014381409,"420":-0.9421672224998474,"421":-1.2517340183258057,"422":-0.9582537412643433,"423":-1.4033344984054565,"424":0.24220126867294312,"425":-1.188167929649353,"426":-2.829106092453003,"427":-1.9952870607376099,"428":0.2857373356819153,"429":-2.8327200412750244,"430":0.8439624309539795,"431":-2.3419108390808105,"432":-0.9945825338363647,"433":0.44097965955734253,"434":0.9868670105934143,"435":-4.2129716873168945,"436":-1.5547257661819458,"437":0.31010863184928894,"438":-1.7223554849624634,"439":-0.22846992313861847,"440":-2.0472137928009033,"441":2.9978415966033936,"442":4.938108921051025,"443":-2.6995339393615723,"444":-0.08806241303682327,"445":1.1521052122116089,"446":-1.5467628240585327,"447":-1.3935823440551758,"448":1.5221210718154907,"449":-0.47159889340400696,"450":1.8164892196655273,"451":-1.1619569063186646,"452":-2.2380266189575195,"453":-2.099320411682129,"454":-2.4368226528167725,"455":-1.06106436252594,"456":1.7228116989135742,"457":1.038729190826416,"458":2.2369682788848877,"459":-2.478560447692871,"460":-0.9581005573272705,"461":-3.037463426589966,"462":-1.6454954147338867,"463":-0.9052788615226746,"464":1.8997373580932617,"465":-0.6800289154052734,"466":1.333572268486023,"467":-0.279697448015213,"468":1.6368657350540161,"469":-3.0452919006347656,"470":-3.471552848815918,"471":-1.213100552558899,"472":-0.4246044158935547,"473":3.6186161041259766,"474":-0.6012758612632751,"475":0.4017888605594635,"476":-2.270484685897827,"477":-0.4207122325897217,"478":2.3556859493255615,"479":-0.3368465006351471,"480":-4.633234977722168,"481":2.1202914714813232,"482":2.4460973739624023,"483":2.2052152156829834,"484":1.2119611501693726,"485":-4.020866394042969,"486":-1.9205878973007202,"487":0.6866146326065063,"488":0.452566534280777,"489":0.07510572671890259,"490":2.7949838638305664,"491":2.128140926361084,"492":0.6788492202758789,"493":-3.9074394702911377,"494":0.13718315958976746,"495":3.3930788040161133,"496":0.9335146546363831,"497":1.3324750661849976,"498":-0.17275512218475342,"499":-1.572237491607666,"500":-3.114842176437378,"501":1.7272367477416992,"502":2.705617666244507,"503":-3.202877998352051,"504":2.1305124759674072,"505":1.7028319835662842,"506":0.42853236198425293,"507":0.08372963219881058,"508":-2.090385675430298,"509":1.970205545425415,"510":1.1995947360992432,"511":-4.742109298706055,"512":1.208923101425171,"513":-1.1294665336608887,"514":-3.2210404872894287,"515":1.1580296754837036,"516":-0.2978290319442749,"517":-0.7540982365608215,"518":1.009526014328003,"519":2.988342523574829,"520":-0.19818252325057983,"521":0.30614015460014343,"522":-0.7004229426383972,"523":-0.17104366421699524,"524":2.495236873626709,"525":0.8525949716567993,"526":0.788589358329773,"527":-3.061774969100952,"528":2.0514369010925293,"529":1.5854045152664185,"530":-1.680215835571289,"531":3.5240986347198486,"532":-0.6725349426269531,"533":-1.1087538003921509,"534":-0.5169984102249146,"535":1.298284649848938,"536":-1.629092812538147,"537":0.7267227172851562,"538":-2.7458879947662354,"539":0.09672082215547562,"540":0.7271345853805542,"541":2.6194636821746826,"542":-3.9062180519104004,"543":0.11760935187339783,"544":0.34363606572151184,"545":0.08940382301807404,"546":2.3422176837921143,"547":2.341732978820801,"548":0.2838957607746124,"549":2.1268508434295654,"550":0.23452353477478027,"551":-1.322861909866333,"552":-1.26412832736969,"553":-0.6552492380142212,"554":-0.6427450180053711,"555":2.221741199493408,"556":-1.6274338960647583,"557":-1.6162370443344116,"558":-0.585239052772522,"559":0.43015891313552856,"560":-0.06696473062038422,"561":2.0902462005615234,"562":-0.021206829696893692,"563":1.100998044013977,"564":2.62595534324646,"565":-0.9560136795043945,"566":0.9643800854682922,"567":-1.1621649265289307,"568":-1.2520819902420044,"569":-1.597119688987732,"570":0.6102583408355713,"571":-1.923882007598877,"572":-1.9233970642089844,"573":1.926914930343628,"574":2.3307600021362305,"575":0.6304624676704407,"576":0.23393890261650085,"577":0.508525013923645,"578":-0.3363281786441803,"579":0.6130245327949524,"580":1.2487845420837402,"581":-2.1652231216430664,"582":2.4561800956726074,"583":-0.12292324006557465,"584":1.6802101135253906,"585":1.128780484199524,"586":0.733299195766449,"587":-2.0079915523529053,"588":0.08680208027362823,"589":-0.19892682135105133,"590":-0.9256460070610046,"591":-0.7575532793998718,"592":-2.465947389602661,"593":-1.5887534618377686,"594":-0.834528923034668,"595":1.0312981605529785,"596":0.1585538536310196,"597":-1.4866814613342285,"598":-3.2408063411712646,"599":0.17032766342163086,"600":-1.3386309146881104,"601":1.704803705215454,"602":-1.9825936555862427,"603":-2.8099749088287354,"604":3.0965664386749268,"605":-1.5041730403900146,"606":0.9214950799942017,"607":-0.27512601017951965,"608":0.5249382257461548,"609":-0.6872767210006714,"610":0.7150703072547913,"611":0.5452239513397217,"612":0.8676447868347168,"613":1.8437904119491577,"614":3.757206439971924,"615":-1.5935590267181396,"616":-1.823656678199768,"617":-2.5347936153411865,"618":0.8197948336601257,"619":-0.5111533999443054,"620":1.1897841691970825,"621":1.3797414302825928,"622":-0.21791262924671173,"623":-3.560676336288452,"624":-0.2523448169231415,"625":1.2373424768447876,"626":-4.409468173980713,"627":-1.1961168050765991,"628":0.38231611251831055,"629":-1.6288763284683228,"630":4.861384868621826,"631":-0.026013145223259926,"632":-4.152344703674316,"633":-1.1647282838821411,"634":-1.0088114738464355,"635":1.090362787246704,"636":-1.2766242027282715,"637":-0.34942007064819336,"638":-2.253774404525757,"639":-3.2689905166625977,"640":-1.6771615743637085,"641":0.21546244621276855,"642":-0.16725879907608032,"643":2.321730136871338,"644":1.113120675086975,"645":0.7212251424789429,"646":-0.23738718032836914,"647":0.9985941648483276,"648":-0.8196415305137634,"649":-1.3265522718429565,"650":0.017926208674907684,"651":-2.355147123336792,"652":0.07129373401403427,"653":-0.3501088321208954,"654":0.9503986239433289,"655":-3.1311700344085693,"656":1.8529229164123535,"657":-0.54509037733078,"658":1.8417719602584839,"659":0.7162169218063354,"660":-3.2473642826080322,"661":1.6164029836654663,"662":-0.5325191617012024,"663":1.072659969329834,"664":-2.7249090671539307,"665":-2.139065742492676,"666":-1.68027925491333,"667":-3.6247265338897705,"668":-2.7253165245056152,"669":0.7038084864616394,"670":-3.380025625228882,"671":-4.5497565269470215,"672":1.6790294647216797,"673":1.7409741878509521,"674":-2.0173959732055664,"675":0.774884045124054,"676":-3.7402238845825195,"677":-1.605208396911621,"678":-0.2398868054151535,"679":-0.10412666946649551,"680":0.4772961735725403,"681":1.9373914003372192,"682":-2.734797716140747,"683":-1.284434199333191,"684":1.8528789281845093,"685":-0.5876471996307373,"686":0.784193754196167,"687":-1.2618975639343262,"688":-0.22787658870220184,"689":-0.9313452839851379,"690":-1.684873104095459,"691":-1.1790958642959595,"692":0.6662304997444153,"693":1.4024077653884888,"694":0.47066158056259155,"695":0.4712361693382263,"696":4.57275390625,"697":-2.0265865325927734,"698":2.5622384548187256,"699":-3.6468613147735596,"700":3.17415452003479,"701":1.0735039710998535,"702":1.033090591430664,"703":0.5657176971435547,"704":-2.1156365871429443,"705":1.7130728960037231,"706":0.22919471561908722,"707":-0.03840017318725586,"708":-3.1539406776428223,"709":0.8070131540298462,"710":-0.6875790357589722,"711":-0.6447304487228394,"712":1.6754533052444458,"713":1.4595938920974731,"714":-1.272443175315857,"715":1.3573228120803833,"716":3.8512563705444336,"717":1.1857963800430298,"718":-0.26322853565216064,"719":0.2473715990781784}},"forgetHidden":{"rows":20,"columns":20,"weights":{"0":3.0097463130950928,"1":-0.3924950063228607,"2":-1.4933602809906006,"3":1.6064062118530273,"4":-0.4876195192337036,"5":-0.2611902356147766,"6":-2.7234411239624023,"7":-0.15723975002765656,"8":1.1974421739578247,"9":1.183407187461853,"10":-1.15896475315094,"11":-2.464993715286255,"12":-1.8085683584213257,"13":-1.0237222909927368,"14":2.2087862491607666,"15":0.308834046125412,"16":-2.0546889305114746,"17":-0.7844600081443787,"18":1.3414735794067383,"19":-0.8591827750205994,"20":1.0118119716644287,"21":-0.09833177179098129,"22":5.377377510070801,"23":2.1456291675567627,"24":6.450174331665039,"25":-0.34126168489456177,"26":4.481678485870361,"27":1.4352021217346191,"28":-0.38168269395828247,"29":-1.3129627704620361,"30":-2.1825928688049316,"31":-0.3595067858695984,"32":4.28714656829834,"33":2.5730912685394287,"34":-5.610157012939453,"35":0.901084840297699,"36":2.18212628364563,"37":0.7109746336936951,"38":-1.5201740264892578,"39":0.6005327105522156,"40":-1.0485063791275024,"41":-5.150231838226318,"42":0.9702627658843994,"43":6.067893028259277,"44":-3.6880979537963867,"45":-1.1199462413787842,"46":2.5092685222625732,"47":1.0946547985076904,"48":-0.15979225933551788,"49":-3.956207752227783,"50":0.4054197371006012,"51":0.6968517899513245,"52":3.5965375900268555,"53":4.092402458190918,"54":-2.9851043224334717,"55":-4.905601978302002,"56":0.4717581868171692,"57":0.03507751598954201,"58":5.252061367034912,"59":1.601624608039856,"60":1.3683394193649292,"61":-1.413966417312622,"62":0.8570404648780823,"63":-1.552449345588684,"64":2.325913190841675,"65":-1.8974477052688599,"66":-1.2877382040023804,"67":4.34666633605957,"68":2.3156676292419434,"69":-1.5104862451553345,"70":3.1103804111480713,"71":-2.501326560974121,"72":-0.6345961689949036,"73":1.2218505144119263,"74":-0.5589863061904907,"75":-3.5932247638702393,"76":3.037447214126587,"77":0.20124414563179016,"78":3.7285454273223877,"79":-4.427200794219971,"80":0.3320137560367584,"81":-2.4684226512908936,"82":-1.026321530342102,"83":-2.729631185531616,"84":0.113002248108387,"85":0.056285180151462555,"86":0.10517781227827072,"87":-5.268056392669678,"88":-1.7053616046905518,"89":2.823354721069336,"90":1.1638094186782837,"91":-1.6652030944824219,"92":-1.115983009338379,"93":-1.8230926990509033,"94":-0.9463432431221008,"95":2.1253013610839844,"96":-0.0912938341498375,"97":2.854135751724243,"98":0.6004619002342224,"99":2.227902889251709,"100":-3.219305992126465,"101":-1.1849056482315063,"102":-4.153989315032959,"103":1.0498212575912476,"104":0.6307869553565979,"105":1.10719895362854,"106":1.6003081798553467,"107":-4.145162105560303,"108":-2.910827398300171,"109":-2.244335174560547,"110":-4.6885986328125,"111":-0.6563716530799866,"112":3.307403087615967,"113":-0.3711926341056824,"114":3.382045269012451,"115":0.39784523844718933,"116":-1.0401279926300049,"117":1.7761073112487793,"118":-3.360987663269043,"119":0.40032896399497986,"120":0.7991746068000793,"121":0.7304971218109131,"122":-0.24451373517513275,"123":1.7483851909637451,"124":-2.4227454662323,"125":-0.5717265605926514,"126":1.127053141593933,"127":1.5085947513580322,"128":-0.8136314153671265,"129":-0.0068810442462563515,"130":-0.35659146308898926,"131":-0.5637781620025635,"132":1.4658464193344116,"133":-1.9693695306777954,"134":-1.2936794757843018,"135":-2.2002904415130615,"136":-2.029174327850342,"137":-2.4399564266204834,"138":-2.0229134559631348,"139":-1.2120110988616943,"140":-5.351778984069824,"141":-1.8559644222259521,"142":-4.256210803985596,"143":-3.1043648719787598,"144":0.49548545479774475,"145":-3.439661741256714,"146":0.5167264938354492,"147":-3.833021640777588,"148":-2.5635318756103516,"149":1.3901044130325317,"150":-3.920449733734131,"151":-0.7841950058937073,"152":-0.4266113042831421,"153":-2.6846327781677246,"154":2.7433409690856934,"155":2.388725519180298,"156":3.234184503555298,"157":-1.782084584236145,"158":1.9259494543075562,"159":3.7101945877075195,"160":-1.460663914680481,"161":-1.5311822891235352,"162":-0.5703385472297668,"163":2.063164710998535,"164":-0.08555186539888382,"165":-1.4951179027557373,"166":-1.4333988428115845,"167":-0.410853773355484,"168":-1.3072395324707031,"169":2.762665033340454,"170":-1.5230404138565063,"171":1.7078677415847778,"172":-1.0550236701965332,"173":-1.2881876230239868,"174":4.736694812774658,"175":4.949845790863037,"176":-3.537280797958374,"177":0.7625946402549744,"178":-0.8700311183929443,"179":1.5195215940475464,"180":0.7270318865776062,"181":1.9439847469329834,"182":2.361605644226074,"183":-1.2826879024505615,"184":-0.13309265673160553,"185":-3.491034507751465,"186":0.21831583976745605,"187":1.5138731002807617,"188":0.3688690662384033,"189":-0.7315426468849182,"190":0.4792911410331726,"191":0.8467917442321777,"192":-1.5521290302276611,"193":3.1613845825195312,"194":-0.13122600317001343,"195":-1.4444639682769775,"196":0.5710389614105225,"197":0.37021976709365845,"198":0.02392042800784111,"199":-0.8832575678825378,"200":-0.08845668286085129,"201":-2.87410044670105,"202":-0.32797080278396606,"203":0.9270458221435547,"204":3.139539957046509,"205":-6.8755269050598145,"206":-1.3212895393371582,"207":-0.9826169013977051,"208":-0.2267235368490219,"209":-5.467173099517822,"210":0.9582282304763794,"211":1.8021506071090698,"212":2.078209638595581,"213":1.3409831523895264,"214":-3.177436113357544,"215":-4.264213562011719,"216":-3.1348536014556885,"217":0.11463406682014465,"218":2.726815938949585,"219":1.1434869766235352,"220":0.4216914176940918,"221":0.3213265538215637,"222":-1.316259503364563,"223":-0.6403504610061646,"224":1.8030930757522583,"225":3.5025246143341064,"226":-0.6828113794326782,"227":-2.417639970779419,"228":-1.6392130851745605,"229":-0.5413274765014648,"230":-4.271417617797852,"231":-1.774727702140808,"232":2.4881765842437744,"233":2.2196168899536133,"234":0.5906473994255066,"235":2.202587842941284,"236":-1.8333299160003662,"237":1.8683923482894897,"238":-3.097482681274414,"239":0.7618999481201172,"240":1.0034488439559937,"241":1.1303596496582031,"242":3.2576334476470947,"243":0.7661911845207214,"244":0.3025544583797455,"245":1.69115149974823,"246":1.3096158504486084,"247":3.5293760299682617,"248":2.884458541870117,"249":-2.87130069732666,"250":0.43543997406959534,"251":1.157202124595642,"252":-2.0377230644226074,"253":2.0430424213409424,"254":-2.7828454971313477,"255":-0.4898667633533478,"256":1.1257792711257935,"257":0.7122390866279602,"258":-1.6998003721237183,"259":-4.244210243225098,"260":-3.8872110843658447,"261":-3.0106911659240723,"262":-8.281213760375977,"263":-3.050281047821045,"264":5.068742275238037,"265":-5.682357311248779,"266":-1.9013326168060303,"267":-2.299384593963623,"268":-3.5448107719421387,"269":0.7089981436729431,"270":-2.4214348793029785,"271":-1.6027617454528809,"272":-2.854520797729492,"273":-5.229247570037842,"274":3.6606736183166504,"275":2.700641632080078,"276":-4.584954738616943,"277":-0.8121910691261292,"278":4.148664951324463,"279":9.026765823364258,"280":-0.7188901305198669,"281":1.5957005023956299,"282":0.271986722946167,"283":1.6624186038970947,"284":-1.0028823614120483,"285":-0.33244967460632324,"286":-0.9610685706138611,"287":-0.35788193345069885,"288":-0.29856032133102417,"289":2.3982863426208496,"290":2.5476632118225098,"291":0.3546416461467743,"292":-0.8399296998977661,"293":-0.4862027168273926,"294":0.49895766377449036,"295":-1.605987310409546,"296":0.1584293097257614,"297":0.6068899631500244,"298":3.394721031188965,"299":1.7430304288864136,"300":-2.5329580307006836,"301":-4.553128242492676,"302":-7.836894989013672,"303":2.4785208702087402,"304":3.2502987384796143,"305":3.875000238418579,"306":1.9063923358917236,"307":-2.744023323059082,"308":-3.333536386489868,"309":2.7106075286865234,"310":-0.9273316264152527,"311":0.8527781963348389,"312":-1.9809843301773071,"313":-2.3556997776031494,"314":0.6640849709510803,"315":2.7391300201416016,"316":-1.69412362575531,"317":2.7465527057647705,"318":-2.365326404571533,"319":3.3184890747070312,"320":-0.3487434387207031,"321":-0.10112076252698898,"322":1.8391528129577637,"323":-0.016039276495575905,"324":1.1173032522201538,"325":-1.8037834167480469,"326":-0.5381119251251221,"327":1.3788594007492065,"328":-0.608930766582489,"329":-0.2206616848707199,"330":0.7042480111122131,"331":0.1718311756849289,"332":-0.156924307346344,"333":0.7488363981246948,"334":-0.25464314222335815,"335":-1.0351638793945312,"336":0.8662796020507812,"337":-0.30113065242767334,"338":0.9668081998825073,"339":0.03764468804001808,"340":-2.2882273197174072,"341":-3.6663827896118164,"342":-3.2007904052734375,"343":6.331390380859375,"344":2.0727977752685547,"345":-3.312894105911255,"346":0.9096546769142151,"347":-4.672776699066162,"348":-5.314987659454346,"349":1.1788454055786133,"350":-1.2139923572540283,"351":0.9643382430076599,"352":-6.971436500549316,"353":-2.1316330432891846,"354":-0.7846284508705139,"355":0.24011555314064026,"356":-3.9335947036743164,"357":3.9139058589935303,"358":2.1532440185546875,"359":3.6648271083831787,"360":-0.05400802195072174,"361":-3.963029146194458,"362":-3.7207348346710205,"363":4.679401397705078,"364":1.9139691591262817,"365":2.694303274154663,"366":4.769302845001221,"367":-2.204033136367798,"368":-6.1429290771484375,"369":0.5717395544052124,"370":-4.2596588134765625,"371":-0.45943012833595276,"372":-1.5017613172531128,"373":-0.07087373733520508,"374":1.976199746131897,"375":5.102356910705566,"376":-4.719828128814697,"377":-2.207343578338623,"378":-3.8511040210723877,"379":1.042632818222046,"380":1.6860333681106567,"381":1.2478995323181152,"382":3.6415348052978516,"383":-1.6596779823303223,"384":0.2272462546825409,"385":-1.140582799911499,"386":-0.30917468667030334,"387":2.6174204349517822,"388":1.9471112489700317,"389":-1.90149986743927,"390":3.2094690799713135,"391":1.7304255962371826,"392":0.27822622656822205,"393":0.9477628469467163,"394":-5.7839579582214355,"395":-2.361661434173584,"396":0.2852928340435028,"397":-2.0110630989074707,"398":0.15785269439220428,"399":-0.8861385583877563}},"forgetBias":{"rows":20,"columns":1,"weights":{"0":0,"1":0,"2":0,"3":0,"4":0,"5":0,"6":0,"7":0,"8":0,"9":0,"10":0,"11":0,"12":0,"13":0,"14":0,"15":0,"16":0,"17":0,"18":0,"19":0}},"outputMatrix":{"rows":20,"columns":36,"weights":{"0":0.006238467525690794,"1":2.1359074115753174,"2":1.0846281051635742,"3":4.559159278869629,"4":-1.5273654460906982,"5":-0.19175313413143158,"6":-0.5934453010559082,"7":5.020342826843262,"8":1.0502873659133911,"9":1.5902445316314697,"10":-4.004615783691406,"11":-2.2623403072357178,"12":1.5077705383300781,"13":0.2645043730735779,"14":0.6233792304992676,"15":-1.6267681121826172,"16":-0.9988061189651489,"17":-3.4254150390625,"18":0.9544123411178589,"19":-0.9575863480567932,"20":-0.21326804161071777,"21":-2.8474738597869873,"22":-0.2692352831363678,"23":1.0540467500686646,"24":-5.686459064483643,"25":2.9025912284851074,"26":0.08308868110179901,"27":1.785919189453125,"28":-0.23143404722213745,"29":0.905502438545227,"30":1.130280613899231,"31":1.0386215448379517,"32":-0.3595340847969055,"33":0.31099969148635864,"34":-2.1999971866607666,"35":-4.696059226989746,"36":2.7778191566467285,"37":-0.15818838775157928,"38":-2.213510036468506,"39":0.7913422584533691,"40":2.0214359760284424,"41":2.20111083984375,"42":1.1148313283920288,"43":-2.6650519371032715,"44":0.23360733687877655,"45":-0.9972297549247742,"46":-1.4794199466705322,"47":0.9671598672866821,"48":0.8839837312698364,"49":0.25664639472961426,"50":-2.8731911182403564,"51":2.62023663520813,"52":-3.255730152130127,"53":2.9260060787200928,"54":-0.6972308158874512,"55":2.368204116821289,"56":3.9139325618743896,"57":1.0259759426116943,"58":-0.527148425579071,"59":0.4000864326953888,"60":1.4260460138320923,"61":-0.5310953855514526,"62":-2.1447386741638184,"63":2.640871524810791,"64":0.7004936337471008,"65":-2.2188022136688232,"66":2.6932313442230225,"67":0.40285712480545044,"68":-3.1312224864959717,"69":4.810101509094238,"70":-4.573432922363281,"71":2.932253360748291,"72":-0.22022907435894012,"73":-3.6002228260040283,"74":0.21035976707935333,"75":-2.574215888977051,"76":0.19941644370555878,"77":0.946240246295929,"78":-1.1106985807418823,"79":1.984311819076538,"80":0.4108898639678955,"81":1.2106521129608154,"82":3.350289821624756,"83":-0.20454376935958862,"84":-0.10859309136867523,"85":-0.4152367413043976,"86":0.0784643366932869,"87":0.2472519725561142,"88":1.2582736015319824,"89":0.21313683688640594,"90":0.7020887136459351,"91":0.6463227272033691,"92":2.179426431655884,"93":-0.5302367806434631,"94":-0.711268424987793,"95":-0.05506514385342598,"96":0.07575967162847519,"97":-1.619057297706604,"98":-0.612162172794342,"99":-0.003182906424626708,"100":-0.6418138146400452,"101":-0.3550216555595398,"102":2.513265609741211,"103":-1.7806721925735474,"104":1.52426016330719,"105":-2.5045735836029053,"106":-2.332634210586548,"107":0.8997218608856201,"108":0.48316046595573425,"109":0.634674608707428,"110":1.3441452980041504,"111":0.5573796629905701,"112":-1.7990543842315674,"113":2.46779203414917,"114":-0.7735470533370972,"115":-2.688647747039795,"116":1.1144568920135498,"117":-3.7940664291381836,"118":-2.5200231075286865,"119":3.290191411972046,"120":0.6190779805183411,"121":0.32837623357772827,"122":-0.25360891222953796,"123":1.326232671737671,"124":-1.4275909662246704,"125":-2.3333027362823486,"126":-0.3561162054538727,"127":0.6072753071784973,"128":3.7652604579925537,"129":1.0880342721939087,"130":1.8721539974212646,"131":-1.283249855041504,"132":0.9451656937599182,"133":-1.8975337743759155,"134":-0.5916508436203003,"135":6.219449520111084,"136":-3.1287903785705566,"137":-1.681745171546936,"138":1.423671007156372,"139":0.7345720529556274,"140":-2.3996942043304443,"141":4.603435039520264,"142":-1.635635495185852,"143":1.3445101976394653,"144":-2.2951817512512207,"145":1.2060484886169434,"146":-0.5805402398109436,"147":1.1398597955703735,"148":0.22374112904071808,"149":-1.0531466007232666,"150":1.053794503211975,"151":3.908621072769165,"152":-1.540128231048584,"153":1.8079094886779785,"154":0.5469052791595459,"155":0.3386073410511017,"156":0.6346254348754883,"157":-0.7048951387405396,"158":1.702447533607483,"159":-0.3836815059185028,"160":1.0781853199005127,"161":-1.9936327934265137,"162":-1.8143802881240845,"163":2.7926652431488037,"164":-1.3990840911865234,"165":1.3475996255874634,"166":-0.377883642911911,"167":1.6642417907714844,"168":-1.5513380765914917,"169":-2.3711822032928467,"170":2.8541009426116943,"171":-1.4480034112930298,"172":-0.6362428069114685,"173":0.03329877927899361,"174":1.4518859386444092,"175":1.51705801486969,"176":-1.8474700450897217,"177":-1.9036842584609985,"178":1.6492204666137695,"179":0.4170979857444763,"180":-1.2903364896774292,"181":-2.5459134578704834,"182":-2.5373456478118896,"183":1.449307918548584,"184":2.1567816734313965,"185":-0.5781939029693604,"186":-1.7990537881851196,"187":-1.994206190109253,"188":-0.41547366976737976,"189":3.382976531982422,"190":0.3306185305118561,"191":-2.2869045734405518,"192":-0.48787325620651245,"193":0.5526102185249329,"194":0.8863611221313477,"195":2.6218831539154053,"196":-0.26554134488105774,"197":2.7242841720581055,"198":-1.1647785902023315,"199":1.0434088706970215,"200":0.3285123109817505,"201":-1.307273507118225,"202":1.5561374425888062,"203":-1.9615174531936646,"204":0.8789637088775635,"205":0.2890574336051941,"206":0.6371753811836243,"207":-0.31456589698791504,"208":-2.6452105045318604,"209":-3.961515426635742,"210":2.3541641235351562,"211":0.10064609348773956,"212":-1.6204395294189453,"213":0.23820924758911133,"214":-0.4593850076198578,"215":0.4289866089820862,"216":1.1776001453399658,"217":1.5441701412200928,"218":0.8764196634292603,"219":-1.4471088647842407,"220":-2.333383321762085,"221":1.783559799194336,"222":-2.29870343208313,"223":1.1421072483062744,"224":-4.799846649169922,"225":-0.9316276907920837,"226":-0.5913011431694031,"227":1.631118655204773,"228":0.6389833092689514,"229":-0.08881910890340805,"230":1.9403830766677856,"231":-0.5581364035606384,"232":0.3602590560913086,"233":2.3108413219451904,"234":-0.9286172986030579,"235":-0.08498070389032364,"236":1.860156536102295,"237":2.3674285411834717,"238":2.6595969200134277,"239":1.013791561126709,"240":-4.077012062072754,"241":-0.1892349272966385,"242":1.1081565618515015,"243":1.8650089502334595,"244":-0.4844670593738556,"245":-0.6604887843132019,"246":1.6350020170211792,"247":1.241995096206665,"248":0.016251215711236,"249":-0.6774111390113831,"250":1.795454740524292,"251":0.04752078652381897,"252":-2.481142520904541,"253":-0.3939460813999176,"254":-2.663719415664673,"255":0.022692199796438217,"256":-2.1648097038269043,"257":0.8238077759742737,"258":1.4387826919555664,"259":-0.5448041558265686,"260":-0.9595765471458435,"261":-0.10041456669569016,"262":2.6956088542938232,"263":-0.8449499607086182,"264":-4.627410888671875,"265":-0.04291363060474396,"266":-1.2869057655334473,"267":2.530313730239868,"268":-1.2765984535217285,"269":-0.37326496839523315,"270":-0.8880710005760193,"271":-1.0529013872146606,"272":0.24218687415122986,"273":-1.4653650522232056,"274":-1.6624066829681396,"275":1.0702509880065918,"276":0.5117555260658264,"277":-1.5838253498077393,"278":0.3371767997741699,"279":1.1151821613311768,"280":-2.064657211303711,"281":-1.5529708862304688,"282":3.1180412769317627,"283":-2.635835647583008,"284":-3.3817920684814453,"285":1.2433093786239624,"286":4.378338813781738,"287":0.9324200749397278,"288":-1.4353430271148682,"289":0.1612841635942459,"290":0.0602865032851696,"291":-0.7498171925544739,"292":-0.5078731179237366,"293":2.3821773529052734,"294":1.2031359672546387,"295":-3.8024063110351562,"296":-1.4153215885162354,"297":-0.7390394806861877,"298":5.2889404296875,"299":6.265219688415527,"300":0.733241617679596,