{"type":"LSTM","options":{"inputSize":36,"inputRange":36,"hiddenLayers":[20,20],"outputSize":36,"decayRate":0.999,"smoothEps":1e-8,"regc":0.000001,"clipval":5,"maxPredictionLength":100,"dataFormatter":{"values":["This is a scam.","fraud","100% real offer, not a scam","We just need your card details and mothers maiden name.","we are going to scam you","Tickets for sale, scalped tickets!","great product, great reviews","notfraud","we are an industry leader","we have great customer support","This product is well reviewed","Fantastic Product, are customers love it!"],"indexTable":{"0":14,"1":13,"T":0,"h":1,"i":2,"s":3," ":4,"a":5,"c":6,"m":7,".":8,"f":9,"r":10,"u":11,"d":12,"%":15,"e":16,"l":17,"o":18,",":19,"n":20,"t":21,"W":22,"j":23,"y":24,"w":25,"g":26,"k":27,"p":28,"!":29,"v":30,"F":31,"P":32,"stop-input":33,"start-output":34,"unrecognized":35},"characterTable":{"0":"T","1":"h","2":"i","3":"s","4":" ","5":"a","6":"c","7":"m","8":".","9":"f","10":"r","11":"u","12":"d","13":"1","14":"0","15":"%","16":"e","17":"l","18":"o","19":",","20":"n","21":"t","22":"W","23":"j","24":"y","25":"w","26":"g","27":"k","28":"p","29":"!","30":"v","31":"F","32":"P","33":null,"34":null,"35":null},"characters":["T","h","i","s"," ","a","c","m",".","f","r","u","d","1","0","%","e","l","o",",","n","t","W","j","y","w","g","k","p","!","v","F","P","stop-input","start-output","unrecognized"],"specialIndexes":[33,34,35]}},"input":{"rows":37,"columns":36,"weights":{"0":-6.485864162445068,"1":8.791778564453125,"2":-8.714412689208984,"3":10.8923978805542,"4":-1.019520878791809,"5":-10.112669944763184,"6":11.8150053024292,"7":1.6567562818527222,"8":-2.3528554439544678,"9":-11.816515922546387,"10":-0.6505058407783508,"11":-7.378913879394531,"12":-6.372633457183838,"13":-9.689532279968262,"14":-10.207454681396484,"15":11.973645210266113,"16":12.35175895690918,"17":-10.027132987976074,"18":11.312310218811035,"19":1.099247932434082,"20":-11.635791778564453,"21":2.2313244342803955,"22":1.1925050020217896,"23":12.05202865600586,"24":12.340899467468262,"25":-9.785118103027344,"26":0.9979826807975769,"27":0.8372480273246765,"28":-8.509252548217773,"29":2.821202516555786,"30":12.948626518249512,"31":-0.29605311155319214,"32":-2.2228477001190186,"33":1.9237966537475586,"34":-0.5006806254386902,"35":-0.08073882013559341,"36":-40.355464935302734,"37":23.80191993713379,"38":-26.124357223510742,"39":38.97002410888672,"40":21.12088966369629,"41":-36.33377456665039,"42":40.66279983520508,"43":-19.65238380432129,"44":-31.283401489257812,"45":-35.224483489990234,"46":-36.5091438293457,"47":10.368514060974121,"48":5.420999050140381,"49":5.476986408233643,"50":35.35910415649414,"51":-8.846187591552734,"52":-5.9742608070373535,"53":-23.66146469116211,"54":35.64530563354492,"55":33.77247619628906,"56":9.184871673583984,"57":-23.343446731567383,"58":-5.793981552124023,"59":39.95079803466797,"60":11.176933288574219,"61":-35.49299621582031,"62":-17.64765167236328,"63":-6.7862043380737305,"64":10.785736083984375,"65":-7.28006649017334,"66":-22.39324188232422,"67":28.490217208862305,"68":7.090017318725586,"69":18.78178596496582,"70":9.784594535827637,"71":9.708579063415527,"72":-10.415197372436523,"73":8.970735549926758,"74":10.310664176940918,"75":10.796506881713867,"76":10.010420799255371,"77":5.665770530700684,"78":10.521576881408691,"79":-10.17294979095459,"80":10.468985557556152,"81":-8.434207916259766,"82":6.985936164855957,"83":-8.38148307800293,"84":-10.790802001953125,"85":-10.727624893188477,"86":11.054667472839355,"87":8.52624797821045,"88":9.965967178344727,"89":-10.097513198852539,"90":-10.051375389099121,"91":-7.341846942901611,"92":-9.205137252807617,"93":-10.362561225891113,"94":10.749852180480957,"95":11.130213737487793,"96":-1.0771827697753906,"97":-10.956811904907227,"98":10.040584564208984,"99":10.325227737426758,"100":-10.034256935119629,"101":9.916509628295898,"102":7.350241661071777,"103":6.721410751342773,"104":-11.368517875671387,"105":-10.252843856811523,"106":-8.846136093139648,"107":-9.357786178588867,"108":0.5799835324287415,"109":-8.707719802856445,"110":10.846138954162598,"111":0.028144514188170433,"112":12.347677230834961,"113":12.73080062866211,"114":-0.6840591430664062,"115":-6.578117370605469,"116":0.25124508142471313,"117":1.1248064041137695,"118":12.835733413696289,"119":0.35008230805397034,"120":0.603850245475769,"121":12.554215431213379,"122":3.7866225242614746,"123":-0.2648165225982666,"124":-13.634910583496094,"125":11.72528076171875,"126":-0.2851676046848297,"127":-12.786638259887695,"128":1.3707257509231567,"129":-10.979874610900879,"130":-0.14886294305324554,"131":0.22845548391342163,"132":3.3123085498809814,"133":-0.4243084788322449,"134":-5.020102500915527,"135":-13.130121231079102,"136":12.426647186279297,"137":-12.197134017944336,"138":10.404666900634766,"139":1.1107337474822998,"140":0.20814459025859833,"141":-11.480320930480957,"142":12.518539428710938,"143":12.852230072021484,"144":7.021874904632568,"145":4.51230001449585,"146":6.072460651397705,"147":4.606226444244385,"148":0.14063286781311035,"149":-5.396238327026367,"150":-6.774166107177734,"151":-5.242802143096924,"152":5.824367523193359,"153":-2.229416608810425,"154":6.391454696655273,"155":-2.1058568954467773,"156":-4.614801406860352,"157":7.022578239440918,"158":3.0555827617645264,"159":6.06508207321167,"160":5.453851222991943,"161":-3.4236936569213867,"162":3.798243522644043,"163":0.4470631182193756,"164":-5.968977451324463,"165":-2.615957736968994,"166":-7.110498905181885,"167":-3.5308339595794678,"168":2.813178539276123,"169":3.6995344161987305,"170":-6.316949844360352,"171":-7.090967178344727,"172":-3.4908576011657715,"173":-0.6174911260604858,"174":6.186349391937256,"175":1.7759172916412354,"176":4.825134754180908,"177":-5.666555404663086,"178":6.604432582855225,"179":6.895317077636719,"180":8.514937400817871,"181":-8.5508394241333,"182":2.4646103382110596,"183":2.5514018535614014,"184":15.30565071105957,"185":1.2404567003250122,"186":-9.590638160705566,"187":-17.075292587280273,"188":9.698762893676758,"189":3.1480798721313477,"190":15.957322120666504,"191":8.385659217834473,"192":10.739925384521484,"193":-1.1400837898254395,"194":5.06251335144043,"195":-5.237402439117432,"196":-0.24760621786117554,"197":5.648405075073242,"198":-5.313629627227783,"199":-10.809881210327148,"200":2.1190738677978516,"201":-16.148752212524414,"202":-9.705209732055664,"203":1.4308815002441406,"204":18.755512237548828,"205":16.894672393798828,"206":6.2828049659729,"207":-14.733382225036621,"208":8.727860450744629,"209":-4.5112433433532715,"210":17.08477210998535,"211":-7.459964752197266,"212":-1.0520497560501099,"213":-12.497514724731445,"214":15.524728775024414,"215":10.358323097229004,"216":13.637992858886719,"217":12.440220832824707,"218":7.356662273406982,"219":-2.548229694366455,"220":6.256017684936523,"221":1.3673441410064697,"222":-8.851675033569336,"223":-4.323445796966553,"224":9.750642776489258,"225":3.462174415588379,"226":10.377106666564941,"227":7.356262683868408,"228":8.167892456054688,"229":5.280208587646484,"230":-4.532591342926025,"231":4.7055983543396,"232":-2.4710147380828857,"233":-6.966352462768555,"234":-5.4647650718688965,"235":-3.6826231479644775,"236":0.021730193868279457,"237":2.540569543838501,"238":-13.506704330444336,"239":-3.2086265087127686,"240":3.942164897918701,"241":2.822930097579956,"242":-12.41722583770752,"243":-13.705876350402832,"244":9.021450996398926,"245":-9.638727188110352,"246":-1.820333480834961,"247":11.667824745178223,"248":3.6965079307556152,"249":-8.230226516723633,"250":13.567983627319336,"251":14.136741638183594,"252":6.160428524017334,"253":5.803051471710205,"254":2.71946382522583,"255":6.503498077392578,"256":-4.502702236175537,"257":-5.615600109100342,"258":-1.338925838470459,"259":-6.244225025177002,"260":6.968367099761963,"261":2.366617441177368,"262":6.837218284606934,"263":2.958737373352051,"264":-4.334533214569092,"265":-6.28610897064209,"266":-5.773754119873047,"267":6.209095001220703,"268":6.335244178771973,"269":-5.522426605224609,"270":-0.89707350730896,"271":-5.708677768707275,"272":-6.586980819702148,"273":5.134653091430664,"274":-5.815306186676025,"275":3.4574503898620605,"276":6.2890706062316895,"277":5.444782257080078,"278":-5.843316078186035,"279":-6.05072546005249,"280":5.04885721206665,"281":-4.908627033233643,"282":6.452384948730469,"283":4.110284328460693,"284":0.32474491000175476,"285":-6.278636932373047,"286":6.3820624351501465,"287":6.222413539886475,"288":23.124977111816406,"289":21.329872131347656,"290":12.265748023986816,"291":-12.852757453918457,"292":14.964296340942383,"293":12.380838394165039,"294":-12.33401870727539,"295":-22.99193000793457,"296":11.631247520446777,"297":11.870218276977539,"298":22.43549346923828,"299":18.377485275268555,"300":23.077829360961914,"301":13.46125602722168,"302":-16.15569496154785,"303":-12.240775108337402,"304":-17.945968627929688,"305":14.956645965576172,"306":-13.674660682678223,"307":-13.174772262573242,"308":21.859329223632812,"309":14.992454528808594,"310":-22.857492446899414,"311":-11.785126686096191,"312":18.371767044067383,"313":23.08915901184082,"314":-22.05271339416504,"315":-22.729387283325195,"316":20.485435485839844,"317":-21.272254943847656,"318":-13.57990550994873,"319":23.245986938476562,"320":12.391779899597168,"321":21.643449783325195,"322":23.378419876098633,"323":23.137832641601562,"324":-21.647275924682617,"325":-30.652629852294922,"326":30.00389862060547,"327":17.1424560546875,"328":-32.442142486572266,"329":25.318344116210938,"330":-28.83634376525879,"331":-13.054699897766113,"332":29.756065368652344,"333":-23.788049697875977,"334":31.160362243652344,"335":-28.283588409423828,"336":-34.59071731567383,"337":-27.6991024017334,"338":-35.58722686767578,"339":-20.638399124145508,"340":34.40949249267578,"341":-21.77579689025879,"342":17.650745391845703,"343":24.61629295349121,"344":-31.321378707885742,"345":-19.487743377685547,"346":26.0889949798584,"347":-36.520259857177734,"348":17.060264587402344,"349":34.59652328491211,"350":36.46462631225586,"351":-17.719690322875977,"352":23.402793884277344,"353":31.741649627685547,"354":29.717544555664062,"355":-27.199277877807617,"356":13.24775505065918,"357":12.078320503234863,"358":22.236549377441406,"359":-26.4205322265625,"360":10.201382637023926,"361":1.8062487840652466,"362":-11.906097412109375,"363":-0.4097958505153656,"364":11.025968551635742,"365":0.42244458198547363,"366":-0.14597125351428986,"367":0.28175199031829834,"368":11.415340423583984,"369":-0.06234162673354149,"370":12.73207950592041,"371":1.1620641946792603,"372":1.275300145149231,"373":5.473173141479492,"374":-12.401071548461914,"375":-0.4171375036239624,"376":0.013420048169791698,"377":2.179375171661377,"378":0.01009857002645731,"379":-12.182154655456543,"380":0.7985954880714417,"381":3.020120859146118,"382":-12.431273460388184,"383":-0.2418396770954132,"384":12.18508529663086,"385":2.8888254165649414,"386":0.4561356008052826,"387":-12.495112419128418,"388":9.52066707611084,"389":-12.018556594848633,"390":0.694968044757843,"391":12.065767288208008,"392":12.440068244934082,"393":-12.22458267211914,"394":12.662862777709961,"395":12.272889137268066,"396":0.2929365634918213,"397":2.027582883834839,"398":-5.262681007385254,"399":12.232782363891602,"400":5.464340686798096,"401":-10.347631454467773,"402":-2.934319496154785,"403":-10.717921257019043,"404":10.325539588928223,"405":-8.496220588684082,"406":9.92066764831543,"407":-2.700183868408203,"408":-0.8753208518028259,"409":-11.695834159851074,"410":-0.9452779293060303,"411":0.6573533415794373,"412":10.355974197387695,"413":-0.30875706672668457,"414":4.224262714385986,"415":4.144155502319336,"416":-6.753793716430664,"417":-4.767397403717041,"418":0.44515782594680786,"419":11.338129043579102,"420":11.732410430908203,"421":11.218889236450195,"422":0.18083146214485168,"423":-7.664058208465576,"424":-1.0616850852966309,"425":3.8499934673309326,"426":10.183201789855957,"427":-0.07435351610183716,"428":-8.844898223876953,"429":-3.177926778793335,"430":9.548765182495117,"431":0.24777047336101532,"432":1.0122015476226807,"433":6.325076580047607,"434":0.5770814418792725,"435":4.284892559051514,"436":-7.470304489135742,"437":-7.982107162475586,"438":10.894979476928711,"439":-4.4637980461120605,"440":1.8164725303649902,"441":-9.117486953735352,"442":4.181004047393799,"443":-9.545075416564941,"444":-5.267806053161621,"445":-9.399055480957031,"446":-10.208101272583008,"447":9.541869163513184,"448":8.530266761779785,"449":-10.86478328704834,"450":10.53602123260498,"451":0.29399338364601135,"452":-8.066162109375,"453":8.995440483093262,"454":-4.677029609680176,"455":5.79299783706665,"456":0.8769960999488831,"457":-4.495349884033203,"458":-7.670415878295898,"459":-0.7777133584022522,"460":1.6585776805877686,"461":-0.2717870771884918,"462":6.651329040527344,"463":3.794553279876709,"464":-0.935713529586792,"465":-9.239835739135742,"466":3.5480127334594727,"467":6.846711158752441,"468":0.020485708490014076,"469":-1.4802929162979126,"470":-13.273301124572754,"471":13.783661842346191,"472":4.774789810180664,"473":-14.398536682128906,"474":13.381823539733887,"475":-2.3514013290405273,"476":-3.131715774536133,"477":-5.9009690284729,"478":-0.0747317373752594,"479":-5.234649181365967,"480":-13.542203903198242,"481":-10.849456787109375,"482":1.5354562997817993,"483":11.219278335571289,"484":10.688141822814941,"485":4.749483108520508,"486":12.67501449584961,"487":0.09728588163852692,"488":-6.346700191497803,"489":2.967766761779785,"490":1.9764026403427124,"491":14.197968482971191,"492":1.3462109565734863,"493":8.96225357055664,"494":-6.910344123840332,"495":1.1164206266403198,"496":-5.569977283477783,"497":-2.441693067550659,"498":1.7188454866409302,"499":11.338715553283691,"500":-5.9341864585876465,"501":-11.907218933105469,"502":-0.8071134686470032,"503":0.9241412878036499,"504":19.164342880249023,"505":28.013263702392578,"506":-21.687137603759766,"507":29.099700927734375,"508":27.07969856262207,"509":-27.942541122436523,"510":27.226531982421875,"511":-30.0963134765625,"512":-28.78456687927246,"513":-28.773866653442383,"514":25.076169967651367,"515":20.66208839416504,"516":29.527088165283203,"517":-29.64392852783203,"518":3.984954595565796,"519":30.86962127685547,"520":19.44799041748047,"521":-28.98042869567871,"522":18.591726303100586,"523":2.652634859085083,"524":-23.783353805541992,"525":-23.451133728027344,"526":-28.094364166259766,"527":30.026599884033203,"528":27.248018264770508,"529":7.96327543258667,"530":-29.646583557128906,"531":-27.623119354248047,"532":25.317007064819336,"533":-23.042118072509766,"534":29.02405548095703,"535":31.789148330688477,"536":-28.024831771850586,"537":11.585919380187988,"538":30.996906280517578,"539":31.046119689941406,"540":26.328149795532227,"541":27.181640625,"542":-22.577470779418945,"543":29.95940399169922,"544":24.859838485717773,"545":-29.1641788482666,"546":27.608375549316406,"547":-30.6253662109375,"548":-24.51516342163086,"549":-27.820079803466797,"550":28.86132049560547,"551":23.772371292114258,"552":29.281322479248047,"553":-29.62926483154297,"554":-13.630040168762207,"555":30.875877380371094,"556":28.61083221435547,"557":-29.0604190826416,"558":17.20707130432129,"559":2.4588632583618164,"560":-29.036752700805664,"561":-17.112884521484375,"562":-28.86091423034668,"563":29.972885131835938,"564":29.220762252807617,"565":13.6228666305542,"566":-30.0386962890625,"567":-28.537446975708008,"568":26.577207565307617,"569":-23.372983932495117,"570":30.38164520263672,"571":31.03136444091797,"572":-28.398897171020508,"573":-9.035109519958496,"574":31.388023376464844,"575":30.960844039916992,"576":31.810823440551758,"577":30.086467742919922,"578":15.853355407714844,"579":31.588655471801758,"580":-31.174205780029297,"581":-31.34539031982422,"582":10.105634689331055,"583":-31.72800636291504,"584":31.67919158935547,"585":30.42746353149414,"586":31.873638153076172,"587":28.36895751953125,"588":-27.560039520263672,"589":-31.321556091308594,"590":-31.680511474609375,"591":31.948848724365234,"592":31.91097640991211,"593":-30.869678497314453,"594":-20.74268913269043,"595":-28.95598602294922,"596":-31.945880889892578,"597":31.244224548339844,"598":-31.458641052246094,"599":-24.378015518188477,"600":31.575334548950195,"601":31.1007080078125,"602":-31.66689682006836,"603":-31.4916934967041,"604":30.281879425048828,"605":-29.191448211669922,"606":31.946992874145508,"607":-30.90225601196289,"608":-26.725934982299805,"609":-31.645959854125977,"610":31.456146240234375,"611":31.866926193237305,"612":-0.6899093985557556,"613":-3.0742015838623047,"614":15.205138206481934,"615":-0.73793625831604,"616":3.3094120025634766,"617":1.0834124088287354,"618":-2.4959049224853516,"619":-3.3784773349761963,"620":10.171088218688965,"621":-7.103787899017334,"622":12.73498249053955,"623":4.613646984100342,"624":-4.13861608505249,"625":2.6174259185791016,"626":-8.086227416992188,"627":2.1777708530426025,"628":7.748525619506836,"629":-14.319742202758789,"630":0.4402817189693451,"631":-3.744662284851074,"632":-8.056009292602539,"633":-4.9459075927734375,"634":-10.222674369812012,"635":-1.9371752738952637,"636":-2.0139267444610596,"637":5.955629825592041,"638":-3.193298578262329,"639":-13.138306617736816,"640":15.48885726928711,"641":3.0544843673706055,"642":12.58798599243164,"643":-6.867814064025879,"644":1.4407681226730347,"645":-3.244396209716797,"646":10.108011245727539,"647":14.694372177124023,"648":-4.534282684326172,"649":15.715005874633789,"650":-16.183189392089844,"651":-4.632501602172852,"652":-16.820398330688477,"653":-17.094717025756836,"654":15.817994117736816,"655":4.541651248931885,"656":-4.687057971954346,"657":16.057912826538086,"658":-4.5174055099487305,"659":16.565223693847656,"660":-16.642183303833008,"661":-16.612733840942383,"662":-17.10293960571289,"663":17.20097541809082,"664":17.250335693359375,"665":5.038980007171631,"666":9.625807762145996,"667":5.202418327331543,"668":4.468009948730469,"669":17.026884078979492,"670":-17.124469757080078,"671":-10.593049049377441,"672":-4.603794097900391,"673":16.767982482910156,"674":-17.1857852935791,"675":4.643545150756836,"676":-4.741230010986328,"677":-16.7209529876709,"678":-4.478592395782471,"679":5.515198230743408,"680":6.4213056564331055,"681":-17.219526290893555,"682":-4.638864040374756,"683":-4.471029758453369,"684":-2.6508562564849854,"685":11.373363494873047,"686":2.703026533126831,"687":0.04311123117804527,"688":24.33407211303711,"689":-18.057573318481445,"690":2.1762149333953857,"691":-4.287450790405273,"692":5.007570266723633,"693":10.284919738769531,"694":-2.2418060302734375,"695":-6.991340637207031,"696":25.314008712768555,"697":-8.246944427490234,"698":-0.007434533908963203,"699":-20.962739944458008,"700":-5.965151309967041,"701":6.672486782073975,"702":17.94049835205078,"703":-0.9741740226745605,"704":-7.475659370422363,"705":-19.318124771118164,"706":9.060847282409668,"707":19.38799476623535,"708":23.717920303344727,"709":-2.5320286750793457,"710":-5.935156345367432,"711":-20.7297306060791,"712":-8.395767211914062,"713":0.44741562008857727,"714":8.501723289489746,"715":-4.005209445953369,"716":-10.189781188964844,"717":15.733776092529297,"718":-0.7610852718353271,"719":-5.422232151031494,"720":22.669981002807617,"721":6.366012096405029,"722":-9.2295503616333,"723":5.848292350769043,"724":-21.79094123840332,"725":-9.754314422607422,"726":-5.176562309265137,"727":-5.964781284332275,"728":5.996771335601807,"729":12.745859146118164,"730":7.568758010864258,"731":19.81454849243164,"732":-3.9872143268585205,"733":-5.429382801055908,"734":-22.788745880126953,"735":6.151919364929199,"736":8.32983684539795,"737":-6.744609355926514,"738":1.781164288520813,"739":-3.0866191387176514,"740":-6.436836242675781,"741":22.29762840270996,"742":-22.569454193115234,"743":-13.938501358032227,"744":5.8124165534973145,"745":22.538015365600586,"746":-22.243396759033203,"747":-22.52413558959961,"748":21.62113380432129,"749":-17.54585075378418,"750":7.326572418212891,"751":-9.59291934967041,"752":-2.921393394470215,"753":-6.163433074951172,"754":22.40245819091797,"755":22.515426635742188,"756":-6.193501949310303,"757":-6.071933746337891,"758":-13.607933044433594,"759":15.94090461730957,"760":-6.9372711181640625,"761":-15.811118125915527,"762":14.827030181884766,"763":4.871861934661865,"764":-11.80557918548584,"765":-15.100822448730469,"766":-5.053400993347168,"767":-7.077160835266113,"768":-6.119158744812012,"769":-16.220565795898438,"770":-14.573522567749023,"771":16.662580490112305,"772":16.513694763183594,"773":-16.006196975708008,"774":12.646834373474121,"775":8.443121910095215,"776":-16.442901611328125,"777":-11.722898483276367,"778":5.3551225662231445,"779":16.079771041870117,"780":-5.294224262237549,"781":-9.104076385498047,"782":-13.941888809204102,"783":5.370926380157471,"784":15.36098861694336,"785":7.1701483726501465,"786":16.6346435546875,"787":-4.697566032409668,"788":-15.289745330810547,"789":-14.894866943359375,"790":-4.430517673492432,"791":-4.452423095703125,"792":6.168751239776611,"793":5.545230388641357,"794":6.032923698425293,"795":6.284066677093506,"796":-6.0050883293151855,"797":-6.096147537231445,"798":-1.7139545679092407,"799":-6.394113540649414,"800":6.156772613525391,"801":5.6087446212768555,"802":6.290640354156494,"803":-1.950411081314087,"804":-6.10315465927124,"805":-6.084489345550537,"806":-6.094172954559326,"807":6.342775821685791,"808":6.263284683227539,"809":-5.672955513000488,"810":-0.3643541634082794,"811":-4.11680269241333,"812":-6.373774528503418,"813":5.88400411605835,"814":-6.0763444900512695,"815":-5.030080795288086,"816":6.103325366973877,"817":5.955027103424072,"818":-6.339569091796875,"819":-6.245782375335693,"820":5.658970355987549,"821":-3.426868438720703,"822":6.30340051651001,"823":-6.250973224639893,"824":0.444623738527298,"825":-6.383652210235596,"826":6.2512407302856445,"827":6.372732639312744,"828":27.796173095703125,"829":-27.581058502197266,"830":28.196651458740234,"831":-10.334199905395508,"832":28.65663719177246,"833":28.077133178710938,"834":-20.256006240844727,"835":-27.263525009155273,"836":25.42525863647461,"837":-10.02196979522705,"838":29.059494018554688,"839":-3.3489155769348145,"840":30.43383026123047,"841":28.60026741027832,"842":14.959627151489258,"843":-26.874042510986328,"844":-31.640762329101562,"845":-27.49468421936035,"846":-27.036867141723633,"847":-29.593284606933594,"848":14.247204780578613,"849":-30.2406005859375,"850":-11.910447120666504,"851":7.999245643615723,"852":26.5229434967041,"853":-25.675132751464844,"854":-24.978145599365234,"855":-30.677457809448242,"856":29.16498374938965,"857":-29.53217315673828,"858":27.290815353393555,"859":0.025691961869597435,"860":10.479103088378906,"861":-29.291969299316406,"862":27.192171096801758,"863":27.660200119018555,"864":43.2915153503418,"865":-41.701271057128906,"866":38.2122802734375,"867":-45.83334732055664,"868":-46.32279586791992,"869":46.61255645751953,"870":-34.54314422607422,"871":46.673587799072266,"872":36.969520568847656,"873":43.247989654541016,"874":40.997764587402344,"875":-31.57455062866211,"876":-42.39255142211914,"877":-21.15983772277832,"878":-42.469383239746094,"879":43.717247009277344,"880":43.42885971069336,"881":43.81032943725586,"882":-45.59120178222656,"883":-44.389320373535156,"884":-38.98995590209961,"885":44.858062744140625,"886":-2.8219070434570312,"887":-44.16297912597656,"888":-46.16207504272461,"889":45.20382308959961,"890":43.19411849975586,"891":44.19610595703125,"892":-43.02164077758789,"893":37.92559051513672,"894":33.95238494873047,"895":-4.4187331199646,"896":-7.001130104064941,"897":-40.4151725769043,"898":-43.658241271972656,"899":-10.702874183654785,"900":31.21044158935547,"901":12.786553382873535,"902":2.8279290199279785,"903":-31.309349060058594,"904":-5.400629997253418,"905":2.9240987300872803,"906":-26.93797492980957,"907":10.889911651611328,"908":29.006803512573242,"909":30.388547897338867,"910":-0.456957072019577,"911":28.94583511352539,"912":31.175273895263672,"913":1.846847653388977,"914":-16.12164878845215,"915":-27.52411651611328,"916":-2.2623884677886963,"917":-25.83766746520996,"918":-31.83222007751465,"919":-1.9135324954986572,"920":27.10774040222168,"921":5.805019378662109,"922":-27.500492095947266,"923":-29.82610321044922,"924":16.77557945251465,"925":2.5753602981567383,"926":3.092545509338379,"927":1.2799574136734009,"928":1.9184588193893433,"929":-3.9262900352478027,"930":-17.994544982910156,"931":24.6953067779541,"932":28.49222755432129,"933":-1.5010076761245728,"934":-7.553102493286133,"935":0.9636250734329224,"936":3.923318386077881,"937":-27.868696212768555,"938":18.94609832763672,"939":27.467561721801758,"940":26.565956115722656,"941":20.150327682495117,"942":-0.7298467755317688,"943":-23.87828254699707,"944":2.952385902404785,"945":-22.02066421508789,"946":8.983441352844238,"947":-27.805553436279297,"948":2.583179235458374,"949":26.721580505371094,"950":21.59319496154785,"951":-4.917420864105225,"952":-29.42264747619629,"953":-0.16774381697177887,"954":29.402629852294922,"955":-26.19460105895996,"956":0.46815359592437744,"957":-28.11347198486328,"958":26.059919357299805,"959":20.66148567199707,"960":8.448543548583984,"961":-9.406311988830566,"962":1.0484156608581543,"963":-9.729623794555664,"964":24.735761642456055,"965":8.328352928161621,"966":11.577872276306152,"967":-9.382588386535645,"968":-13.502309799194336,"969":3.0032567977905273,"970":11.708279609680176,"971":-3.113252878189087,"972":10.848722457885742,"973":10.820775985717773,"974":10.844425201416016,"975":-10.799135208129883,"976":-10.862630844116211,"977":10.859017372131348,"978":-11.004473686218262,"979":10.828091621398926,"980":10.886565208435059,"981":-10.937278747558594,"982":10.938054084777832,"983":10.80266284942627,"984":10.763155937194824,"985":10.820690155029297,"986":-10.837319374084473,"987":-10.95461654663086,"988":-10.768890380859375,"989":-10.917959213256836,"990":-10.806257247924805,"991":11.561573028564453,"992":-10.833200454711914,"993":-10.896403312683105,"994":-10.878423690795898,"995":-10.92717456817627,"996":-10.830808639526367,"997":10.852500915527344,"998":10.872871398925781,"999":-11.63486099243164,"1000":10.932438850402832,"1001":11.469928741455078,"1002":11.016095161437988,"1003":10.82624626159668,"1004":10.76065444946289,"1005":10.830499649047852,"1006":11.186162948608398,"1007":10.860359191894531,"1008":31.941146850585938,"1009":32.007598876953125,"1010":-32.01950454711914,"1011":31.963468551635742,"1012":-31.980945587158203,"1013":-31.955171585083008,"1014":-31.97266387939453,"1015":32.004539489746094,"1016":-31.918352127075195,"1017":31.9245662689209,"1018":-31.925073623657227,"1019":31.91799545288086,"1020":31.96057891845703,"1021":31.971107482910156,"1022":-31.965511322021484,"1023":-31.918685913085938,"1024":-31.912179946899414,"1025":31.939128875732422,"1026":-31.959083557128906,"1027":31.932985305786133,"1028":-31.939395904541016,"1029":31.958105087280273,"1030":-31.94752311706543,"1031":32.019065856933594,"1032":-32.00162887573242,"1033":31.998876571655273,"1034":31.924375534057617,"1035":31.931861877441406,"1036":-31.985013961791992,"1037":-31.99581527709961,"1038":-32.01641082763672,"1039":31.986509323120117,"1040":31.93255043029785,"1041":32.005592346191406,"1042":-31.9680118560791,"1043":-31.945653915405273,"1044":35.56852722167969,"1045":16.515216827392578,"1046":-34.79310607910156,"1047":36.038063049316406,"1048":1.6407047510147095,"1049":-34.0267333984375,"1050":7.083198547363281,"1051":-26.31902503967285,"1052":-4.558300018310547,"1053":10.293506622314453,"1054":-8.224801063537598,"1055":8.433600425720215,"1056":-7.595451831817627,"1057":-15.813128471374512,"1058":-13.685230255126953,"1059":21.571475982666016,"1060":19.22148323059082,"1061":15.160778999328613,"1062":21.13954734802246,"1063":-23.75191879272461,"1064":-28.40532112121582,"1065":23.716360092163086,"1066":-8.39255428314209,"1067":34.627017974853516,"1068":27.3797550201416,"1069":25.1225528717041,"1070":-11.447869300842285,"1071":-7.354671478271484,"1072":-7.291092872619629,"1073":-28.522735595703125,"1074":-6.256515979766846,"1075":31.145708084106445,"1076":3.289377450942993,"1077":-23.039901733398438,"1078":2.554002523422241,"1079":-1.8835465908050537,"1080":20.566118240356445,"1081":20.52376365661621,"1082":-20.55211067199707,"1083":20.40338897705078,"1084":-20.543701171875,"1085":-20.494531631469727,"1086":-20.497394561767578,"1087":20.58798599243164,"1088":-20.513545989990234,"1089":20.503414154052734,"1090":-20.509098052978516,"1091":20.541732788085938,"1092":20.583972930908203,"1093":20.539276123046875,"1094":-20.0029296875,"1095":-20.514080047607422,"1096":-19.972686767578125,"1097":20.5614070892334,"1098":-20.56248664855957,"1099":20.518413543701172,"1100":-16.06398582458496,"1101":20.5130558013916,"1102":-19.374408721923828,"1103":20.526323318481445,"1104":-20.229290008544922,"1105":20.59627342224121,"1106":20.564817428588867,"1107":20.60197639465332,"1108":-20.547409057617188,"1109":-20.586349487304688,"1110":-20.556339263916016,"1111":20.593713760375977,"1112":18.822101593017578,"1113":20.558876037597656,"1114":-20.48322296142578,"1115":-20.569713592529297,"1116":-5.7626237869262695,"1117":4.779470443725586,"1118":-6.080654621124268,"1119":-4.531031608581543,"1120":-5.862793922424316,"1121":-6.071611404418945,"1122":5.713203430175781,"1123":5.461641311645508,"1124":-5.967231273651123,"1125":0.965445876121521,"1126":-5.884430408477783,"1127":-1.7258211374282837,"1128":-6.059009075164795,"1129":-5.755094528198242,"1130":-5.935625076293945,"1131":6.0222487449646,"1132":5.954531192779541,"1133":-1.9368739128112793,"1134":5.998572826385498,"1135":5.253944396972656,"1136":4.795327186584473,"1137":5.999115467071533,"1138":1.0368189811706543,"1139":-4.373373031616211,"1140":-5.840768337249756,"1141":4.924478530883789,"1142":-1.855964183807373,"1143":5.763543605804443,"1144":-5.013101577758789,"1145":4.671231746673584,"1146":-5.740675449371338,"1147":5.214056491851807,"1148":2.608156681060791,"1149":-5.771289348602295,"1150":-5.8909430503845215,"1151":-5.39740514755249,"1152":-30.994529724121094,"1153":31.475444793701172,"1154":23.50244140625,"1155":-31.801725387573242,"1156":22.05232810974121,"1157":-31.72005844116211,"1158":21.982194900512695,"1159":31.613697052001953,"1160":31.83514976501465,"1161":31.78310775756836,"1162":-31.686656951904297,"1163":-26.499929428100586,"1164":31.867340087890625,"1165":-31.585445404052734,"1166":-31.886531829833984,"1167":-31.837343215942383,"1168":31.640037536621094,"1169":31.548656463623047,"1170":30.915184020996094,"1171":31.800195693969727,"1172":-31.638038635253906,"1173":-30.382373809814453,"1174":31.226612091064453,"1175":30.925189971923828,"1176":30.5159912109375,"1177":-23.920562744140625,"1178":31.88167953491211,"1179":-31.27404022216797,"1180":-31.791603088378906,"1181":-24.92540168762207,"1182":31.007404327392578,"1183":-29.528547286987305,"1184":-22.036909103393555,"1185":31.839313507080078,"1186":-31.77359962463379,"1187":-31.755584716796875,"1188":-31.405607223510742,"1189":-21.7738094329834,"1190":16.535907745361328,"1191":21.577760696411133,"1192":27.86704444885254,"1193":-31.57636260986328,"1194":22.65713119506836,"1195":-28.65468406677246,"1196":28.1475772857666,"1197":31.66231346130371,"1198":-32.06956100463867,"1199":-30.370197296142578,"1200":3.919462203979492,"1201":-31.388885498046875,"1202":-25.759048461914062,"1203":-28.899126052856445,"1204":31.261167526245117,"1205":31.768598556518555,"1206":31.015579223632812,"1207":31.949100494384766,"1208":-30.654972076416016,"1209":-28.520008087158203,"1210":32.02833557128906,"1211":31.065101623535156,"1212":30.39441680908203,"1213":-30.226463317871094,"1214":19.789045333862305,"1215":-29.065752029418945,"1216":-32.60774612426758,"1217":29.687095642089844,"1218":30.479873657226562,"1219":-31.379615783691406,"1220":-30.793399810791016,"1221":-20.62785530090332,"1222":-32.1820068359375,"1223":-32.29384994506836,"1224":-26.257061004638672,"1225":2.2453746795654297,"1226":-6.557281970977783,"1227":-0.47888752818107605,"1228":-0.6418032050132751,"1229":-3.009774684906006,"1230":11.82745361328125,"1231":-6.132513523101807,"1232":-9.987165451049805,"1233":-30.021852493286133,"1234":-7.639602184295654,"1235":-24.56419563293457,"1236":0.31762903928756714,"1237":-23.955827713012695,"1238":15.803741455078125,"1239":2.077157974243164,"1240":6.600274085998535,"1241":-12.34840202331543,"1242":9.643234252929688,"1243":26.62084197998047,"1244":-2.092470169067383,"1245":-1.0825841426849365,"1246":20.943878173828125,"1247":13.002212524414062,"1248":-3.2124576568603516,"1249":-7.587148189544678,"1250":8.50130844116211,"1251":1.433379888534546,"1252":-8.475587844848633,"1253":27.408470153808594,"1254":2.480377197265625,"1255":-4.191786766052246,"1256":-23.439531326293945,"1257":22.294164657592773,"1258":0.7874354720115662,"1259":-20.73346710205078,"1260":-6.610293388366699,"1261":-6.192603588104248,"1262":-12.073144912719727,"1263":11.699835777282715,"1264":11.310335159301758,"1265":-11.986481666564941,"1266":-0.06326872855424881,"1267":-11.516908645629883,"1268":1.9880987405776978,"1269":-11.962525367736816,"1270":9.384038925170898,"1271":-5.741517066955566,"1272":-4.058792591094971,"1273":-4.308221817016602,"1274":9.839164733886719,"1275":-4.9977569580078125,"1276":4.294740200042725,"1277":4.742790699005127,"1278":12.314618110656738,"1279":3.5415165424346924,"1280":-0.49058568477630615,"1281":-10.939584732055664,"1282":1.519402265548706,"1283":12.805819511413574,"1284":12.691390037536621,"1285":3.3432669639587402,"1286":1.2944037914276123,"1287":-11.136975288391113,"1288":-7.648241996765137,"1289":1.6673086881637573,"1290":9.145746231079102,"1291":-0.3995695412158966,"1292":-3.1290130615234375,"1293":6.513637542724609,"1294":12.093344688415527,"1295":-0.6769326329231262,"1296":0.007530217990279198,"1297":0.00601315638050437,"1298":-0.021123621612787247,"1299":-0.03249695524573326,"1300":0.026773180812597275,"1301":-0.032518189400434494,"1302":0.033397309482097626,"1303":0.04885737597942352,"1304":0.032302092760801315,"1305":0.009292195551097393,"1306":-0.013294225558638573,"1307":0.04440087080001831,"1308":0.04473690688610077,"1309":0.0323786698281765,"1310":0.006033604498952627,"1311":-0.0512235127389431,"1312":-0.05087548866868019,"1313":-0.04130789637565613,"1314":-0.026473646983504295,"1315":-0.022211231291294098,"1316":0.04284846410155296,"1317":0.04766091704368591,"1318":0.022598203271627426,"1319":-0.05259719118475914,"1320":0.004416937939822674,"1321":0.0469001904129982,"1322":-0.015462886542081833,"1323":-0.0014257730217650533,"1324":-0.011903846636414528,"1325":-0.03922317177057266,"1326":0.04382960870862007,"1327":0.008305036462843418,"1328":0.05247236788272858,"1329":0.0053205545991659164,"1330":-0.0019083649385720491,"1331":-0.029686618596315384}},"hiddenLayers":[{"inputMatrix":{"rows":20,"columns":36,"weights":{"0":-2.2951064109802246,"1":3.632366418838501,"2":-11.606583595275879,"3":12.550126075744629,"4":-11.052650451660156,"5":-12.739458084106445,"6":12.993824005126953,"7":9.19717788696289,"8":-12.064213752746582,"9":-0.07561624050140381,"10":-11.312739372253418,"11":-11.944079399108887,"12":0.03603495657444,"13":-12.795882225036621,"14":1.100913166999817,"15":0.4841870069503784,"16":0.2017366886138916,"17":-0.1006883755326271,"18":2.999708652496338,"19":12.031582832336426,"20":0.4224812388420105,"21":1.8874239921569824,"22":11.190326690673828,"23":12.501776695251465,"24":1.464853286743164,"25":-9.068995475769043,"26":4.6379876136779785,"27":11.774158477783203,"28":-0.6848673224449158,"29":0.014788752421736717,"30":0.12656043469905853,"31":2.0287015438079834,"32":-12.75130844116211,"33":2.6172842979431152,"34":-11.171775817871094,"35":-10.836981773376465,"36":-5.803328990936279,"37":4.237879276275635,"38":11.691681861877441,"39":-2.9469852447509766,"40":7.849843978881836,"41":-6.567913055419922,"42":0.15619327127933502,"43":-13.711381912231445,"44":5.899953842163086,"45":5.548867702484131,"46":-0.9030186533927917,"47":0.10760925710201263,"48":1.204630732536316,"49":-7.053394794464111,"50":-2.976616144180298,"51":-2.647987127304077,"52":-4.300262928009033,"53":4.049400329589844,"54":10.614884376525879,"55":0.6397018432617188,"56":-8.102931022644043,"57":-7.946911811828613,"58":6.784062385559082,"59":9.917524337768555,"60":7.56022834777832,"61":-8.702312469482422,"62":1.4679059982299805,"63":-9.123775482177734,"64":-1.1774005889892578,"65":-8.579171180725098,"66":10.885027885437012,"67":-6.564160346984863,"68":-7.9577531814575195,"69":-6.223114967346191,"70":-3.3601272106170654,"71":2.2069101333618164,"72":6.2194342613220215,"73":-2.7130181789398193,"74":4.992852687835693,"75":2.616628408432007,"76":5.894915580749512,"77":6.109561920166016,"78":-6.2911858558654785,"79":-5.663112640380859,"80":6.176406383514404,"81":5.083489418029785,"82":6.237900733947754,"83":4.096061706542969,"84":6.318996429443359,"85":6.1221442222595215,"86":4.625792026519775,"87":-6.177661895751953,"88":-6.273207664489746,"89":3.7149910926818848,"90":-6.148469924926758,"91":-5.812676429748535,"92":3.9953525066375732,"93":-5.649391174316406,"94":-4.898021221160889,"95":-5.094155311584473,"96":6.2028303146362305,"97":4.218144416809082,"98":3.5689804553985596,"99":-6.276204586029053,"100":2.420949935913086,"101":-6.096961498260498,"102":5.808223724365234,"103":-5.309388160705566,"104":5.822262287139893,"105":4.054326057434082,"106":6.2169694900512695,"107":3.517733335494995,"108":-4.158307075500488,"109":5.281858444213867,"110":-4.966294765472412,"111":-5.86181640625,"112":-4.7364821434021,"113":-3.5264031887054443,"114":6.0398759841918945,"115":6.054320812225342,"116":-5.093942642211914,"117":-0.1343192309141159,"118":-5.773937225341797,"119":5.088231086730957,"120":-5.5512824058532715,"121":-4.639439582824707,"122":-4.941425323486328,"123":5.1568803787231445,"124":5.806920528411865,"125":-1.8038222789764404,"126":-5.5128173828125,"127":3.7433571815490723,"128":2.3617584705352783,"129":5.610776424407959,"130":-4.265166282653809,"131":3.207294225692749,"132":-6.229787349700928,"133":2.9845998287200928,"134":0.39371299743652344,"135":5.9370903968811035,"136":-3.5568783283233643,"137":-3.6469616889953613,"138":-5.97206449508667,"139":6.059870719909668,"140":-0.07477069646120071,"141":-2.2485718727111816,"142":-5.305957794189453,"143":1.0892448425292969,"144":-7.650338172912598,"145":4.12999153137207,"146":-5.379223346710205,"147":12.025975227355957,"148":-1.619099736213684,"149":-1.9940286874771118,"150":2.80232834815979,"151":-8.796784400939941,"152":-0.45196521282196045,"153":-7.505247116088867,"154":-0.7334268689155579,"155":-9.885477066040039,"156":-1.2803083658218384,"157":-7.936787128448486,"158":9.026688575744629,"159":0.657034158706665,"160":3.625570774078369,"161":-5.88149356842041,"162":1.4837088584899902,"163":8.25748348236084,"164":1.6291649341583252,"165":0.7763524651527405,"166":9.86546802520752,"167":9.375419616699219,"168":12.155153274536133,"169":-2.4364144802093506,"170":-2.468858003616333,"171":1.8353735208511353,"172":-7.258136749267578,"173":11.53488826751709,"174":0.2546444237232208,"175":-11.28017520904541,"176":-6.072451114654541,"177":6.37492561340332,"178":-1.1272075176239014,"179":-10.125093460083008,"180":3.707731246948242,"181":5.319118499755859,"182":-10.736355781555176,"183":11.952692031860352,"184":7.986451148986816,"185":-8.33881664276123,"186":3.1982004642486572,"187":-8.944225311279297,"188":-2.6422030925750732,"189":-6.946601390838623,"190":7.942937850952148,"191":2.346198558807373,"192":4.65609884262085,"193":-9.895544052124023,"194":-5.0016961097717285,"195":2.253119945526123,"196":8.756464004516602,"197":-5.040675640106201,"198":7.056072235107422,"199":-5.480543613433838,"200":-6.7919111251831055,"201":-9.021215438842773,"202":-1.6452821493148804,"203":9.95130443572998,"204":11.831903457641602,"205":9.279881477355957,"206":-2.6564784049987793,"207":-7.009121894836426,"208":2.596867322921753,"209":-1.8798720836639404,"210":9.38139533996582,"211":1.5083165168762207,"212":-9.308499336242676,"213":-5.920167922973633,"214":7.733567237854004,"215":1.2441504001617432,"216":5.568548202514648,"217":-3.2018256187438965,"218":6.043107986450195,"219":3.863184928894043,"220":5.641712665557861,"221":5.668314456939697,"222":-5.163498401641846,"223":-5.68171501159668,"224":6.04742956161499,"225":-2.2438883781433105,"226":6.161350727081299,"227":-0.9057784676551819,"228":6.0948872566223145,"229":4.685947895050049,"230":5.934255599975586,"231":-5.344918727874756,"232":-6.105227947235107,"233":0.5350866317749023,"234":-5.780752658843994,"235":-4.752049446105957,"236":-4.666879653930664,"237":-5.989957809448242,"238":1.409200668334961,"239":4.243052959442139,"240":6.075777053833008,"241":-5.170854568481445,"242":-1.047271728515625,"243":-5.7263641357421875,"244":3.0386009216308594,"245":-3.0792770385742188,"246":6.039926052093506,"247":-3.6534531116485596,"248":-3.6725151538848877,"249":4.683442115783691,"250":5.833835601806641,"251":5.008415222167969,"252":6.244941234588623,"253":2.4445462226867676,"254":5.64263916015625,"255":-5.984025478363037,"256":-5.18243932723999,"257":2.5452492237091064,"258":-6.2998576164245605,"259":-5.773746490478516,"260":-1.6326817274093628,"261":1.656033992767334,"262":5.60316276550293,"263":1.9143095016479492,"264":6.278779029846191,"265":6.200573921203613,"266":-5.304764270782471,"267":0.14668449759483337,"268":-6.292603492736816,"269":-2.3529860973358154,"270":5.061253547668457,"271":-5.749727725982666,"272":-2.4931674003601074,"273":3.365656614303589,"274":-5.890201091766357,"275":-6.09450101852417,"276":5.961441516876221,"277":-5.341275691986084,"278":-1.1721456050872803,"279":-6.116032600402832,"280":5.246197700500488,"281":-5.959348678588867,"282":5.601928234100342,"283":-5.386294841766357,"284":3.6961731910705566,"285":5.972649574279785,"286":1.9392743110656738,"287":5.705349445343018,"288":-14.416152000427246,"289":-7.748565673828125,"290":0.5972498655319214,"291":14.621136665344238,"292":6.154415130615234,"293":0.6039831042289734,"294":11.129103660583496,"295":-7.385870456695557,"296":-12.218222618103027,"297":-13.510576248168945,"298":4.2935662269592285,"299":-12.21827507019043,"300":-14.319774627685547,"301":2.275254249572754,"302":8.366888999938965,"303":11.409296035766602,"304":-1.6293323040008545,"305":11.892974853515625,"306":15.637443542480469,"307":-2.1426098346710205,"308":-11.284671783447266,"309":-6.26952600479126,"310":11.382040023803711,"311":12.903018951416016,"312":-8.913908958435059,"313":-5.229480743408203,"314":-5.416051387786865,"315":-4.688150405883789,"316":2.171152353286743,"317":-2.713050603866577,"318":8.735033988952637,"319":-10.377352714538574,"320":-11.917488098144531,"321":-2.6159467697143555,"322":6.717479228973389,"323":3.196521043777466,"324":-3.460339069366455,"325":5.3319830894470215,"326":-3.706352472305298,"327":-6.145750522613525,"328":-5.39170503616333,"329":-4.402395248413086,"330":6.134518623352051,"331":5.945870399475098,"332":-6.195703029632568,"333":-0.8697924613952637,"334":-6.1319661140441895,"335":5.71735954284668,"336":-5.989973545074463,"337":-0.6162266135215759,"338":-3.6851415634155273,"339":6.142319679260254,"340":5.740815162658691,"341":1.0356780290603638,"342":-3.0256311893463135,"343":3.904751777648926,"344":-0.7256254553794861,"345":6.062592506408691,"346":-5.5550642013549805,"347":-0.6913284063339233,"348":-6.295912265777588,"349":-3.971362590789795,"350":-2.5096511840820312,"351":6.167632579803467,"352":-2.5274672508239746,"353":-5.7631425857543945,"354":-6.151569366455078,"355":6.179620265960693,"356":-1.6838488578796387,"357":1.1789504289627075,"358":-5.821399211883545,"359":5.558004856109619,"360":10.542879104614258,"361":-9.653349876403809,"362":11.921635627746582,"363":13.945601463317871,"364":6.2816548347473145,"365":4.348742961883545,"366":-10.004804611206055,"367":-13.904207229614258,"368":7.939651966094971,"369":12.89753246307373,"370":5.458240985870361,"371":4.834897041320801,"372":6.672091960906982,"373":-9.402165412902832,"374":11.837675094604492,"375":-6.876887321472168,"376":-10.881529808044434,"377":9.7132568359375,"378":-3.1892244815826416,"379":-12.98024845123291,"380":8.037530899047852,"381":-7.157867431640625,"382":-3.2706942558288574,"383":12.99193000793457,"384":14.227032661437988,"385":3.9062299728393555,"386":3.9966013431549072,"387":-11.282177925109863,"388":5.222344398498535,"389":-11.056408882141113,"390":6.727646827697754,"391":-11.528523445129395,"392":-12.695250511169434,"393":-10.651747703552246,"394":3.520271062850952,"395":5.277799129486084,"396":-1.6628793478012085,"397":8.789755821228027,"398":-9.744413375854492,"399":-2.3764188289642334,"400":-5.108267307281494,"401":2.724454164505005,"402":-0.8662738800048828,"403":8.10753059387207,"404":3.8366644382476807,"405":-2.739630699157715,"406":2.0675253868103027,"407":-2.855820655822754,"408":0.4878065884113312,"409":1.3072799444198608,"410":-0.21388131380081177,"411":5.352731227874756,"412":6.542757987976074,"413":-1.4427368640899658,"414":-0.4692073464393616,"415":-4.450023174285889,"416":1.734269618988037,"417":1.4923804998397827,"418":3.7998621463775635,"419":6.974336624145508,"420":-7.457154273986816,"421":6.848345756530762,"422":-3.945446014404297,"423":-2.4398345947265625,"424":-7.169003963470459,"425":-9.057819366455078,"426":-10.107553482055664,"427":6.525740146636963,"428":-4.018582820892334,"429":8.586896896362305,"430":-0.6895821690559387,"431":2.6119513511657715,"432":9.118318557739258,"433":-0.7875746488571167,"434":5.328366279602051,"435":-6.255934238433838,"436":-4.2079243659973145,"437":9.970788955688477,"438":-6.294696807861328,"439":8.560282707214355,"440":7.460126876831055,"441":-1.4546723365783691,"442":9.518888473510742,"443":2.905073404312134,"444":1.073765754699707,"445":-0.2938709557056427,"446":-6.911426544189453,"447":3.2174222469329834,"448":4.783111572265625,"449":-2.774022340774536,"450":-9.262164115905762,"451":-3.78385066986084,"452":-3.713209629058838,"453":2.827343702316284,"454":-6.381258010864258,"455":-10.126030921936035,"456":-9.339325904846191,"457":8.58259391784668,"458":4.991695404052734,"459":3.1095919609069824,"460":6.668851852416992,"461":2.2174367904663086,"462":6.305819511413574,"463":0.07046420127153397,"464":1.3132226467132568,"465":0.2517283856868744,"466":0.880591630935669,"467":1.7124534845352173,"468":6.003692150115967,"469":-1.5245932340621948,"470":5.830511569976807,"471":-5.972198009490967,"472":5.017030239105225,"473":5.82358980178833,"474":-5.090896129608154,"475":-3.056532621383667,"476":2.2415688037872314,"477":2.8994085788726807,"478":5.654666900634766,"479":5.674253463745117,"480":6.1899285316467285,"481":6.032067775726318,"482":4.716543197631836,"483":-3.052374839782715,"484":-5.989973068237305,"485":2.869645118713379,"486":-5.712797164916992,"487":-4.719348430633545,"488":-1.8651130199432373,"489":-3.3410465717315674,"490":-5.643876552581787,"491":-5.269892692565918,"492":-4.032198429107666,"493":-3.5260732173919678,"494":-3.6120827198028564,"495":-5.489786624908447,"496":5.119585037231445,"497":-5.972864151000977,"498":2.538182020187378,"499":4.770810604095459,"500":5.244080066680908,"501":3.990431547164917,"502":5.615562438964844,"503":6.017031192779541,"504":-11.716287612915039,"505":-6.75353479385376,"506":-4.311298847198486,"507":0.6683127284049988,"508":-2.2368078231811523,"509":-0.06496085226535797,"510":-0.48606202006340027,"511":6.649836540222168,"512":-11.135795593261719,"513":0.6433376669883728,"514":-11.907632827758789,"515":-0.15436960756778717,"516":-8.123903274536133,"517":-0.6635298132896423,"518":3.2231969833374023,"519":0.17443373799324036,"520":1.0634838342666626,"521":4.679001808166504,"522":0.3467676341533661,"523":11.787731170654297,"524":1.242443323135376,"525":-1.757291316986084,"526":11.738995552062988,"527":0.9110488891601562,"528":-1.980351448059082,"529":-6.541194438934326,"530":10.029295921325684,"531":12.499068260192871,"532":-7.129038333892822,"533":11.517470359802246,"534":-2.6774051189422607,"535":-11.891694068908691,"536":-11.546866416931152,"537":8.603018760681152,"538":-11.975205421447754,"539":-11.774839401245117,"540":6.018881797790527,"541":-3.94405460357666,"542":5.8281731605529785,"543":4.108682632446289,"544":6.061408042907715,"545":6.089057922363281,"546":-5.692523956298828,"547":-5.50768518447876,"548":6.205152988433838,"549":4.303524971008301,"550":6.268580913543701,"551":3.5245301723480225,"552":6.213015079498291,"553":5.692173957824707,"554":5.821106433868408,"555":-6.120013236999512,"556":-6.238317966461182,"557":2.0422799587249756,"558":-6.164731025695801,"559":-5.601694583892822,"560":2.2035670280456543,"561":-6.008203029632568,"562":-1.6341489553451538,"563":2.893483877182007,"564":6.114097595214844,"565":2.8041534423828125,"566":-0.6138517260551453,"567":-6.141479015350342,"568":3.45158314704895,"569":-5.58946418762207,"570":5.543654918670654,"571":-2.264056444168091,"572":5.178882598876953,"573":-3.028151035308838,"574":6.183779239654541,"575":4.810413837432861,"576":-5.007178783416748,"577":-5.683189392089844,"578":-9.965848922729492,"579":-2.418991804122925,"580":4.341827869415283,"581":1.5506422519683838,"582":-4.567843914031982,"583":3.009700059890747,"584":-11.42369556427002,"585":10.586371421813965,"586":-11.838114738464355,"587":5.531469345092773,"588":2.952993154525757,"589":5.332142353057861,"590":9.32464599609375,"591":-1.9644122123718262,"592":-7.672918319702148,"593":10.694476127624512,"594":-1.411535382270813,"595":5.023868560791016,"596":6.742587566375732,"597":-0.9847226142883301,"598":10.410537719726562,"599":-2.334122657775879,"600":-4.370363235473633,"601":-8.17658805847168,"602":2.922476291656494,"603":9.162548065185547,"604":-10.333216667175293,"605":1.4580341577529907,"606":-11.564754486083984,"607":7.0310516357421875,"608":4.2713470458984375,"609":4.959508419036865,"610":-10.61468505859375,"611":-10.194376945495605,"612":-6.173086166381836,"613":-1.3061559200286865,"614":-3.5254933834075928,"615":5.712917804718018,"616":-3.6240479946136475,"617":-5.519428730010986,"618":6.041522979736328,"619":3.505388021469116,"620":-3.254589319229126,"621":-5.598334789276123,"622":-5.1024489402771,"623":-5.67661714553833,"624":-6.275303363800049,"625":-6.078838348388672,"626":0.5058014988899231,"627":5.4671854972839355,"628":6.186798095703125,"629":-3.911097526550293,"630":5.770939350128174,"631":5.4720540046691895,"632":-3.8970799446105957,"633":-3.0661611557006836,"634":5.473589897155762,"635":5.508188247680664,"636":-4.923562526702881,"637":-3.021456718444824,"638":2.5068001747131348,"639":5.909278392791748,"640":-1.43379545211792,"641":6.201825141906738,"642":4.259157180786133,"643":-3.3150413036346436,"644":-5.751061916351318,"645":-2.51780366897583,"646":-5.209660053253174,"647":-5.007767677307129,"648":-12.17039680480957,"649":11.006573677062988,"650":-6.563265323638916,"651":12.239317893981934,"652":0.5146052837371826,"653":-12.380020141601562,"654":12.169404983520508,"655":-10.909965515136719,"656":-9.704211235046387,"657":-11.651153564453125,"658":-12.053442001342773,"659":0.5748586654663086,"660":0.13215802609920502,"661":-12.418364524841309,"662":10.859233856201172,"663":-0.2807934880256653,"664":-0.21871717274188995,"665":4.184432029724121,"666":12.310962677001953,"667":11.204621315002441,"668":0.3859314024448395,"669":-2.5635554790496826,"670":-0.4856818914413452,"671":12.358508110046387,"672":-4.1365766525268555,"673":0.4700215458869934,"674":5.515861988067627,"675":-0.37139037251472473,"676":1.0895707607269287,"677":5.025454521179199,"678":-2.6875948905944824,"679":2.3472046852111816,"680":-12.500848770141602,"681":12.212081909179688,"682":0.3102266788482666,"683":-11.768362998962402,"684":-5.7670111656188965,"685":3.386357307434082,"686":-4.769255638122559,"687":2.599388599395752,"688":-5.452793598175049,"689":-5.7551164627075195,"690":5.880809307098389,"691":3.8902900218963623,"692":-5.7459187507629395,"693":-3.9681806564331055,"694":-5.990642070770264,"695":-3.845311403274536,"696":-6.23647403717041,"697":-5.580286979675293,"698":-2.531397819519043,"699":5.829994201660156,"700":6.006924629211426,"701":-1.4689406156539917,"702":5.744833469390869,"703":4.49080228805542,"704":-3.3935298919677734,"705":5.281251907348633,"706":4.299513816833496,"707":4.434357166290283,"708":-5.792232990264893,"709":-3.97921085357666,"710":1.2017842531204224,"711":6.019350528717041,"712":-4.26658821105957,"713":5.233861923217773,"714":-4.765870094299316,"715":2.3832085132598877,"716":-5.587663650512695,"717":1.9468791484832764,"718":-5.910978317260742,"719":-4.405320167541504}},"inputHidden":{"rows":20,"columns":20,"weights":{"0":-6.230187892913818,"1":6.278082847595215,"2":-6.327855587005615,"3":-9.461867332458496,"4":6.305902481079102,"5":6.403380870819092,"6":-6.222073554992676,"7":6.22732400894165,"8":-3.941889762878418,"9":-5.327078342437744,"10":-6.168933868408203,"11":3.961442470550537,"12":-9.336597442626953,"13":-6.260339736938477,"14":6.324469089508057,"15":6.298862457275391,"16":11.035079002380371,"17":-6.258150100708008,"18":10.943350791931152,"19":-9.457763671875,"20":7.2742414474487305,"21":6.124905109405518,"22":0.42387402057647705,"23":4.273009777069092,"24":5.849697113037109,"25":6.000135898590088,"26":-6.099691867828369,"27":6.236788749694824,"28":2.86255145072937,"29":-3.5343894958496094,"30":-4.973773956298828,"31":-5.6819071769714355,"32":6.666299819946289,"33":-5.942065715789795,"34":-1.9347739219665527,"35":5.9810566902160645,"36":5.586191177368164,"37":3.0610899925231934,"38":-3.0773024559020996,"39":2.9707553386688232,"40":6.325349807739258,"41":-6.377254962921143,"42":6.3645806312561035,"43":6.312887191772461,"44":-6.2817158699035645,"45":-6.318284034729004,"46":6.302554130554199,"47":-6.332118034362793,"48":6.3700432777404785,"49":6.32923698425293,"50":6.306244850158691,"51":3.73055362701416,"52":6.334430694580078,"53":6.338226795196533,"54":-6.366410732269287,"55":-6.3903656005859375,"56":-6.1435770988464355,"57":6.31249475479126,"58":-6.242884635925293,"59":6.346044063568115,"60":-6.232759475708008,"61":6.26003885269165,"62":-6.335150718688965,"63":-6.260652542114258,"64":6.288301467895508,"65":6.316923141479492,"66":-6.229302883148193,"67":6.176285743713379,"68":-6.273003578186035,"69":-6.228659152984619,"70":-6.142531871795654,"71":-1.2586597204208374,"72":-6.188144207000732,"73":-6.207853317260742,"74":6.317145824432373,"75":6.244521141052246,"76":4.947646617889404,"77":-6.290453910827637,"78":6.06651496887207,"79":-6.270821571350098,"80":5.285950660705566,"81":-12.066243171691895,"82":12.401020050048828,"83":5.961336612701416,"84":-12.286528587341309,"85":-12.38476848602295,"86":12.13449478149414,"87":-11.915053367614746,"88":6.071430683135986,"89":5.888182640075684,"90":11.82979965209961,"91":6.586626052856445,"92":-0.681313157081604,"93":12.13373851776123,"94":-6.005912780761719,"95":-12.302596092224121,"96":-3.2065720558166504,"97":5.649652481079102,"98":-4.548288822174072,"99":5.932041168212891,"100":5.282806396484375,"101":-11.298291206359863,"102":5.677340030670166,"103":-0.8646907806396484,"104":-11.607223510742188,"105":-10.930877685546875,"106":11.443345069885254,"107":-11.276260375976562,"108":11.698975563049316,"109":5.4615583419799805,"110":11.263473510742188,"111":7.843282699584961,"112":-0.7683449387550354,"113":11.72916030883789,"114":-5.649752140045166,"115":-11.853238105773926,"116":-9.59567642211914,"117":11.668749809265137,"118":-10.018105506896973,"119":11.617269515991211,"120":6.247318744659424,"121":-6.169396877288818,"122":6.320818901062012,"123":6.3134846687316895,"124":-6.1556549072265625,"125":-6.240679740905762,"126":6.0409932136535645,"127":-6.219325542449951,"128":6.278231620788574,"129":6.3333964347839355,"130":6.009894371032715,"131":3.1092231273651123,"132":6.253170490264893,"133":6.135986804962158,"134":-6.343895435333252,"135":-6.392376899719238,"136":-5.700339317321777,"137":6.302699565887451,"138":-6.169862747192383,"139":6.246705055236816,"140":6.231598377227783,"141":-6.246255397796631,"142":6.278263568878174,"143":6.29175329208374,"144":-6.33399772644043,"145":-6.318065643310547,"146":6.231658458709717,"147":-6.201713562011719,"148":6.311798572540283,"149":6.310132026672363,"150":6.233020782470703,"151":2.6253819465637207,"152":6.224736213684082,"153":6.313070297241211,"154":-6.272622585296631,"155":-6.292868137359619,"156":-5.893770694732666,"157":6.322714805603027,"158":-6.095439910888672,"159":6.259090423583984,"160":-5.830265045166016,"161":5.947521209716797,"162":-7.592341423034668,"163":-6.032395362854004,"164":6.0572733879089355,"165":7.598150253295898,"166":-7.406356334686279,"167":7.077022552490234,"168":-6.023349761962891,"169":-6.021857261657715,"170":-6.85189151763916,"171":-0.8035205006599426,"172":-6.004917621612549,"173":-7.477007865905762,"174":5.994533538818359,"175":7.542483329772949,"176":4.9125237464904785,"177":-6.014482498168945,"178":4.910139560699463,"179":-5.969775199890137,"180":-6.205983638763428,"181":6.278519630432129,"182":-6.316230773925781,"183":-6.337306976318359,"184":6.32214879989624,"185":6.349140644073486,"186":-6.235299110412598,"187":6.223532676696777,"188":-6.348215103149414,"189":-6.277240753173828,"190":-6.229942321777344,"191":-2.0441274642944336,"192":-6.29956579208374,"193":-6.239480495452881,"194":6.346079349517822,"195":6.296792984008789,"196":5.603738784790039,"197":-6.31898832321167,"198":6.119385242462158,"199":-6.2707929611206055,"200":3.57462739944458,"201":-4.065008640289307,"202":12.39195728302002,"203":3.9035415649414062,"204":-4.193203449249268,"205":-12.580093383789062,"206":11.972823143005371,"207":-6.936021327972412,"208":4.669905662536621,"209":4.400785446166992,"210":11.258720397949219,"211":-0.3604873716831207,"212":4.031323432922363,"213":11.929952621459961,"214":-4.626375675201416,"215":-12.163041114807129,"216":-1.2243609428405762,"217":4.23954439163208,"218":-1.6729577779769897,"219":4.438967704772949,"220":-0.6339961290359497,"221":-9.304187774658203,"222":-0.1205989420413971,"223":5.675581455230713,"224":-1.724975347518921,"225":-7.662193298339844,"226":5.761026859283447,"227":-6.663045883178711,"228":2.859649419784546,"229":6.19339656829834,"230":9.076794624328613,"231":0.672474205493927,"232":-5.979694366455078,"233":5.971027374267578,"234":0.6480169296264648,"235":-6.139254093170166,"236":0.7993021607398987,"237":3.1098642349243164,"238":-3.046558141708374,"239":2.5993833541870117,"240":-2.3454761505126953,"241":-7.0924906730651855,"242":0.7029510140419006,"243":2.237438678741455,"244":-6.693663597106934,"245":-7.652215957641602,"246":5.511913299560547,"247":-4.415520668029785,"248":1.2702008485794067,"249":0.4050465226173401,"250":1.49583899974823,"251":2.8891818523406982,"252":-2.580960273742676,"253":8.461256980895996,"254":-1.4220353364944458,"255":-6.282162666320801,"256":-3.862462043762207,"257":4.724632740020752,"258":-1.8150080442428589,"259":0.06929563730955124,"260":5.978063106536865,"261":-6.182217121124268,"262":6.20089864730835,"263":6.1555399894714355,"264":-6.142219543457031,"265":-6.156404972076416,"266":5.94315767288208,"267":-5.728780269622803,"268":6.216362476348877,"269":6.12913703918457,"270":5.698057651519775,"271":1.1487959623336792,"272":6.0801615715026855,"273":5.978200435638428,"274":-6.210080146789551,"275":-6.205113887786865,"276":-4.9830732345581055,"277":6.0795488357543945,"278":-5.8113226890563965,"279":6.17589807510376,"280":-7.417788505554199,"281":7.289236068725586,"282":-6.217331409454346,"283":-6.241940975189209,"284":7.375063896179199,"285":7.373165607452393,"286":-7.660659313201904,"287":7.622320175170898,"288":-6.242030143737793,"289":-6.210383892059326,"290":-7.786231994628906,"291":-1.5140166282653809,"292":-6.214486598968506,"293":-7.3228888511657715,"294":6.284986972808838,"295":5.132355213165283,"296":5.817560195922852,"297":-6.194547653198242,"298":5.939484119415283,"299":-6.235600471496582,"300":6.274764060974121,"301":-6.3301615715026855,"302":6.28877592086792,"303":6.272769451141357,"304":-6.286597728729248,"305":-6.33160400390625,"306":6.255184173583984,"307":-6.2205376625061035,"308":6.33158540725708,"309":6.276597023010254,"310":6.2940874099731445,"311":3.509463310241699,"312":6.302500247955322,"313":6.256021022796631,"314":-6.3227105140686035,"315":-6.27768087387085,"316":-5.964599132537842,"317":6.3034257888793945,"318":-6.148589134216309,"319":6.264102458953857,"320":-2.8067843914031982,"321":9.301309585571289,"322":-10.328292846679688,"323":-4.525588035583496,"324":9.938592910766602,"325":10.367862701416016,"326":-9.095126152038574,"327":8.539996147155762,"328":-4.10382604598999,"329":-3.850818395614624,"330":-8.397232055664062,"331":-5.572332859039307,"332":2.7318224906921387,"333":-9.216391563415527,"334":4.104189395904541,"335":9.780468940734863,"336":2.2647855281829834,"337":-3.420668601989746,"338":2.3174827098846436,"339":-3.8762967586517334,"340":-6.209226608276367,"341":6.206617832183838,"342":-6.245065212249756,"343":-6.205153942108154,"344":6.229707717895508,"345":6.295812606811523,"346":-6.202010154724121,"347":6.085378170013428,"348":-6.2474045753479,"349":-6.21783971786499,"350":-6.09354829788208,"351":-2.5760858058929443,"352":-6.2324724197387695,"353":-6.2459893226623535,"354":6.287350177764893,"355":6.213961601257324,"356":5.5545430183410645,"357":-6.217916488647461,"358":5.910696506500244,"359":-6.295031547546387,"360":-5.958578586578369,"361":0.5159692168235779,"362":-6.237853050231934,"363":-6.150485038757324,"364":6.144339561462402,"365":6.175931453704834,"366":-0.5076295137405396,"367":6.541363716125488,"368":-6.248470783233643,"369":-6.168597221374512,"370":-2.8627216815948486,"371":1.6147682666778564,"372":-11.508213996887207,"373":-0.5660291314125061,"374":11.097907066345215,"375":0.8667487502098083,"376":5.092141151428223,"377":-6.131802558898926,"378":5.3597846031188965,"379":-6.17279577255249,"380":-6.121912002563477,"381":6.164990425109863,"382":-6.29200553894043,"383":-6.204535484313965,"384":6.244813919067383,"385":6.271381378173828,"386":-6.1858229637146,"387":6.079944610595703,"388":-6.240571022033691,"389":-6.2287187576293945,"390":-6.01862907409668,"391":-1.0224360227584839,"392":-6.196115493774414,"393":-6.146239280700684,"394":6.241898059844971,"395":6.237153053283691,"396":5.034928321838379,"397":-6.194118976593018,"398":5.844959735870361,"399":-6.2948479652404785}},"inputBias":{"rows":20,"columns":1,"weights":{"0":3.316112756729126,"1":-1.7930686473846436,"2":3.3216898441314697,"3":-3.225217342376709,"4":3.7602758407592773,"5":0.5743719935417175,"6":3.030573844909668,"7":3.772128105163574,"8":-1.3831276893615723,"9":-5.47969913482666,"10":1.324695110321045,"11":-2.441225290298462,"12":2.5389513969421387,"13":-0.06505579501390457,"14":2.1671082973480225,"15":3.0973503589630127,"16":-4.228564739227295,"17":-0.2724417448043823,"18":-0.564633309841156,"19":-3.479656219482422}},"forgetMatrix":{"rows":20,"columns":36,"weights":{"0":-4.543766498565674,"1":1.0881404876708984,"2":-2.2434585094451904,"3":-2.8462448120117188,"4":-2.373790740966797,"5":-2.197458267211914,"6":5.039911270141602,"7":4.194181442260742,"8":-2.985116958618164,"9":-0.698689877986908,"10":-4.488205909729004,"11":1.3553142547607422,"12":-5.123487949371338,"13":-3.926213264465332,"14":-2.519853353500366,"15":3.0807502269744873,"16":5.072698593139648,"17":-0.9550883769989014,"18":1.2268102169036865,"19":3.0874502658843994,"20":0.9700381755828857,"21":2.5714337825775146,"22":0.013804525136947632,"23":0.7167475819587708,"24":-5.207888126373291,"25":1.939013957977295,"26":-0.8771024942398071,"27":4.474184036254883,"28":-0.038218796253204346,"29":2.9745731353759766,"30":-3.805565357208252,"31":3.4146463871002197,"32":0.4110877215862274,"33":-2.8768086433410645,"34":-3.4026567935943604,"35":-0.7242524027824402,"36":5.351982593536377,"37":-5.400078296661377,"38":-4.748955249786377,"39":6.722864151000977,"40":-5.411290168762207,"41":6.497991561889648,"42":-3.9480226039886475,"43":1.5791971683502197,"44":-6.603294372558594,"45":-6.827270030975342,"46":6.51338005065918,"47":4.626595497131348,"48":-7.656280517578125,"49":5.824864864349365,"50":7.548498153686523,"51":7.000579357147217,"52":-5.545546531677246,"53":-6.601250171661377,"54":-5.4880900382995605,"55":-6.915838241577148,"56":5.93931245803833,"57":5.168720245361328,"58":-5.734672546386719,"59":-5.566164493560791,"60":-5.150670051574707,"61":5.03662109375,"62":-7.081069469451904,"63":6.090200901031494,"64":7.319816589355469,"65":5.790736198425293,"66":-5.305227756500244,"67":5.435478210449219,"68":3.3536086082458496,"69":-6.837036609649658,"70":6.306052207946777,"71":7.235191345214844,"72":5.3448710441589355,"73":-0.935265302658081,"74":1.438501000404358,"75":0.9346425533294678,"76":3.995793342590332,"77":4.716538429260254,"78":-5.40151309967041,"79":-2.943891763687134,"80":4.7321906089782715,"81":2.5238795280456543,"82":5.318716049194336,"83":1.8798346519470215,"84":5.915879726409912,"85":4.7547125816345215,"86":1.9453537464141846,"87":-5.024411201477051,"88":-5.530484676361084,"89":1.6905485391616821,"90":-4.884159088134766,"91":-3.6260409355163574,"92":2.0743629932403564,"93":-2.349017381668091,"94":-2.439560890197754,"95":-2.691699266433716,"96":5.271914482116699,"97":1.8350248336791992,"98":1.476219654083252,"99":-5.371773719787598,"100":0.4935474097728729,"101":-4.849882125854492,"102":3.2611794471740723,"103":-2.4647581577301025,"104":3.6360278129577637,"105":1.0238584280014038,"106":5.007767677307129,"107":0.8788866400718689,"108":-1.6579601764678955,"109":2.365177869796753,"110":-2.4841175079345703,"111":-2.212850570678711,"112":-2.0049831867218018,"113":-1.862886905670166,"114":3.8918328285217285,"115":3.3795828819274902,"116":-1.5303065776824951,"117":0.5291727185249329,"118":-3.587925910949707,"119":1.4140630960464478,"120":-2.816884994506836,"121":-2.2957849502563477,"122":-2.080805540084839,"123":1.6175864934921265,"124":3.091034173965454,"125":-0.3394341468811035,"126":-2.015779495239258,"127":1.6126651763916016,"128":0.40266385674476624,"129":2.3835153579711914,"130":-0.4613885283470154,"131":1.6727343797683716,"132":-3.9915475845336914,"133":1.5181593894958496,"134":-0.06915932148694992,"135":3.4750988483428955,"136":-1.7717517614364624,"137":-0.031020795926451683,"138":-4.100348472595215,"139":3.465618133544922,"140":-0.05437501519918442,"141":-0.40331849455833435,"142":-2.6384472846984863,"143":-0.8112474083900452,"144":0.3163518011569977,"145":-0.3742503821849823,"146":-0.2338353991508484,"147":3.01180362701416,"148":2.10644268989563,"149":1.6942733526229858,"150":-0.8872452974319458,"151":-0.6553028225898743,"152":3.21571946144104,"153":-0.1204853355884552,"154":2.882136344909668,"155":-0.8828554153442383,"156":2.4165894985198975,"157":-0.14963124692440033,"158":1.4632179737091064,"159":-2.8662776947021484,"160":-0.37630441784858704,"161":0.6900527477264404,"162":-2.704665422439575,"163":0.2478092759847641,"164":0.07507152110338211,"165":-2.098681926727295,"166":1.0190521478652954,"167":1.3886585235595703,"168":3.035780906677246,"169":0.9355282783508301,"170":1.3766751289367676,"171":-1.6978740692138672,"172":-0.7359631657600403,"173":0.7603586912155151,"174":2.018739700317383,"175":-1.599297046661377,"176":-0.008822929114103317,"177":0.0575144998729229,"178":2.6540791988372803,"179":-1.2772364616394043,"180":5.548074722290039,"181":6.101030349731445,"182":4.353295803070068,"183":9.46990966796875,"184":6.824813365936279,"185":-6.945705890655518,"186":5.376949787139893,"187":-7.083433628082275,"188":-5.1127471923828125,"189":-6.587229251861572,"190":6.811789035797119,"191":4.930224418640137,"192":5.8109307289123535,"193":-7.549671173095703,"194":-5.96904993057251,"195":4.919295310974121,"196":7.090938568115234,"197":-5.922521591186523,"198":6.465577602386475,"199":-6.111851215362549,"200":-6.443617820739746,"201":-7.061164855957031,"202":-4.469021797180176,"203":7.6261701583862305,"204":9.025773048400879,"205":7.2470598220825195,"206":-4.969230651855469,"207":-6.488154888153076,"208":4.9227094650268555,"209":-4.671041011810303,"210":7.141019821166992,"211":4.345459461212158,"212":-7.36830997467041,"213":-6.22127103805542,"214":6.77693510055542,"215":4.013446807861328,"216":-0.7382146716117859,"217":-6.901825904846191,"218":7.558765411376953,"219":2.2900052070617676,"220":10.551175117492676,"221":11.341043472290039,"222":1.4473596811294556,"223":-6.255634307861328,"224":-2.2613778114318848,"225":-3.063446044921875,"226":11.594930648803711,"227":-2.2067902088165283,"228":-0.40509021282196045,"229":11.66821002960205,"230":5.547998905181885,"231":1.488488793373108,"232":-11.704597473144531,"233":7.832217216491699,"234":1.1816508769989014,"235":-9.914076805114746,"236":-2.896101713180542,"237":-7.533474922180176,"238":1.429425597190857,"239":1.9569506645202637,"240":-3.2954647541046143,"241":-2.9099175930023193,"242":-6.1354660987854,"243":-11.899837493896484,"244":8.600284576416016,"245":-12.031437873840332,"246":6.7132134437561035,"247":-4.653472900390625,"248":-0.852433443069458,"249":-7.6001176834106445,"250":11.657550811767578,"251":10.065590858459473,"252":5.164149761199951,"253":-0.588208019733429,"254":2.5886340141296387,"255":-3.2790164947509766,"256":4.229279041290283,"257":5.019984245300293,"258":-3.9134092330932617,"259":-0.3161303997039795,"260":4.134767055511475,"261":2.343626022338867,"262":5.046655654907227,"263":3.8859472274780273,"264":5.815329551696777,"265":4.832717418670654,"266":2.4929041862487793,"267":-4.701963901519775,"268":-5.128680229187012,"269":1.7794580459594727,"270":-5.351114273071289,"271":-2.4665322303771973,"272":1.3818672895431519,"273":-2.515845775604248,"274":-3.656702995300293,"275":-2.873560667037964,"276":2.2227518558502197,"277":1.5711499452590942,"278":0.594724714756012,"279":-4.541851043701172,"280":1.4169517755508423,"281":-4.9218621253967285,"282":1.7786144018173218,"283":1.5691877603530884,"284":4.100841522216797,"285":0.9003301858901978,"286":4.975703239440918,"287":3.5265979766845703,"288":2.606043815612793,"289":-0.6153932809829712,"290":1.4819988012313843,"291":-1.2841542959213257,"292":-2.7260122299194336,"293":1.9183859825134277,"294":-3.1711273193359375,"295":5.121408939361572,"296":2.544558048248291,"297":-2.6400129795074463,"298":1.708886981010437,"299":-0.1954914778470993,"300":-1.5403505563735962,"301":-1.2680416107177734,"302":-4.399220943450928,"303":2.2227327823638916,"304":5.663750171661377,"305":-1.4002279043197632,"306":-2.3505449295043945,"307":0.9367530345916748,"308":-4.5594353675842285,"309":2.119847297668457,"310":-2.2393271923065186,"311":-3.830078125,"312":-5.457762718200684,"313":4.451073169708252,"314":4.834065914154053,"315":4.674278736114502,"316":2.491583824157715,"317":5.260778903961182,"318":3.8688321113586426,"319":-1.2295583486557007,"320":-0.4232204854488373,"321":1.682559609413147,"322":-0.5781639218330383,"323":-0.516476571559906,"324":-1.848790168762207,"325":1.9791992902755737,"326":-0.11867739260196686,"327":-4.911327362060547,"328":-3.9354641437530518,"329":-3.1244635581970215,"330":3.8554701805114746,"331":3.0792934894561768,"332":-4.855087757110596,"333":-0.30103766918182373,"334":-4.80733060836792,"335":2.0035817623138428,"336":-4.586884498596191,"337":-0.4320163130760193,"338":-3.320560932159424,"339":4.677831172943115,"340":3.061159133911133,"341":-1.336069941520691,"342":3.1318130493164062,"343":1.254830241203308,"344":-0.5314062237739563,"345":3.611813545227051,"346":-2.4441721439361572,"347":-1.6136056184768677,"348":-5.398100852966309,"349":-1.4072895050048828,"350":-1.9840792417526245,"351":4.270906925201416,"352":0.7977184653282166,"353":-0.38280561566352844,"354":-4.203393459320068,"355":3.9760539531707764,"356":-0.3092527389526367,"357":0.31553804874420166,"358":-4.411072731018066,"359":2.7591216564178467,"360":-16.255098342895508,"361":9.503841400146484,"362":-14.042810440063477,"363":18.219552993774414,"364":0.5197462439537048,"365":-15.023879051208496,"366":13.52590560913086,"367":-0.4776582419872284,"368":-12.817358016967773,"369":-14.92373275756836,"370":-12.991222381591797,"371":-5.504055976867676,"372":-3.5254592895507812,"373":-3.7009100914001465,"374":16.07292366027832,"375":0.6983851790428162,"376":2.1171457767486572,"377":-9.632036209106445,"378":17.074214935302734,"379":13.584028244018555,"380":-2.009927749633789,"381":-8.96264934539795,"382":5.702663898468018,"383":16.063232421875,"384":1.898099422454834,"385":-14.983560562133789,"386":2.19577956199646,"387":1.433022141456604,"388":-5.154059410095215,"389":4.6278767585754395,"390":-3.959381580352783,"391":11.368084907531738,"392":-3.585805654525757,"393":-2.9910056591033936,"394":-1.4551432132720947,"395":-4.547000885009766,"396":-5.771274089813232,"397":-6.340453624725342,"398":3.4401466846466064,"399":-4.87444543838501,"400":6.310457229614258,"401":5.867120742797852,"402":-7.125209808349609,"403":5.8730878829956055,"404":-5.954099178314209,"405":7.399512767791748,"406":-6.7148356437683105,"407":6.27682638168335,"408":-4.6748127937316895,"409":6.2388014793396,"410":6.68202543258667,"411":-7.071921348571777,"412":-6.803671360015869,"413":7.074343681335449,"414":-6.388577938079834,"415":6.454592704772949,"416":6.502669811248779,"417":-5.993208885192871,"418":7.096830368041992,"419":-5.532667636871338,"420":-4.492794990539551,"421":-5.224278450012207,"422":6.1979570388793945,"423":6.0486249923706055,"424":-4.774115085601807,"425":5.650781631469727,"426":-6.9096550941467285,"427":-6.825305461883545,"428":-5.792551040649414,"429":6.439787864685059,"430":-6.253325462341309,"431":-7.587037086486816,"432":4.8004255294799805,"433":3.052452325820923,"434":-0.4649507999420166,"435":-4.003159046173096,"436":-2.0953850746154785,"437":3.2414872646331787,"438":0.5142580270767212,"439":2.840824842453003,"440":-1.7230048179626465,"441":-1.3732153177261353,"442":0.45748960971832275,"443":3.5394530296325684,"444":2.793219804763794,"445":3.190883159637451,"446":-0.12066125124692917,"447":2.329437255859375,"448":-2.474484920501709,"449":-1.3778934478759766,"450":-5.2609333992004395,"451":-2.084521532058716,"452":1.772013783454895,"453":3.204662799835205,"454":-5.352437496185303,"455":-2.79321026802063,"456":-4.772964954376221,"457":0.9082310795783997,"458":-1.348105788230896,"459":1.7254185676574707,"460":2.135774850845337,"461":-3.591907262802124,"462":-3.9275031089782715,"463":4.227288722991943,"464":1.421880841255188,"465":1.7296619415283203,"466":1.214538812637329,"467":4.120597839355469,"468":6.8658037185668945,"469":3.144397258758545,"470":5.42402982711792,"471":-3.072258234024048,"472":0.34624093770980835,"473":0.45398008823394775,"474":-6.559328079223633,"475":-3.229179859161377,"476":2.0881545543670654,"477":0.23348140716552734,"478":5.339008331298828,"479":1.8613295555114746,"480":3.610757827758789,"481":6.910995006561279,"482":0.7610311508178711,"483":2.203695058822632,"484":-2.9286704063415527,"485":-1.5229941606521606,"486":-0.3195878863334656,"487":-1.5807148218154907,"488":-2.1949498653411865,"489":-0.6314260363578796,"490":-6.867049694061279,"491":-4.905811786651611,"492":0.47313153743743896,"493":2.091843605041504,"494":-4.3260650634765625,"495":-6.641917705535889,"496":0.1508420705795288,"497":-4.223072052001953,"498":2.3830628395080566,"499":2.483776330947876,"500":5.273317337036133,"501":-1.3087027072906494,"502":5.571007251739502,"503":6.981670379638672,"504":-5.2157511711120605,"505":-0.038558293133974075,"506":-4.123866081237793,"507":5.231507778167725,"508":-3.7417540550231934,"509":-5.066534996032715,"510":3.415330171585083,"511":0.23228207230567932,"512":-2.4210333824157715,"513":-2.2817611694335938,"514":-4.649147987365723,"515":-4.3391594886779785,"516":-5.715892791748047,"517":-5.346462249755859,"518":-0.7127261161804199,"519":3.478846788406372,"520":5.566788196563721,"521":-0.17968063056468964,"522":5.330288410186768,"523":3.9006223678588867,"524":-2.3376758098602295,"525":1.8552359342575073,"526":4.739713668823242,"527":3.7480039596557617,"528":1.6182039976119995,"529":-0.3112432360649109,"530":1.4345808029174805,"531":4.8116230964660645,"532":-3.427727460861206,"533":5.382903099060059,"534":0.889847457408905,"535":-3.7245283126831055,"536":-4.509487628936768,"537":0.7957416772842407,"538":-4.462645530700684,"539":-5.024511337280273,"540":16.71368980407715,"541":-6.703622817993164,"542":-9.798206329345703,"543":9.890262603759766,"544":11.275392532348633,"545":-7.2839741706848145,"546":-11.479296684265137,"547":-13.161225318908691,"548":10.567244529724121,"549":-3.6430625915527344,"550":11.164458274841309,"551":-2.8450522422790527,"552":12.076123237609863,"553":-5.073261737823486,"554":-8.472043991088867,"555":6.007936000823975,"556":4.902581214904785,"557":-4.8428635597229,"558":5.953895092010498,"559":-14.21954345703125,"560":-8.337672233581543,"561":-6.249237060546875,"562":-11.858222007751465,"563":8.313873291015625,"564":15.134108543395996,"565":12.50511360168457,"566":6.199361801147461,"567":-13.48060131072998,"568":8.58066177368164,"569":-0.3640260696411133,"570":8.297645568847656,"571":10.529618263244629,"572":-3.1305084228515625,"573":-11.156585693359375,"574":12.145383834838867,"575":9.752496719360352,"576":-10.683459281921387,"577":-9.3902006149292,"578":-8.594026565551758,"579":-5.979100704193115,"580":-8.486567497253418,"581":7.367447376251221,"582":8.752320289611816,"583":8.250421524047852,"584":-8.699320793151855,"585":7.503970146179199,"586":-8.860689163208008,"587":-8.452600479125977,"588":-2.1169989109039307,"589":6.25300931930542,"590":-7.181407451629639,"591":-8.273503303527832,"592":-5.70869779586792,"593":8.458210945129395,"594":-6.082478046417236,"595":-7.390652179718018,"596":7.732858657836914,"597":7.656106948852539,"598":10.290983200073242,"599":-7.499814987182617,"600":-8.22661018371582,"601":7.473039627075195,"602":9.036962509155273,"603":10.467337608337402,"604":-9.004822731018066,"605":9.825543403625488,"606":-6.830160617828369,"607":-9.313631057739258,"608":6.502721786499023,"609":8.57011890411377,"610":-9.413361549377441,"611":-9.910804748535156,"612":-5.139505863189697,"613":0.022449033334851265,"614":-1.2630882263183594,"615":3.3893003463745117,"616":-0.680422842502594,"617":-2.2063190937042236,"618":4.875824928283691,"619":2.2635512351989746,"620":-0.27984777092933655,"621":-2.7052390575408936,"622":-2.689173460006714,"623":-2.621034622192383,"624":-5.325690746307373,"625":-4.599754810333252,"626":0.37081602215766907,"627":2.144075870513916,"628":5.283989906311035,"629":-0.7959836721420288,"630":1.948819637298584,"631":3.412022829055786,"632":-0.9268357753753662,"633":-1.2988005876541138,"634":3.0878634452819824,"635":3.4884252548217773,"636":-3.108422040939331,"637":-0.03241095691919327,"638":1.0187633037567139,"639":4.180518627166748,"640":-0.9015754461288452,"641":4.909125804901123,"642":0.38703492283821106,"643":-0.11121726781129837,"644":-3.2641396522521973,"645":-1.7248857021331787,"646":-2.1578755378723145,"647":-2.4376354217529297,"648":-0.32569560408592224,"649":2.091708183288574,"650":-4.153652191162109,"651":-0.8567709922790527,"652":-2.748220205307007,"653":-2.5154435634613037,"654":2.460740089416504,"655":5.066029071807861,"656":-1.4884817600250244,"657":2.39875864982605,"658":-3.551391124725342,"659":2.0546860694885254,"660":-3.631175994873047,"661":-1.1090476512908936,"662":-4.893784523010254,"663":1.5121958255767822,"664":4.4340643882751465,"665":1.1511305570602417,"666":-0.06492769718170166,"667":1.1211962699890137,"668":0.49539315700531006,"669":4.127755641937256,"670":-1.5749022960662842,"671":-0.937494695186615,"672":-3.7280473709106445,"673":2.849694013595581,"674":0.46491897106170654,"675":4.0506367683410645,"676":-1.595188021659851,"677":-0.5652119517326355,"678":-3.9591243267059326,"679":3.017322540283203,"680":2.46802020072937,"681":-1.8864543437957764,"682":-2.9425156116485596,"683":-1.4059268236160278,"684":-4.136435508728027,"685":1.1208055019378662,"686":-2.6581759452819824,"687":2.1000115871429443,"688":-2.433176279067993,"689":-4.957393169403076,"690":3.4669106006622314,"691":0.5710570216178894,"692":-1.9771828651428223,"693":-2.9393796920776367,"694":-2.905940532684326,"695":-2.0824151039123535,"696":-5.341545581817627,"697":-5.069438457489014,"698":-1.8127236366271973,"699":3.6737468242645264,"700":5.985367298126221,"701":-0.9783536195755005,"702":4.2537126541137695,"703":2.944744110107422,"704":-2.1501080989837646,"705":1.0586540699005127,"706":1.9465017318725586,"707":3.0316736698150635,"708":-2.1367597579956055,"709":0.4258590340614319,"710":0.3337465226650238,"711":3.3631186485290527,"712":-1.2504719495773315,"713":4.3924336433410645,"714":-0.319339781999588,"715":0.5471354722976685,"716":-4.1469035148620605,"717":-0.15003572404384613,"718":-2.725727081298828,"719":-1.605016827583313}},"forgetHidden":{"rows":20,"columns":20,"weights":{"0":-5.750085830688477,"1":5.720310211181641,"2":-5.850743293762207,"3":-5.7316436767578125,"4":5.779121398925781,"5":5.89567756652832,"6":-5.33300256729126,"7":5.061824798583984,"8":-5.879952907562256,"9":-5.737342357635498,"10":-5.423495769500732,"11":-2.6564579010009766,"12":-5.856131076812744,"13":-5.755401611328125,"14":5.8680195808410645,"15":5.842000961303711,"16":4.490429878234863,"17":-5.933042526245117,"18":4.937548637390137,"19":-5.7615838050842285,"20":-6.156311988830566,"21":-6.422529220581055,"22":0.02738397940993309,"23":6.364065170288086,"24":-6.439944744110107,"25":-6.44883918762207,"26":6.342241287231445,"27":-6.34108829498291,"28":6.185659408569336,"29":6.3663763999938965,"30":5.945323944091797,"31":-2.973102569580078,"32":-6.292569637298584,"33":6.404605865478516,"34":-6.260385036468506,"35":-6.381280899047852,"36":-6.17519998550415,"37":6.329624652862549,"38":-6.335939884185791,"39":6.252070426940918,"40":5.808724880218506,"41":-6.009530544281006,"42":6.174710273742676,"43":6.056281566619873,"44":-6.102478981018066,"45":-6.164585113525391,"46":5.912014961242676,"47":-5.69254732131958,"48":6.173732757568359,"49":5.996819019317627,"50":5.733112812042236,"51":1.182521939277649,"52":5.93079137802124,"53":5.951132297515869,"54":-6.11810302734375,"55":-6.0763258934021,"56":-4.470130443572998,"57":5.995273113250732,"58":-5.173684120178223,"59":6.097256183624268,"60":-4.278841972351074,"61":5.0379862785339355,"62":-5.4947943687438965,"63":-5.3343610763549805,"64":5.2604217529296875,"65":5.443605899810791,"66":-4.885443210601807,"67":4.46091890335083,"68":-5.4440202713012695,"69":-5.252370834350586,"70":-4.026490211486816,"71":0.2637229859828949,"72":-4.699217796325684,"73":-4.76860237121582,"74":5.440959453582764,"75":5.327582359313965,"76":1.9070029258728027,"77":-4.759942531585693,"78":3.5354537963867188,"79":-5.330589771270752,"80":2.4439072608947754,"81":-3.2125322818756104,"82":4.048980712890625,"83":3.6305899620056152,"84":-3.6820178031921387,"85":-3.960688591003418,"86":3.1994359493255615,"87":-2.8577582836151123,"88":3.9777655601501465,"89":3.6625776290893555,"90":2.4473397731781006,"91":0.03412478044629097,"92":3.02266263961792,"93":3.1268832683563232,"94":-3.94450044631958,"95":-3.854891777038574,"96":-1.0372562408447266,"97":2.9202053546905518,"98":-1.677795171737671,"99":3.8492298126220703,"100":2.480449676513672,"101":-8.747488975524902,"102":3.108262777328491,"103":2.781172513961792,"104":-8.782249450683594,"105":-9.33414077758789,"106":8.561059951782227,"107":-8.417522430419922,"108":2.7403693199157715,"109":2.7775070667266846,"110":8.472539901733398,"111":0.128357395529747,"112":-3.4974098205566406,"113":8.770818710327148,"114":-2.9913406372070312,"115":-9.262466430664062,"116":-0.8602964282035828,"117":2.731196641921997,"118":-1.0251132249832153,"119":2.625786781311035,"120":5.196257591247559,"121":-11.122332572937012,"122":11.599844932556152,"123":5.847138404846191,"124":-11.649491310119629,"125":-11.625901222229004,"126":11.573139190673828,"127":-11.335186958312988,"128":5.886907577514648,"129":5.753504276275635,"130":11.11268138885498,"131":6.2847981452941895,"132":-0.3501206636428833,"133":11.525195121765137,"134":-5.947023391723633,"135":-11.494888305664062,"136":-3.236424207687378,"137":5.5612030029296875,"138":-4.269215106964111,"139":5.838726043701172,"140":5.19159460067749,"141":-5.652573108673096,"142":5.944110870361328,"143":5.847866535186768,"144":-5.753248691558838,"145":-5.926334857940674,"146":5.554571628570557,"147":-5.352315425872803,"148":5.881568908691406,"149":5.768270492553711,"150":4.808950901031494,"151":0.4023923873901367,"152":5.590771198272705,"153":5.4091796875,"154":-5.87617301940918,"155":-5.746628284454346,"156":-3.157996416091919,"157":5.5183281898498535,"158":-4.3743414878845215,"159":5.761382102966309,"160":-5.751019477844238,"161":3.7543249130249023,"162":-4.426772594451904,"163":-6.139916896820068,"164":4.127048492431641,"165":2.513878107070923,"166":-3.5825819969177246,"167":2.847769260406494,"168":-6.24412202835083,"169":-6.009679317474365,"170":-5.477290630340576,"171":-0.3692770004272461,"172":-3.9612815380096436,"173":-3.836501121520996,"174":6.251401901245117,"175":4.179288387298584,"176":2.2189602851867676,"177":-6.18472146987915,"178":4.585814476013184,"179":-6.002779960632324,"180":-5.255151748657227,"181":5.641338348388672,"182":-5.886499404907227,"183":-5.79589319229126,"184":5.790931701660156,"185":5.901968002319336,"186":-5.567827224731445,"187":5.400031089782715,"188":-5.893758296966553,"189":-5.7831807136535645,"190":-5.145612716674805,"191":-0.2750937342643738,"192":-5.547508239746094,"193":-5.628011703491211,"194":5.8598480224609375,"195":5.898263931274414,"196":3.020887613296509,"197":-5.5847320556640625,"198":4.366618633270264,"199":-5.845831394195557,"200":5.767468452453613,"201":-2.7268459796905518,"202":5.215103626251221,"203":5.6897053718566895,"204":-5.332829475402832,"205":-9.219592094421387,"206":5.226386070251465,"207":-5.242023468017578,"208":2.5596604347229004,"209":5.825094223022461,"210":8.028924942016602,"211":0.20738990604877472,"212":2.191470146179199,"213":5.612061500549316,"214":-6.234950065612793,"215":-5.738841533660889,"216":-0.4134651720523834,"217":6.188663959503174,"218":-4.757023811340332,"219":6.221502304077148,"220":-3.654364585876465,"221":4.2627272605896,"222":0.20821699500083923,"223":-4.825739860534668,"224":-0.1846821904182434,"225":4.709946155548096,"226":-0.2162412405014038,"227":-0.11589410901069641,"228":-4.25229024887085,"229":-4.406330585479736,"230":0.9909826517105103,"231":-3.721128463745117,"232":0.7280992269515991,"233":0.5347285866737366,"234":4.2609944343566895,"235":-0.26490405201911926,"236":4.267364978790283,"237":0.9850189089775085,"238":3.9992458820343018,"239":-4.239738941192627,"240":-6.473052024841309,"241":-6.085238456726074,"242":-0.5280882716178894,"243":0.2912166714668274,"244":-5.712615489959717,"245":-5.033506393432617,"246":5.838161468505859,"247":-5.597200870513916,"248":-0.2877316474914551,"249":-0.4187485873699188,"250":-0.5403515696525574,"251":-0.044599711894989014,"252":-6.498377323150635,"253":5.2221808433532715,"254":0.3131828308105469,"255":-5.42597770690918,"256":-0.42140093445777893,"257":-0.41739246249198914,"258":0.13985781371593475,"259":-0.739166259765625,"260":3.6662116050720215,"261":-4.695932865142822,"262":4.848727226257324,"263":4.7888007164001465,"264":-4.8545026779174805,"265":-4.889538764953613,"266":4.2479448318481445,"267":-3.281505823135376,"268":4.952041149139404,"269":4.399502754211426,"270":3.578894853591919,"271":0.32354575395584106,"272":4.014502048492432,"273":4.570910453796387,"274":-4.767358303070068,"275":-4.993446350097656,"276":-2.1830830574035645,"277":4.652408123016357,"278":-3.164214611053467,"279":4.6314778327941895,"280":-4.842098712921143,"281":5.206697940826416,"282":-5.535763263702393,"283":-5.485396385192871,"284":5.409425258636475,"285":5.524358749389648,"286":-4.850609302520752,"287":4.054884433746338,"288":-5.569827556610107,"289":-5.2141804695129395,"290":-4.571517467498779,"291":-0.5449156761169434,"292":-5.114631652832031,"293":-5.061949729919434,"294":5.528896808624268,"295":5.321064472198486,"296":3.4463844299316406,"297":-5.390810012817383,"298":3.853818893432617,"299":-5.337518215179443,"300":5.568991184234619,"301":-14.216484069824219,"302":14.566913604736328,"303":5.975594997406006,"304":-14.382786750793457,"305":-14.592782974243164,"306":14.221456527709961,"307":-5.538112163543701,"308":5.990609645843506,"309":5.860794544219971,"310":13.975221633911133,"311":0.8714338541030884,"312":5.800012588500977,"313":14.355589866638184,"314":-5.990577697753906,"315":-14.454614639282227,"316":-4.042346954345703,"317":5.914532661437988,"318":-4.783957481384277,"319":5.905167102813721,"320":6.031490802764893,"321":0.691559374332428,"322":-0.5613474249839783,"323":-6.198745250701904,"324":6.872103691101074,"325":-2.1312034130096436,"326":-0.10689041763544083,"327":0.04828166961669922,"328":-6.94582462310791,"329":-0.3682362139225006,"330":-6.5148444175720215,"331":-0.389344722032547,"332":-0.28152239322662354,"333":-0.128177210688591,"334":7.340761184692383,"335":0.4470941424369812,"336":6.410974502563477,"337":-7.152511119842529,"338":7.4463348388671875,"339":-7.225579738616943,"340":-5.263277530670166,"341":5.323013782501221,"342":-5.5979156494140625,"343":-5.335989952087402,"344":5.385773181915283,"345":5.604267597198486,"346":-4.774388790130615,"347":4.404420375823975,"348":-5.578297138214111,"349":-5.248210430145264,"350":-4.936674118041992,"351":-1.7496747970581055,"352":-5.459812641143799,"353":-5.266886234283447,"354":5.582655429840088,"355":5.456676959991455,"356":3.552185535430908,"357":-5.705750942230225,"358":4.215213298797607,"359":-5.4349775314331055,"360":-4.878834247589111,"361":5.030263423919678,"362":-5.434785842895508,"363":-5.366403102874756,"364":5.227025985717773,"365":5.451082229614258,"366":-4.44899845123291,"367":3.8625669479370117,"368":-5.3954339027404785,"369":-5.0309271812438965,"370":-4.261468887329102,"371":-1.1960117816925049,"372":-5.094824314117432,"373":-5.012084484100342,"374":5.366704940795898,"375":5.2150678634643555,"376":2.8639416694641113,"377":-5.317272186279297,"378":4.3415913581848145,"379":-5.423908710479736,"380":-4.693008899688721,"381":5.108574867248535,"382":-5.565403461456299,"383":-5.32257604598999,"384":5.445380687713623,"385":5.514456272125244,"386":-4.987359046936035,"387":4.54640531539917,"388":-5.605867385864258,"389":-5.414425373077393,"390":-4.420619964599609,"391":-0.5120881795883179,"392":-4.884333610534668,"393":-5.0688347816467285,"394":5.523022174835205,"395":5.393995761871338,"396":2.3438966274261475,"397":-5.097690582275391,"398":3.7554311752319336,"399":-5.278341770172119}},"forgetBias":{"rows":20,"columns":1,"weights":{"0":0,"1":0,"2":0,"3":0,"4":0,"5":0,"6":0,"7":0,"8":0,"9":0,"10":0,"11":0,"12":0,"13":0,"14":0,"15":0,"16":0,"17":0,"18":0,"19":0}},"outputMatrix":{"rows":20,"columns":36,"weights":{"0":-1.4672073125839233,"1":2.654350519180298,"2":-10.847809791564941,"3":8.856439590454102,"4":0.134183868765831,"5":-12.09366226196289,"6":11.673272132873535,"7":-0.48089516162872314,"8":-9.951667785644531,"9":-11.865290641784668,"10":0.04003049060702324,"11":-0.31095412373542786,"12":-2.0562827587127686,"13":-11.870447158813477,"14":-11.637505531311035,"15":12.170113563537598,"16":11.369653701782227,"17":-12.203835487365723,"18":9.802331924438477,"19":0.8857761025428772,"20":-11.297080039978027,"21":-7.860047340393066,"22":-0.6164525747299194,"23":10.887772560119629,"24":-0.3395642638206482,"25":3.1755073070526123,"26":-7.425497055053711,"27":0.31089675426483154,"28":11.647141456604004,"29":1.9618548154830933,"30":11.808868408203125,"31":1.9316424131393433,"32":-12.01382064819336,"33":-10.903077125549316,"34":0.052812907844781876,"35":0.9189845323562622,"36":-5.850555419921875,"37":-13.679730415344238,"38":-9.595890045166016,"39":-1.7674665451049805,"40":-9.923958778381348,"41":16.648479461669922,"42":8.05620002746582,"43":5.2222208976745605,"44":-0.7228972315788269,"45":-15.793091773986816,"46":-3.8987462520599365,"47":4.264749526977539,"48":-17.469520568847656,"49":10.104314804077148,"50":2.2927889823913574,"51":16.116859436035156,"52":0.8974143266677856,"53":4.807619571685791,"54":-11.778239250183105,"55":0.4797283411026001,"56":2.2629446983337402,"57":11.394855499267578,"58":-7.610217094421387,"59":-12.178071022033691,"60":-13.547046661376953,"61":7.490363597869873,"62":-0.10015179216861725,"63":13.387674331665039,"64":5.077182769775391,"65":8.44310188293457,"66":-11.365265846252441,"67":-5.427878379821777,"68":10.798091888427734,"69":-15.107629776000977,"70":-2.681030750274658,"71":-1.7141107320785522,"72":8.879310607910156,"73":-9.663235664367676,"74":18.26289939880371,"75":1.9142780303955078,"76":-0.9985294342041016,"77":8.48787784576416,"78":-11.779404640197754,"79":-3.8099145889282227,"80":6.724606037139893,"81":12.63879680633545,"82":6.357667922973633,"83":11.912606239318848,"84":3.283297300338745,"85":8.760579109191895,"86":6.871875762939453,"87":-8.059195518493652,"88":-7.045814514160156,"89":5.056214809417725,"90":-11.155363082885742,"91":-2.954709053039551,"92":6.911842346191406,"93":0.5983421802520752,"94":-3.8220558166503906,"95":-14.296249389648438,"96":4.153504848480225,"97":15.696893692016602,"98":8.06519889831543,"99":-6.475167751312256,"100":15.995842933654785,"101":-2.1911754608154297,"102":5.041873455047607,"103":-15.886384963989258,"104":1.0670193433761597,"105":7.467572212219238,"106":5.58083438873291,"107":1.7848215103149414,"108":-5.5278778076171875,"109":5.879303932189941,"110":-5.838090896606445,"111":-5.9225921630859375,"112":-5.547643661499023,"113":-5.320581436157227,"114":6.237351894378662,"115":6.1426682472229,"116":-5.414492607116699,"117":0.24487799406051636,"118":-6.091006755828857,"119":5.518789768218994,"120":-6.1612935066223145,"121":-5.922935962677002,"122":-5.461833953857422,"123":5.698537826538086,"124":6.186981678009033,"125":-2.7444231510162354,"126":-5.815133094787598,"127":4.994036674499512,"128":2.454638957977295,"129":5.9861369132995605,"130":-3.4712705612182617,"131":5.322138786315918,"132":-6.217525005340576,"133":4.31644868850708,"134":0.03383578732609749,"135":5.996455669403076,"136":-4.971617221832275,"137":-2.630497455596924,"138":-6.160546779632568,"139":6.117298126220703,"140":-2.57175612449646,"141":-3.3894500732421875,"142":-5.742237567901611,"143":-1.5117658376693726,"144":-3.382375717163086,"145":-4.360755443572998,"146":-0.022355224937200546,"147":5.580875396728516,"148":5.733110427856445,"149":5.831216812133789,"150":-4.998612403869629,"151":-3.034778356552124,"152":6.06981897354126,"153":-2.3209104537963867,"154":5.452620983123779,"155":-5.488641262054443,"156":5.671416759490967,"157":-2.016240358352661,"158":4.749013900756836,"159":-6.5663604736328125,"160":-0.619404673576355,"161":2.0254197120666504,"162":-5.647913455963135,"163":3.1673436164855957,"164":0.8508484363555908,"165":-6.107737064361572,"166":5.745240688323975,"167":4.105349063873291,"168":5.70263671875,"169":3.888535499572754,"170":5.8504204750061035,"171":-4.703083515167236,"172":-2.798204183578491,"173":6.066624164581299,"174":5.420297145843506,"175":-5.78508186340332,"176":-0.772002637386322,"177":0.9213805198669434,"178":5.204659938812256,"179":-5.98783016204834,"180":-0.9409227967262268,"181":0.6266281604766846,"182":1.6114282608032227,"183":15.211589813232422,"184":-0.36632195115089417,"185":-5.284271717071533,"186":-10.713065147399902,"187":-6.433646202087402,"188":7.546210765838623,"189":5.300163745880127,"190":5.531501293182373,"191":0.5158882141113281,"192":-16.64333152770996,"193":-7.381866931915283,"194":-0.8710206747055054,"195":-3.5848679542541504,"196":5.889773845672607,"197":-0.9635074734687805,"198":-5.345608711242676,"199":-2.1167924404144287,"200":-2.6635797023773193,"201":-0.13692748546600342,"202":2.4814517498016357,"203":10.200152397155762,"204":9.450146675109863,"205":7.367820739746094,"206":1.5863033533096313,"207":-5.978017807006836,"208":-1.0488659143447876,"209":1.6814264059066772,"210":6.405974864959717,"211":-1.1551159620285034,"212":2.410236358642578,"213":-2.6736879348754883,"214":3.5351932048797607,"215":-2.730741500854492,"216":6.179238319396973,"217":-3.5120418071746826,"218":6.243637561798096,"219":2.6200809478759766,"220":6.130801677703857,"221":6.1413984298706055,"222":-6.132882595062256,"223":-5.981625556945801,"224":6.259237289428711,"225":-0.027743075042963028,"226":6.289460182189941,"227":2.114196300506592,"228":6.321900844573975,"229":5.968559265136719,"230":6.1331963539123535,"231":-6.048882007598877,"232":-6.252826690673828,"233":1.543951392173767,"234":-6.1658616065979,"235":-5.813308238983154,"236":-4.4753618240356445,"237":-6.131463050842285,"238":-2.8119609355926514,"239":2.746161937713623,"240":6.2424187660217285,"241":-5.296211242675781,"242":-0.9731715321540833,"243":-6.154385566711426,"244":4.495612144470215,"245":-5.705545902252197,"246":6.205755233764648,"247":-4.280848503112793,"248":0.18600976467132568,"249":5.266592502593994,"250":6.201964378356934,"251":5.814117908477783,"252":2.9691250324249268,"253":-3.0833394527435303,"254":11.760297775268555,"255":-11.605729103088379,"256":0.2723767161369324,"257":11.79215145111084,"258":-9.960932731628418,"259":-0.03902048245072365,"260":-2.050960063934326,"261":4.5862579345703125,"262":1.5528967380523682,"263":2.5164785385131836,"264":9.940910339355469,"265":9.602273941040039,"266":0.2806691527366638,"267":-11.136127471923828,"268":-9.827994346618652,"269":-6.3060102462768555,"270":-8.187314987182617,"271":-0.761009931564331,"272":6.2922234535217285,"273":-3.0713000297546387,"274":-2.32293438911438,"275":-11.388542175292969,"276":0.5668051838874817,"277":-10.549023628234863,"278":5.881252288818359,"279":-2.781360387802124,"280":4.482264995574951,"281":-1.080528974533081,"282":0.3044416606426239,"283":-11.243430137634277,"284":5.210752010345459,"285":11.507615089416504,"286":0.04184023663401604,"287":0.9633748531341553,"288":-5.727748870849609,"289":9.383299827575684,"290":0.9877171516418457,"291":-1.6873854398727417,"292":-11.379118919372559,"293":0.501289427280426,"294":9.211724281311035,"295":10.696135520935059,"296":-10.242365837097168,"297":3.8607473373413086,"298":-12.435014724731445,"299":0.567417323589325,"300":-11.80997085571289,"301":0.6223399639129639,"302":2.905226707458496,"303":-1.6924206018447876,"304":-0.11511306464672089,"305":10.746506690979004,"306":-0.6590770483016968,"307":11.888917922973633,"308":2.028944492340088,"309":11.61078929901123,"310":10.110740661621094,"311":-4.350388050079346,"312":-11.106293678283691,"313":-4.026015281677246,"314":0.6681326627731323,"315":11.943012237548828,"316":-13.632367134094238,"317":-0.6194186210632324,"318":-9.277703285217285,"319":-9.198863983154297,"320":2.114464282989502,"321":11.376544952392578,"322":-11.766021728515625,"323":-11.76336669921875,"324":2.300286054611206,"325":11.582992553710938,"326":-9.802277565002441,"327":-11.628189086914062,"328":-13.04487133026123,"329":-5.8977155685424805,"330":0.7084935307502747,"331":12.55749797821045,"332":-0.09741928428411484,"333":6.415760040283203,"334":-0.1660650074481964,"335":11.336339950561523,"336":-0.834481418132782,"337":-9.547398567199707,"338":-13.360443115234375,"339":1.1081632375717163,"340":13.367313385009766,"341":-5.066477298736572,"342":-12.158720016479492,"343":11.211187362670898,"344":3.781169891357422,"345":12.77364730834961,"346":-11.81039810180664,"347":-10.362470626831055,"348":-1.4922596216201782,"349":5.425363063812256,"350":3.4272541999816895,"351":0.7826116681098938,"352":-9.642348289489746,"353":1.0205363035202026,"354":-0.0984177440404892,